tree
version=v2
num_class=1
num_tree_per_iteration=1
label_index=0
max_feature_idx=39
objective=binary sigmoid:1
feature_names=EXT_SOURCE_1 EXT_SOURCE_2 EXT_SOURCE_3 DAYS_BIRTH DAYS_EMPLOYED AMT_ANNUITY AMT_CREDIT AMT_GOODS_PRICE DAYS_ID_PUBLISH DAYS_REGISTRATION DAYS_LAST_PHONE_CHANGE AMT_INCOME_TOTAL OWN_CAR_AGE REGION_POPULATION_RELATIVE HOUR_APPR_PROCESS_START AMT_REQ_CREDIT_BUREAU_YEAR AMT_REQ_CREDIT_BUREAU_QRT DEF_30_CNT_SOCIAL_CIRCLE YEARS_BEGINEXPLUATATION_MODE TOTALAREA_MODE OBS_60_CNT_SOCIAL_CIRCLE OBS_30_CNT_SOCIAL_CIRCLE BASEMENTAREA_MODE REGION_RATING_CLIENT_W_CITY APARTMENTS_MODE LANDAREA_AVG BASEMENTAREA_AVG DEF_60_CNT_SOCIAL_CIRCLE CODE_GENDER LANDAREA_MODE AMT_REQ_CREDIT_BUREAU_MON YEARS_BEGINEXPLUATATION_MEDI REG_CITY_NOT_LIVE_CITY NONLIVINGAREA_MEDI LANDAREA_MEDI BASEMENTAREA_MEDI COMMONAREA_MEDI YEARS_BEGINEXPLUATATION_AVG LIVINGAREA_MEDI CNT_FAM_MEMBERS
feature_infos=[0.01469148240341735:0.96269277056130598] [8.1736165188843972e-08:0.85499966640470115] [0.00052726523870988168:0.89397607460428663] [-25229:-7489] [-17912:0] [1615.5:225000] [45000:4050000] [40500:4050000] [-7197:0] [-24672:0] [-4292:0] [25650:117000000] [0:91] [0.00053300000000000005:0.072508000000000003] [0:23] [0:25] [0:261] [0:8] [0:1] [0:1] [0:29] [0:30] [0:1] [1:3] [0:1] [0:1] [0:1] [0:7] [0:1] [0:1] [0:27] [0:1] [0:1] [0:1] [0:1] [0:1] [0:1] [0:1] [0:1] [1:20]
tree_sizes=2778 2853 2842 2862 2841 2858 2842 2834 2837 2847 2858 2862 2872 2855 2867 2861 2859 2854 2869 2875 2873 2888 2879 2878 2885 2868 2879 2864 2873 2885 2884 2883 2875 2882 2899 2884 2887 2877 2898 2898 2893 2871 2869 2872 2883 2884 2867 2882 2884 2893 2887 2894 2898 2896 2918 2886 2893 2892 2903 2892 2892 2894 2905 2882 2887 2881 2891 2890 2909 2911 2895 2891 2907 2907 2885 2909 2911 2888 2895 2904 2893 2910 2885 2907 2901 2911 2925 2885 2917 2897 2907 2895 2895 2917 2902 2893 2902 2902 2900 2901 2923 2917 2921 2894 2902 2896 2917 2920 2924 2894 2911 2908 2918 2921 2918 2916 2896 2918 2906 2910 2905 2918 2930 2898 2913 2903 2927 2921 2915 2893 2927 2931 2900 2928 2890 2920 2908 2913 2895 2909 2903 2906 2921 2918 2918 2893 2909 2908 2885 2894 2903 2905 2909 2909 2897 2897 2894 2907 2937 2906 2915 2888 2896 2944 2924 2917 2918 2903 2927 2904 2894 2915 2920 2910 2887 2906 2898 2913 2925 2914 2909 2907 2913 2898 2918 2900 2887 2909 2917 2895 2908 2890 2912 2917 2933 2905 2898 2922 2915 2909 2895 2911 2906 2901 2929 2899 2905 2919 2901 2904 2920 2909 2899 2890 2917 2911 2900 2888 2908 2910 2906 2926 2916 2899 2928 2921 2917 2903 2905 2905 2904 2890 2920 2916 2906 2333 2898 2906 2912 2926 2937 2927 2884 2924 2904 2888 2916 2905 2911 2903 2910 2912 2903 2940 2921 2886 2911 2910 2908 2929 2906 2896 2921 2891 2910 2929 2920 2583 2921 2883 2892 2918 2908 2905 2941 2905 2886 2906 2920 2764 2941 2906 2926 2883 2922 2900 2909 2909 2920 2909 2910 2931 2883 2910 2916 2903 2923 2907 2916 2928 2902 2926 2750 2902 2919 2934 2576 2911 2935 2920 2911 2934 2906 2922 2890 2931 2942 2891 2927 2931 2915 2893 2915 2914 2899 2907 2930 2911 2914 2916 2901 2927 2013 2910 2916 2912 2903 2896 2882 2916 2904 2909 2906 2916 2907 2900 2931 2916 1828 2897 2935 2920 2885 2332 2886 2327 2924 2895 2881 2922 2920 2884 2947 2916 1604 2894 2899 2098 2929 2888 2918 2647 2921 2895 1768 2919 2910 2906 2916 2904 2891 2907 2917 2913 1258 2913 2923 2922 2892 2890 2911 2910 1341 1360 2233 2853 2915 2900 2829 2891 2935 2872 2906 2897 2906 2921 2911 2948 2899 2902 1100 2754 2912 2912 2885 2936 2911 2934 2897 1091 2908 2009 2890 2869 2876 2509 2898 2894 2914 2330 2922 2918 2167 1512 2915 2894 1351 2912 2907 2894 2341 1017 2927 2893 2914 2900 2891 1759 2933 2913 1012 2925 2904 2869 2893 2884 2916 2269 2906 2917 2923 2918 2893 2322 2903 2896 1939 2892 1186 2916 2905 1690 2166 2901 2750 2913 2905 2926 2880 2914 2887 2894 1351 2908 1839 2937 2929 2887 2895 2884 2900 2886 2912 2903 2168 1184 2884 2900 1519 2904 2889 2938 1360 2897 1590 2925 1187 2898 2872 2904 2580 2894 2855 2923 2899 2905 1604 2893 2015 1282 2932 2902 2863 2900 2919 2879 2897 2881 2869 1602 2898 2910 2901 2178 2900 2887 2913 2592 2867 2907 1284 2910 2869 1749 2916 2894 1360 2918 2898 2893 2255 2877 2894 1766 2882 2932 2259 2908 2904 2920 2837 1920 2882 2900 1764 2906 2926 1922 2881 2910 2913 2665 2922 1267 2903 2803 2896 2874 2923 1439 2747 2921 2919 1867 2929 2878 2902 2908 2899 2903 1270 2912 1279 2899 2890 1589 2873 1929 2929 2895 2896 2517 2906 2908 2878 2909 2823 2910 2891 2915 2937 1607 1262 1774 1350 2926 2890 2879 2893 2894 2884 2909 1264 2920 2270 2900 2932 2912 2880 2886 1266 2905 2934 2898 2873 2874 2889 2891 2887 2895 2918 1849 2944 2920 1097 2162 1766 2877 2891 2891 2903 2883 2895 2884 2884 2918 2896 2901 2918 2505 2880 2933 2099 2929 2904 2880 2922 2848 2894 1850 2915 2885 2901 2935 2888 2886 2899 2889 2903 2927 2691 2902 2172 1690 1931 2909 1685 2913 1278 2881 2894 2884 2891 1101 2908 2870 2944 2918 2898 2886 2912 2886 2915 2912 2902 2890 2410 2879 2917 2916 2893 2915 2892 2935 2917 2900 2891 1694 2890 2887 2909 2891 2839 2875 2911 2902 2892 1843 2882 2913 2886 2902 2894 2886 2900 1271 1864 2787 2930 2872 2917 2919 2909 2905 2945 2904 2890 2880 2179 2903 2725 2900 2654 2881 2895 2908 2892 2900 2890 2908 2920 2916 2911 2606 2873 2895 2924 2896 2893 2902 1266 2898 2884 2881 2890 2886 2899 2929 2781 2888 2894 1940 1932 2878 2902 2400 2890 1673 1431 2882 2893 2895 2900 1358 2897 2915 2896 2906 2891 2895 2873 2892 1017 2931 2932 2904 2907 2869 2907 1116 2927 2898 2918 2885 2493 2909 2919 2894 2919 2875 2912 2908 2252 1783 2929 2888 2889 2908 2889 2312 2886 2895 2909 2902 2920 2908 2869 1185 1765 2899 2883 2256 2899 2880 2891 2327 2913 2875 2916 2911 2932 2917 2883 2891 2909 2530 2877 2905 2906 2878 2918 2895 2921 1925 2909 2896 1106 2917 2913 1525 2899 2863 2926 2885 2874 2924 2910 2889 2908 2907 2912 2919 2893 2011 2890 2904 2895 2811 1104 2910 2332 2919 2909 2915 2087 1424 2896 1428 2893 2910 1536 2903 2883 2879 2911 2906 1433 2883 2817 2911 2900 2915 2904 1766 2918 2807 2899 2902 2890 2876 2899 2885 2895 2885 2895 2907 2918 2903 2917 2915 2898 2918 2887 2889 2883 1424 2894 2241 2903 1452 2866 2892 2895 2893 2916 2866 2892 2906 1432 2918 2890 2936 1207 2908 2925 2897 2906 2891 1775 2649 2367 2888 1682 2497 2916 2907 2901 2912 2896 2741 2889 2900 2908 2908 2942 2883 2891 2903 2899 2885 2896 2900 2884 2882 2506 2833 2918 2930 2901 2916 2904 2570 2880 2918 1621 2938 2883 2867

Tree=0
num_leaves=34
num_cat=0
split_feature=2 1 1 2 2 1 2 1 2 0 0 0 1 1 4 4 4 1 0 1 1 1 0 0 4 2 0 4 3 28 4 0 1
split_gain=4456.68 2449.19 1608.38 822.844 687.929 426.844 401.141 397.068 312.878 228.467 186.1 185.379 179.088 173.718 170.44 163.455 154.948 149.723 144.152 131.975 131.319 94.775 94.418 91.0347 90.6754 86.5225 76.6757 76.386 64.2942 61.9087 61.2254 64.3623 59.5014
threshold=0.31469441606860521 0.33350013644837456 0.35513315574603982 0.48034916116072962 0.50197671872363325 0.61729617687290872 0.13135864273369982 0.15431821222530337 0.14599244001433329 0.200265415666942 0.38361380918258742 0.41613468780005686 0.63627118423517903 0.078100629753101961 -2173.4999999999995 -2049.4999999999995 -3455.4999999999995 0.12825601737575185 0.3946129687892303 0.5786809302701853 0.6334831984538799 0.12825601737575185 0.2432957465422719 0.64297768051941173 -4382.4999999999991 0.26294789218207787 0.32491066203061736 -3061.4999999999995 -17987.499999999996 1.0000000180025095e-35 -4447.4999999999991 0.22244746384560335 0.45171882966308313
decision_type=8 8 8 10 10 10 10 10 10 8 10 10 8 10 10 10 10 10 10 10 8 10 8 10 10 10 10 10 2 2 10 10 10
left_child=2 3 8 7 5 11 20 10 21 -8 16 15 23 -10 -9 -3 -2 28 -16 27 -4 -1 -7 25 -19 -11 -26 -6 -5 -18 -15 -32 -17
right_child=1 4 6 17 19 22 9 14 13 12 -12 -13 -14 30 18 32 29 24 -20 -21 -22 -23 -24 -25 26 -27 -28 -29 -30 -31 31 -33 -34
leaf_value=-2.3458049027282399 -2.4161572203800774 -2.4402967929834563 -2.3971940971343595 -2.4367000757966992 -2.4518636129140585 -2.4301478582621696 -2.3982303042914883 -2.4327280128573228 -2.370668281827923 -2.4185228967884034 -2.429167250434253 -2.4455767501961962 -2.4399123818157284 -2.4180738230648746 -2.4112791778345901 -2.4234929970824424 -2.3770700162987279 -2.4480554532502485 -2.4373921707423425 -2.4538074340644571 -2.4219552705248431 -2.3766625538963559 -2.4489852384762352 -2.443006414030068 -2.4322107795425776 -2.4319745272080837 -2.4467219383046954 -2.444983960350545 -2.4176384713081411 -2.3961446703534821 -2.392070575043399 -2.4103642412790958 -2.4326657534573148
leaf_count=796 1380 14546 3273 1565 15887 1505 1232 5901 1111 7242 1043 10993 7493 1114 6249 5605 1744 5918 1405 56515 1806 1742 34199 1438 6752 4046 2789 19513 2487 2006 2873 1655 12177
internal_value=0 -0.204566 1.20026 0.624884 -0.394971 -0.143084 0.738535 1.15504 2.51842 0.518169 1.92904 0.10254 0.424286 2.10346 0.802406 0.24299 2.21728 0.0887666 1.1649 -0.611524 1.66885 3.62105 -0.44112 0.690147 -0.0763316 0.801296 0.145706 -0.435188 0.718645 2.60559 1.8406 2.03108 0.479759
internal_count=246000 210179 35821 39239 170940 79025 26530 19728 9291 21451 6173 43321 20219 6753 13555 32328 5130 19511 7654 91915 5079 2538 35704 12726 15459 11288 9541 35400 4052 3750 5642 4528 17782
shrinkage=1


Tree=1
num_leaves=34
num_cat=0
split_feature=2 1 1 2 2 1 2 1 2 0 0 1 1 4 0 1 3 4 0 1 4 1 0 0 2 0 1 3 4 17 19 2 4
split_gain=4206.77 2353.26 1431.1 876.634 557.304 486.772 366.468 303.813 260.848 208.475 191.257 174.25 169.039 168.986 164.542 147.007 136.79 133.949 135.463 116.887 99.0984 98.934 94.9145 94.5051 81.337 74.9486 74.6958 71.0261 68.3166 63.9581 63.1237 61.3528 54.0267
threshold=0.31469441606860521 0.401473968871706 0.35513315574603982 0.47674953178598795 0.48395083181648063 0.15431821222530337 0.13135864273369982 0.61729617687290872 0.14599244001433329 0.200265415666942 0.41904772096385173 0.14591277366591909 0.64926490579714813 -2173.4999999999995 0.38097533067530703 0.078100629753101961 -19192.499999999996 -2316.4999999999995 0.26976025860597846 0.626238940992495 -3901.4999999999995 0.62325013951029284 0.2432957465422719 0.64297768051941173 0.26294789218207787 0.30700738962463842 0.12825601737575185 -17987.499999999996 -3092.4999999999995 1.0000000180025095e-35 0.025250000000000005 0.62376832935934801 -4447.4999999999991
decision_type=8 8 8 10 10 10 10 10 10 8 10 10 8 10 10 10 2 10 10 8 10 10 8 10 10 10 10 2 10 10 10 10 10
left_child=2 3 8 5 7 14 19 17 26 -8 13 27 23 -7 16 -10 -2 -3 -19 -4 -13 28 -9 24 -11 31 -1 -5 -6 -15 -18 -22 -17
right_child=1 4 6 11 21 10 9 22 15 12 -12 20 -14 29 -16 32 30 18 -20 -21 25 -23 -24 -25 -26 -27 -28 -29 -30 -31 -32 -33 -34
leaf_value=0.084762130937533528 0.019798402157318248 -0.0040320760652364099 0.040308249202173782 0.001437603978146691 -0.013144123536291488 0.0078985667432160418 0.038939356591435235 0.0098796874788980565 0.063541580456038374 0.01955582741685143 -0.0016462807864467677 -0.0088954595950908408 -0.0014582845500321579 0.020853176839929769 0.010219327245450025 0.020496413166252704 0.054243718521366335 0.0099116116924111552 -0.0026403643043639785 0.017512150264670776 0.011421342849840723 -0.014796583537368249 -0.0093934105296385548 -0.0040533368838502641 0.0070011509411827344 -0.0068480238254124085 0.058287995204511389 0.019557659345765133 -0.0072523541720914911 0.038791192814528926 0.033847901869482992 -0.00078429418342402623 0.03846519046342211
leaf_count=796 1131 14771 3158 1914 19452 6639 1232 1436 1111 7728 3735 8707 6578 7907 1041 1114 2821 12405 7445 1921 4274 46006 32148 1584 4329 4230 1742 2981 24157 1223 1112 4644 4528
internal_value=0 -0.201234 1.15225 0.471268 -0.427643 0.952316 0.714633 -0.176874 2.36496 0.503288 0.667419 0.00310141 0.41277 0.842774 1.84263 1.98924 2.10849 0.0644313 0.261303 1.58986 -0.138471 -0.619866 -0.427807 0.644388 0.754026 0.0627377 3.33849 0.626939 -0.49374 1.16305 2.42457 0.25341 1.74845
internal_count=246000 210179 35821 52359 157820 25609 26530 68205 9291 21451 19504 26750 20219 15769 6105 6753 5064 34621 19850 5079 21855 89615 33584 13641 12057 13148 2538 4895 43609 9130 3933 8918 5642
shrinkage=0.02


Tree=2
num_leaves=34
num_cat=0
split_feature=2 1 1 2 2 1 1 2 1 0 1 0 0 4 2 4 0 2 1 4 0 28 1 0 0 1 3 3 4 0 31 5 7
split_gain=3974.7 2265.67 1285.79 821.659 546.92 442.005 300.141 299.266 265.008 171.071 165.95 156.393 156.332 148.565 143.649 135.85 135.094 134.414 128.73 125.648 119.453 96.4447 91.0255 88.4749 71.1556 68.5436 67.9985 66.3008 62.7772 59.0372 56.0296 54.5756 84.6049
threshold=0.31469441606860521 0.401473968871706 0.40951293061161537 0.47674953178598795 0.50197671872363325 0.15968216777734864 0.61729617687290872 0.14599244001433329 0.20724682471478231 0.41904772096385173 0.14591277366591909 0.38097533067530703 0.52826792061279526 -2149.4999999999995 0.17508512251332128 -3455.4999999999995 0.50720099881646974 0.12412739650253161 0.6334831984538799 -2316.4999999999995 0.17785244899496813 1.0000000180025095e-35 0.64060720043079156 0.2432957465422719 0.22610985629596803 0.64926490579714813 -9882.4999999999982 -17987.499999999996 -3061.4999999999995 0.19137115999016732 0.97545000000000004 15018.750000000002 450117.00000000006
decision_type=8 8 8 10 10 10 10 10 10 10 10 10 10 10 10 10 10 10 8 10 8 2 10 8 10 10 2 2 10 10 10 10 8
left_child=2 3 8 5 6 11 16 18 14 13 27 15 20 -7 29 -2 19 -10 -4 -3 -9 -12 28 -8 -16 -22 -15 -5 -6 -1 -17 -19 -33
right_child=1 4 7 10 22 9 23 12 17 -11 21 -13 -14 26 24 30 -18 31 -20 -21 25 -23 -24 -25 -26 -27 -28 -29 -30 -31 -32 32 -34
leaf_value=0.07926461373785211 0.020540774770529936 -0.0026275313964149068 0.035382759617091565 0.0014071531377532209 -0.013294626872915147 0.0075543497084742681 0.0087251137522738591 0.037824206059348393 0.05291401565528258 -0.0016386354473297258 0.0043662165323160715 0.0092152979459414527 -0.0047827190749607177 0.025592359134684939 0.052284867327569651 0.051269271181852982 -0.0081403558267760454 0.015166482996400108 0.013150864256215776 0.0071256408291853045 0.013441779710240569 -0.0061143982712037418 -0.015183577409968698 -0.0093849359682280191 0.027631077914158333 0.0024718059551789239 0.010819331081664439 0.018853019450852188 -0.0078305515346563676 0.051410748337949869 0.032297003086094907 0.042007698102823759 0.021733330637262786
leaf_count=1180 1491 12218 3485 1914 21277 6522 1505 823 1318 3672 7049 1109 4045 6743 1914 2827 7244 1340 2232 17235 9233 14806 38494 34199 860 4593 2146 2981 25648 549 1099 2104 2145
internal_value=0 -0.197948 1.10728 0.458053 -0.422166 0.918265 -0.186783 0.627888 2.08293 0.634346 0.00299839 1.71667 0.401498 0.800283 2.7424 1.96034 0.0458134 1.63841 1.34515 0.155815 0.575599 -0.136045 -0.624588 -0.429888 2.23508 0.493089 1.10138 0.607893 -0.514886 3.52358 2.3009 1.39106 1.59019
internal_count=246000 210179 35821 52359 157820 25609 72401 24411 11410 19083 26750 6526 18694 15411 4503 5417 36697 6907 5717 29453 14649 21855 85419 35704 2774 13826 8889 4895 46925 1729 3926 5589 4249
shrinkage=0.02


Tree=3
num_leaves=34
num_cat=0
split_feature=2 1 1 2 2 1 1 2 1 1 2 4 28 4 1 1 4 1 2 28 4 3 4 2 28 19 4 4 28 4 12 1 12
split_gain=3758.62 2181.63 1158.29 770.849 536.41 401.785 291.065 276.13 231.058 158.091 147.602 138.846 137.252 129.418 116.046 105.951 95.7786 90.3046 87.024 73.8986 66.6025 61.9546 61.9326 61.6916 56.2588 54.7543 54.1237 51.2738 50.9626 50.3415 49.3057 47.2823 43.0708
threshold=0.31469441606860521 0.401473968871706 0.40951293061161537 0.47674953178598795 0.50197671872363325 0.15968216777734864 0.61729617687290872 0.14599244001433329 0.12825601737575185 0.14591277366591909 0.14599244001433329 -2908.4999999999995 1.0000000180025095e-35 -2316.4999999999995 0.6334831984538799 0.65623381256286561 -3375.4999999999995 0.64060720043079156 0.17508512251332128 1.0000000180025095e-35 -1854.4999999999998 -17987.499999999996 -3061.4999999999995 0.2232060410727453 1.0000000180025095e-35 0.010150000000000001 -1936.4999999999998 -1797.4999999999998 1.0000000180025095e-35 -3002.4999999999995 21.500000000000004 0.26162633907556315 15.500000000000002
decision_type=8 8 8 10 10 10 10 10 10 10 10 10 2 10 8 8 10 10 10 2 10 2 10 10 2 10 10 10 2 10 8 10 8
left_child=2 3 8 5 6 11 13 14 18 21 -10 -2 31 -3 -4 23 -11 22 -1 -13 -14 -5 -6 29 30 -21 -8 -12 32 -9 -15 -7 -18
right_child=1 4 7 9 17 12 26 15 10 16 27 19 20 24 -16 -17 28 -19 -20 25 -22 -23 -24 -25 -26 -27 -28 -29 -30 -31 -32 -33 -34
leaf_value=0.072029121716964073 0.017401868420088652 -0.0041856881805456166 0.033667247921424046 0.0013773811880061291 -0.013177325723535634 0.028467008235777084 -0.011166433670715965 0.006332432504266944 0.048937179770333281 -0.0082840548489461346 0.021015543464495731 0.049943418191908 0.0024465147167884536 0.0033731952043882865 0.012745983707398692 -0.00026943776248632861 -0.00098605412016666448 -0.015073995469146595 0.046527988980932085 0.039200942510973349 0.013205515216210439 0.018185585352788008 -0.0077252638789196918 0.0075729898516952131 0.0015380195391692332 0.017430552075193863 -0.0053472603559470734 0.033724471316396498 -0.0022132728529827331 0.022704548790250457 0.014611307509917258 0.015970977924481405 0.013180359247119014
leaf_count=1045 2100 15767 3485 1914 21277 2442 19284 1386 2269 9530 2778 1893 6383 3975 2232 6006 1932 38494 1529 1639 5770 2981 25648 7903 12555 894 16420 3789 7523 3399 4400 4488 2870
internal_value=0 -0.194708 1.06503 0.445344 -0.416727 0.886034 -0.18365 0.608793 1.97174 0.00291148 1.69498 1.63479 0.615004 0.0448453 1.28886 0.390773 -0.133642 -0.618656 2.86456 1.98042 0.381612 0.589639 -0.509038 0.576515 0.232463 1.58325 -0.424391 1.41991 0.0796513 0.8995 0.464207 1.01963 0.374188
internal_count=246000 210179 35821 52359 157820 25609 72401 24411 11410 26750 8836 6526 19083 36697 5717 18694 21855 85419 2574 4426 12153 4895 46925 12688 20930 2533 35704 6567 12325 4785 8375 6930 4802
shrinkage=0.02


Tree=4
num_leaves=34
num_cat=0
split_feature=2 1 1 2 2 1 1 2 1 0 4 0 28 28 0 0 4 0 2 1 1 0 2 1 4 1 0 3 1 0 3 7 0
split_gain=3557.25 2100.93 1047.28 729.064 526.435 392.955 276.958 255.218 205.909 182.492 158.878 146.697 126.902 126.548 123.398 107.768 107.737 107.655 105.057 104.952 96.5587 89.2633 76.2405 66.6888 65.4895 64.5727 62.5719 72.0007 61.5169 59.1676 54.992 65.2863 53.4425
threshold=0.31469441606860521 0.401473968871706 0.40951293061161537 0.5217974581655247 0.48395083181648063 0.15431821222530337 0.61729617687290872 0.14599244001433329 0.20724682471478231 0.3946129687892303 -2173.4999999999995 0.52826792061279526 1.0000000180025095e-35 1.0000000180025095e-35 0.50720099881646974 0.24007190108263246 -4010.4999999999995 0.17785244899496813 0.12412739650253161 0.6334831984538799 0.62325013951029284 0.2432957465422719 0.16791230932765991 0.12825601737575185 -3092.4999999999995 0.14591277366591909 0.38097533067530703 -16418.499999999996 0.60452059736908759 0.13156176499935504 -9882.4999999999982 450117.00000000006 0.20826167194977571
decision_type=8 8 8 10 10 10 10 10 10 10 10 10 2 2 10 10 10 8 10 8 10 8 10 10 10 10 10 2 8 8 2 8 8
left_child=2 3 8 5 6 12 14 19 15 10 -7 17 -2 25 16 22 -3 -9 -10 -4 24 -8 -1 -15 -6 -5 27 -14 -19 -18 31 -12 -20
right_child=1 4 7 13 20 9 21 11 18 -11 30 -13 26 23 -16 -17 29 28 32 -21 -22 -23 -24 -25 -26 -27 -28 -29 -30 -31 -32 -33 -34
leaf_value=0.068370806091841124 0.042342442727685593 -0.0043766770279008238 0.032086845278346827 0.020426938352604226 -0.012792752070576398 0.0065411106600634797 0.0095541365286907539 0.03540450680055976 0.046752324406026419 -0.0016449328811584988 0.028390515069775586 -0.0048129194143282927 0.014381832438740288 0.0062624888059930389 -0.0078020939684700702 0.032041206553835119 0.029552201919599015 0.014125213784151155 0.047311783395744003 0.012358093986981376 -0.014465571835569893 -0.0090595493207944328 0.046881245628677251 -0.0071025358356808432 -0.0069475922760642451 0.0032329604663395217 0.0062731778944903971 0.035396144630054853 0.00444945865794979 0.0053863215896382812 0.010769791420191646 0.014826139271902041 0.023237819740190197
leaf_count=1163 2617 7325 3485 1400 19452 7595 1436 823 1318 4693 4791 4045 1338 2303 6748 1323 551 6907 487 2232 46006 32148 2017 13327 24157 6122 930 2013 6919 19997 2337 2893 5102
internal_value=0 -0.19151 1.0253 0.433108 -0.411325 0.803375 -0.167638 0.590507 1.87061 0.563783 0.729043 0.38042 1.52385 -0.061215 0.0610177 2.42507 0.167695 0.546725 1.48611 1.23626 -0.602208 -0.411262 2.75718 -0.252003 -0.476422 0.327676 1.14644 1.36307 0.468061 0.302083 1.0196 1.16466 1.26954
internal_count=246000 210179 35821 52359 157820 29207 68205 24411 11410 22309 17616 18694 6898 23152 34621 4503 27873 14649 6907 5717 89615 33584 3180 15630 43609 7522 4281 3351 13826 20548 10021 7684 5589
shrinkage=0.02


Tree=5
num_leaves=34
num_cat=0
split_feature=2 1 1 2 2 1 1 2 1 0 4 4 0 0 3 1 0 0 1 2 0 1 0 0 3 2 4 2 1 1 2 28 0
split_gain=3369.15 2023.46 949.998 667.137 532.498 327.539 285.917 236.277 180.179 164.934 158.981 148.532 139.272 129.503 136.953 116.14 99.4694 98.7154 95.2028 93.6011 92.7286 91.2867 89.9278 83.2008 70.2205 64.0552 63.1594 59.3923 57.8697 53.6565 49.9148 45.6095 44.2016
threshold=0.31469441606860521 0.39319022306156598 0.40951293061161537 0.47674953178598795 0.50197671872363325 0.13712543742921626 0.61729617687290872 0.14599244001433329 0.20724682471478231 0.3946129687892303 -4960.4999999999991 -3901.4999999999995 0.52826792061279526 0.31345265026591501 -17087.499999999996 0.057349307488876851 0.38361380918258742 0.17785244899496813 0.6334831984538799 0.13135864273369982 0.24007190108263246 0.64060720043079156 0.30420676774931321 0.2432957465422719 -19192.499999999996 0.16791230932765991 -3061.4999999999995 0.62376832935934801 0.64926490579714813 0.26324748678228233 0.26294789218207787 1.0000000180025095e-35 0.47290644763488815
decision_type=8 8 8 10 10 10 10 10 10 10 10 10 10 10 2 10 10 8 8 10 10 10 10 8 2 10 10 10 10 10 10 2 10
left_child=2 3 8 5 6 16 13 18 20 10 -7 -5 17 14 31 -13 24 -9 -4 -10 25 26 27 -8 -2 -1 -6 -17 30 -12 -19 -3 -28
right_child=1 4 7 11 21 9 23 12 19 -11 29 15 -14 -15 -16 22 -18 28 -20 -21 -22 -23 -24 -25 -26 -27 32 -29 -30 -31 -32 -33 -34
leaf_value=0.063467705161474999 0.018943689933312607 0.0047619535815570015 0.030626093053110832 -0.0067741931319638283 -0.012945482469834884 0.0029699984323588165 0.0084481902081180865 0.033699385380873761 0.043146205275924422 -0.0009699416107915496 0.025195270282049632 0.02797167376986176 -0.0047359590998135156 -0.0051838043365843509 0.0083107339091774805 0.01256560821667289 0.009587063074993827 0.016422777863953759 0.011986204550447353 0.024066768835898526 0.030592691872542103 -0.014858140711081769 -0.0055893585668380739 -0.0090513928531987149 0.040149585061817046 0.044225636779473082 -0.0056049549980710508 0.0013348441653077167 0.0023061105294380946 0.01548936642134293 0.005555568587170324 -0.0061295716854528068 -0.012623939832889786
leaf_count=1163 971 2981 3485 10190 21632 3943 1505 823 1471 3988 5000 1008 4045 12443 15268 4866 876 5685 2232 5436 1323 38494 4621 34199 3450 2017 19286 5184 4593 6622 3548 6832 6820
internal_value=0 -0.188361 0.987837 0.434231 -0.401455 0.84123 -0.170783 0.572969 1.77813 0.61994 0.781491 0.012719 0.370405 0.0506962 0.200947 0.233962 1.58974 0.530881 1.187 1.42122 2.28535 -0.604638 0.148843 -0.413372 1.78856 2.58483 -0.495234 0.340991 0.455097 0.985781 0.615766 -0.139702 -0.371917
internal_count=246000 210179 35821 50719 159460 24850 73228 24411 11410 19553 15565 25869 18694 37524 25081 15679 5297 14649 5717 6907 4503 86232 14671 35704 4421 3180 47738 10050 13826 11622 9233 9813 26106
shrinkage=0.02


Tree=6
num_leaves=34
num_cat=0
split_feature=2 1 1 2 2 1 1 2 0 0 1 4 4 0 28 1 4 2 1 0 0 1 1 0 3 4 2 1 7 5 7 31 4
split_gain=3193.26 1949.7 865.018 649.445 506.031 335.614 265.199 241.138 149.757 145.961 144.856 139.455 127.032 121.657 120.135 116.457 108.568 107.914 88.2433 80.5146 74.726 63.5279 63.2567 61.2223 59.705 59.6525 59.4302 58.8503 58.6492 55.4888 66.5776 53.8429 48.8035
threshold=0.31469441606860521 0.401473968871706 0.38083901692977096 0.5217974581655247 0.50197671872363325 0.16937225018891802 0.61729617687290872 0.13135864273369982 0.3946129687892303 0.168283589899729 0.068498444274341333 -2908.4999999999995 -2071.4999999999995 0.50720099881646974 1.0000000180025095e-35 0.6349138048182581 -2316.4999999999995 0.14599244001433329 0.64351197800400295 0.2432957465422719 0.37270353809859819 0.626238940992495 0.12825601737575185 0.64297768051941173 -9706.4999999999982 -3061.4999999999995 0.26716287204475503 0.14591277366591909 450117.00000000006 15018.750000000002 450117.00000000006 0.97545000000000004 -1700.4999999999998
decision_type=8 8 8 10 10 10 10 10 10 8 10 10 10 10 2 8 10 10 10 8 10 8 10 10 2 10 10 10 8 10 8 10 10
left_child=2 3 10 5 6 11 13 21 12 -9 -1 -2 -7 16 27 23 -3 -12 25 -8 31 -4 -16 26 28 -6 32 -5 -14 -19 -31 -13 -11
right_child=1 4 7 14 18 8 19 9 -10 15 17 20 24 -15 22 -17 -18 29 -20 -21 -22 -23 -24 -25 -26 -27 -28 -29 -30 30 -32 -33 -34
leaf_value=0.053867353524980573 0.013547738385079975 -0.002483722170472321 0.031340208554933309 0.019415016849020954 -0.012847198548184257 0.0058350675763273446 0.0082206011035382484 0.035857179919327742 -0.0019554291197436697 0.010420318442358634 0.043387561249669436 0.040536648773866119 0.026325532373351869 -0.0078522401968511672 0.0060148991988490594 -0.00026635721755568879 0.0065670825323382075 0.015748333977307207 -0.014809496622074252 -0.0089393280762381441 0.013856810402658246 0.0150701401153049 -0.0069652307173718835 -0.003567855523695259 0.0077160585143078103 -0.0074769714006318383 0.0052534488319458247 0.0031555653513686346 0.013232838544280819 0.038144330452107619 0.022345306347509121 0.024327031553450673 0.022063361341832514
leaf_count=1414 2782 12218 2945 1400 21728 7245 1505 837 4470 3448 2349 3259 4495 7244 2303 7694 17235 1557 37550 34199 914 1921 13327 1371 2019 26141 3590 6122 2704 2526 2407 1319 3762
internal_value=0 -0.185257 0.952472 0.410101 -0.400672 0.752481 -0.174388 0.584655 0.503299 0.409049 1.75126 1.32928 0.656005 0.0421684 -0.0595072 0.343196 0.145047 1.58506 -0.601017 -0.407986 1.6333 1.266 -0.246708 0.556595 0.924252 -0.494028 0.64357 0.317349 1.07254 1.35027 1.52591 1.79916 0.826023
internal_count=246000 210179 35821 52359 157820 29207 72401 25568 20933 20702 10253 8274 16463 36697 23152 19865 29453 8839 85419 35704 5492 4866 15630 12171 9218 47869 10800 7522 7199 6490 4933 4578 7210
shrinkage=0.02


Tree=7
num_leaves=34
num_cat=0
split_feature=1 1 1 4 4 4 4 1 7 5 7 6 7 6 28 1 1 7 5 7 6 6 3 28 6 5 6 12 6 7 5 7 10
split_gain=2968.83 737.033 560.138 462.432 361.118 209.262 144.88 135.358 103.771 147.319 84.9949 110.308 72.9914 120.695 70.7862 70.3569 64.0611 63.7233 109.036 52.9996 61.3977 51.5857 49.3169 48.2499 44.3787 44.0186 43.4502 40.3627 39.6353 37.2877 69.78 36.5075 34.6029
threshold=0.40568481433241665 0.12825601737575185 0.61729617687290872 -2461.4999999999995 -2339.4999999999995 -1757.4999999999998 -1936.4999999999998 0.26955727278833347 675191.25000000012 21039.750000000004 450117.00000000006 508497.75000000006 450117.00000000006 314077.50000000006 1.0000000180025095e-35 0.71927560208472741 0.078100629753101961 675191.25000000012 16715.250000000004 450117.00000000006 500868.00000000006 279173.25000000006 -18799.499999999996 1.0000000180025095e-35 279173.25000000006 20729.250000000004 284323.50000000006 78.000000000000014 508497.75000000006 675191.25000000012 21170.250000000004 454972.50000000006 -235.49999999999997
decision_type=8 10 10 10 10 10 10 10 10 10 8 2 8 2 2 10 10 8 10 10 2 2 2 2 2 10 2 8 2 8 10 10 10
left_child=1 5 4 14 23 22 -4 17 9 -6 11 26 13 -9 -3 29 24 18 -5 20 -20 -16 -1 27 -7 -15 -11 -2 -27 30 -8 -26 -24
right_child=2 3 6 7 8 16 15 12 -10 10 -12 -13 -14 25 21 -17 -18 -19 19 -21 -22 -23 32 -25 31 28 -28 -29 -30 -31 -32 -33 -34
leaf_value=0.010968210500272723 -0.0057221836115248313 0.0079159705999146835 -0.011848532178878424 0.012920185017614936 0.00055983440790874329 0.031442488238481822 -0.0068165025574518914 0.0077528662686079308 -0.0028277641171859107 0.00050936476070439932 0.0043729071644523568 0.027121447817200543 0.0046526727196943667 0.012436747370282416 -0.0072976672273045396 -0.011227243423741668 0.027982050263279531 0.0096757734448941375 0.027964327560028156 0.01929143358595909 0.048019700659885957 0.0014608021329777178 0.029280553983375777 -0.0076829281881161905 0.054021687982818367 0.021948443467146049 0.01321810733545503 0.0032130707292583171 0.039015570917092617 -0.0082050559554327877 0.0019677105001305322 0.037450845439099698 0.013996209717030694
leaf_count=2572 6780 6139 53858 3728 17907 1179 9711 5937 11221 1983 8188 2636 6529 1298 5107 10112 2443 2355 3391 2363 931 12098 1957 30148 1384 1877 5242 4805 1046 8196 10810 1026 1043
internal_value=0 0.640644 -0.255838 0.452711 -0.0488935 1.40031 -0.464376 0.740531 0.167532 0.262674 0.495254 0.722069 0.52842 0.714338 0.064542 -0.289289 1.81891 1.00925 1.12515 1.39054 1.61674 -0.056698 0.91151 -0.305 2.09727 1.16769 0.488184 -0.100524 1.40471 -0.194528 -0.109105 2.3549 1.19975
internal_count=246000 64403 181597 52799 88910 11604 92687 29455 47177 35956 18049 9861 16687 10158 23344 38829 6032 12768 10413 6685 4322 17205 5572 41733 3589 4221 7225 11585 2923 28717 20521 2410 3000
shrinkage=0.02


Tree=8
num_leaves=34
num_cat=0
split_feature=2 1 1 2 2 1 2 28 2 0 3 1 1 4 1 1 0 0 0 1 0 4 0 0 1 7 5 32 0 5 38 12 4
split_gain=3000.55 1752.12 801.962 562.802 489.166 316.067 242.433 209.152 153.787 142.84 125.419 121.245 118.289 112.78 97.7399 96.6445 86.7478 85.7993 79.1986 78.2074 70.8219 67.5266 61.7638 59.1499 59.125 58.3392 77.4693 53.4727 53.3794 61.5958 51.3115 50.519 47.7948
threshold=0.32726918529310883 0.33350013644837456 0.40951293061161537 0.50197671872363325 0.48034916116072962 0.612496015305806 0.2232060410727453 1.0000000180025095e-35 0.16000423555253143 0.31345265026591501 -16966.499999999996 0.5786809302701853 0.6334831984538799 -3901.4999999999995 0.10738483097828001 0.14591277366591909 0.36137446605187601 0.56581124368930846 0.20826167194977571 0.068498444274341333 0.408142285297872 -2339.4999999999995 0.32222624849751419 0.22968176161378043 0.10738483097828001 450117.00000000006 13731.750000000002 1.0000000180025095e-35 0.3864477727533509 16715.250000000004 0.05075000000000001 1.0000000180025095e-35 -3002.4999999999995
decision_type=8 8 8 10 10 10 10 2 10 10 2 10 8 10 10 10 10 10 8 10 10 10 8 8 10 10 10 2 10 10 10 10 10
left_child=2 4 8 5 7 9 12 15 25 10 -3 21 20 -6 30 -2 24 23 -7 -10 32 -5 -16 -8 -15 26 -1 -24 29 -21 -9 -17 -4
right_child=1 3 6 11 13 18 17 14 19 -11 -12 -13 -14 16 22 31 -18 -19 -20 28 -22 -23 27 -25 -26 -27 -28 -29 -30 -31 -32 -33 -34
leaf_value=0.029866123480086784 0.03788073029447566 -0.0015556990584079391 0.015535163677050783 -0.011051773597586896 -0.0056899953172364634 0.011658410090287809 0.02247897792771059 0.028762834126148277 0.04264081476541625 -0.004682592880594195 0.008492116220722495 -0.013598688717103565 0.0081467098897218277 0.02101678039678621 0.024078099219413125 0.027263514120934213 -0.0050947022073268957 -0.0086585379827808992 -0.0085563314490726024 0.016030020250474085 0.011225738289698759 -0.0044416903348983832 0.0045506948280911305 0.0044050014273032852 0.006303045622001212 0.030800161231570509 0.055171621006762629 0.025000343272871931 0.013065412109910144 0.031082329063807018 0.0064192530525645376 0.013115823514929157 0.02996387043346075
leaf_count=695 2124 10929 1489 18934 7775 1050 955 1869 977 13289 16705 56515 4943 1642 1040 2736 3000 2666 34806 1771 2097 16466 7858 10188 7094 1269 1632 679 1760 4100 631 2222 4094
internal_value=0 -0.189285 0.876558 -0.363451 0.484403 -0.131656 0.507337 0.866104 1.55358 0.0836977 0.230437 -0.5681 0.852279 0.0665654 0.582403 1.32635 0.285947 0.168785 -0.395443 1.30125 1.11102 -0.395934 0.413096 0.304853 0.463943 2.09308 2.38782 0.311316 1.17873 1.3302 1.16514 1.04697 1.30958
internal_count=246000 207364 38636 168694 38670 76779 26432 19159 12204 40923 27634 91915 12623 19511 12077 7082 11736 13809 35856 8608 7680 35400 9577 11143 8736 3596 2327 8537 7631 5871 2500 4958 5583
shrinkage=0.02


Tree=9
num_leaves=34
num_cat=0
split_feature=2 1 2 1 2 1 4 1 0 0 2 0 4 0 1 4 1 0 1 2 0 1 2 1 0 3 2 6 0 0 0 4 17
split_gain=2857.85 1765.28 737.89 649.164 400.98 301.732 205.103 159.98 152.193 143.443 126.817 125.368 113.595 108.17 106.566 104.872 87.2682 84.0844 77.3803 75.6141 74.8558 74.3138 64.5985 63.6358 63.4906 58.6947 51.6848 49.4355 48.1184 45.7268 45.3124 44.3777 41.0619
threshold=0.41272265809433373 0.35513315574603982 0.2232060410727453 0.401473968871706 0.24385143621834365 0.63772744527007552 -2487.4999999999995 0.14591277366591909 0.42460222128724473 0.26032845561026186 0.55583709744822496 0.15946314912339765 -4719.4999999999991 0.2432957465422719 0.6334831984538799 -3375.4999999999995 0.19479925919710847 0.40280977124356265 0.057349307488876851 0.6220741691655115 0.17785244899496813 0.55237056661871475 0.12412739650253161 0.64648620336361373 0.19137115999016732 -18799.499999999996 0.084195070592532603 180290.25000000003 0.3585284638460397 0.41337432619004449 0.3946129687892303 -1854.4999999999998 1.0000000180025095e-35
decision_type=10 8 8 10 8 10 10 8 10 10 10 8 10 8 8 10 10 10 10 10 8 10 10 10 8 2 10 2 8 8 10 10 10
left_child=1 4 11 7 18 8 28 25 12 16 21 -3 -4 -7 22 -9 -8 19 -1 -17 -14 -5 -13 29 -20 -2 -26 -22 -6 -12 -27 -24 -18
right_child=3 2 5 10 6 13 9 15 -10 -11 23 14 20 -15 -16 17 32 -19 24 -21 27 -23 31 -25 26 30 -28 -29 -30 -31 -32 -33 -34
leaf_value=0.054439774197082465 0.0013325913838508185 0.047182315084884137 -0.0024697337757550587 -0.0013082104302441237 0.02877033331003425 0.014148971376951291 0.034167530736190346 -0.0067414884447943172 -0.0047383633504392755 0.011501633293399149 -0.0037551485418045425 0.028375419282013446 0.022328075388632726 -0.0080764158390284752 0.0070147898969528943 0.010769640679487052 0.018927493687788951 -0.0071468208949542582 0.057277717106433118 -0.0011776721961013386 -0.0018105369655793558 -0.0090538503698743659 0.0088723284444054504 -0.015088866663416356 0.046738538462292027 0.020010904729825852 0.028953790725519287 0.0081226015921793595 0.007425609494286417 -0.01142274782975369 0.0012439071561207672 0.021269805850507188 0.036581541874112229
leaf_count=800 1940 584 7396 9781 540 1177 4199 10946 10287 3681 5165 2729 1640 25322 4816 6418 4517 3614 431 4895 2998 24278 2518 30825 748 3124 4049 19839 7156 34996 786 3103 702
internal_value=0 0.418823 0.136535 -0.376295 1.14899 -0.0284504 0.91137 0.0740079 0.158869 1.15984 -0.52689 0.860572 0.280036 -0.348654 0.787426 -0.0556404 1.37111 0.138853 1.85612 0.288446 0.395886 -0.338085 1.01088 -0.620577 1.70624 0.588339 1.59823 0.340781 0.449297 -0.521264 0.821486 0.791175 1.06709
internal_count=246000 109232 82409 136768 26823 68659 20795 31723 42160 13099 105045 13750 31873 26499 13166 25873 9418 14927 6028 11313 24477 34059 8350 70986 5228 5850 4797 22837 7696 40161 3910 5621 5219
shrinkage=0.02


Tree=10
num_leaves=34
num_cat=0
split_feature=2 1 2 1 2 1 0 1 0 3 4 1 1 1 7 0 4 0 4 28 5 7 0 0 2 0 0 1 0 2 25 5 0
split_gain=2746.19 1720.55 596.978 578.496 510.154 267.05 206.321 162.975 159.682 157.866 141.726 117.368 114.949 112.005 107.686 77.42 75.853 70.1243 68.9715 67.7988 67.2949 69.1666 56.2171 54.1295 54.7299 53.8988 53.473 53.0422 48.1255 47.5083 46.3997 44.4897 42.8961
threshold=0.43384745792380691 0.45171882966308313 0.2232060410727453 0.401473968871706 0.24385143621834365 0.12825601737575185 0.26976025860597846 0.64060720043079156 0.3864477727533509 -19862.499999999996 -3492.4999999999995 0.62033948844263709 0.18281896792288557 0.20724682471478231 675191.25000000012 0.42730830448973461 -3092.4999999999995 0.16418256466800965 -2004.4999999999998 1.0000000180025095e-35 13016.250000000002 450117.00000000006 0.39723554015691859 0.28251996777580157 0.62376832935934801 0.49904152377538674 0.27584856938043467 0.6334831984538799 0.19137115999016732 0.057054755673713535 0.014450000000000003 16134.750000000002 0.20826167194977571
decision_type=10 8 8 10 8 10 8 10 10 2 10 10 8 10 8 10 10 8 10 2 10 10 10 10 10 10 8 8 10 10 10 10 8
left_child=1 4 14 10 13 19 -4 15 9 -7 -2 16 22 28 17 18 -5 -3 -8 -6 -11 -22 -12 24 -14 -18 -13 -19 -1 -15 -21 -20 -31
right_child=3 2 6 11 5 8 7 -9 -10 20 12 26 23 29 -16 -17 25 27 31 30 21 -23 -24 -25 -26 -27 -28 -29 -30 32 -32 -33 -34
leaf_value=0.046818649255520831 -0.0052458677690259718 0.044656831581893701 0.012167275926491345 -0.011543339002438487 0.036633867967000737 0.002058814324922535 -0.0020387999429959157 -0.0079838099314611215 0.00055664624949266291 0.0075820679531727652 0.017289746439968518 -0.0013069258000679199 0.0097197794282228925 0.046828441007243482 0.0029054090552607797 -0.0059622168201328898 -0.0036162351198037075 0.021622049211475935 -0.0015144192121727079 0.026093772123333272 0.023515716286501533 0.013556940884036826 -0.0012842745662280854 -0.0055909574678423436 -0.0020160031692270587 -0.011608561707043115 -0.013800709757616282 0.010307788678926507 0.030133104442958511 0.042911787852837648 0.0078405065155596632 0.0084797455858270018 0.022758188938784424
leaf_count=2004 12476 424 4685 21021 1988 4407 11362 26059 5681 2891 4004 2125 4512 415 2721 9005 20927 4982 3149 2382 7507 5947 1037 4370 3854 6295 50377 3467 993 476 815 8961 4681
internal_value=0 0.388986 0.0419771 -0.389339 0.936883 0.721905 -0.108894 -0.171787 0.569565 0.705883 0.0466001 -0.535433 0.247865 1.6134 0.756091 -0.00134271 -0.401429 0.938632 0.107186 1.38055 0.857459 0.959494 0.685361 0.057462 0.224469 -0.271892 -0.664266 0.865506 2.07722 1.32706 1.0788 0.294577 1.23685
internal_count=246000 115002 74815 130998 40187 31618 63221 58536 26433 20752 30253 100745 17777 8569 11594 32477 48243 8873 23472 5185 16345 13454 5041 12736 8366 27222 52502 8449 2997 5572 3197 12110 5157
shrinkage=0.02


Tree=11
num_leaves=34
num_cat=0
split_feature=2 1 1 2 2 1 0 1 4 4 0 3 1 1 7 1 4 0 0 0 3 0 12 28 4 2 0 0 2 5 0 0 5
split_gain=2637.95 1616.99 564.021 521.966 508.3 268.89 189.992 146.934 136.035 119.52 118.929 121.766 115.914 108.777 102.927 101.82 74.4468 74.1001 66.5167 64.3971 70.3848 60.3154 59.9119 57.7374 55.9282 52.8457 52.6947 52.6356 52.0591 47.1673 43.0631 42.3485 41.704
threshold=0.43384745792380691 0.46776191649581145 0.401473968871706 0.2232060410727453 0.24385143621834365 0.20108964067933763 0.26976025860597846 0.64060720043079156 -3492.4999999999995 -2487.4999999999995 0.41337432619004449 -19862.499999999996 0.62033948844263709 0.16937225018891802 675191.25000000012 0.20724682471478231 -3092.4999999999995 0.23682707178812964 0.53943666602513607 0.40280977124356265 -19322.499999999996 0.42730830448973461 15.500000000000002 1.0000000180025095e-35 -2004.4999999999998 0.62376832935934801 0.49904152377538674 0.27584856938043467 0.12412739650253161 14604.750000000002 0.56581124368930846 0.19137115999016732 17075.250000000004
decision_type=10 8 10 8 8 10 8 10 10 10 10 2 10 8 8 10 10 10 10 10 2 10 8 2 10 10 10 8 10 10 10 10 10
left_child=1 4 8 14 15 9 -5 18 -2 -6 11 -7 16 29 19 31 -4 -11 24 20 -3 25 -13 -24 -8 -15 -18 -14 -17 -10 -9 -1 -26
right_child=2 3 12 6 5 10 7 30 13 17 -12 22 27 21 -16 28 26 -19 -20 -21 -22 -23 23 -25 32 -27 -28 -29 -30 -31 -32 -33 -34
leaf_value=0.044303348094019777 -0.0051639868021814226 0.006011023539477767 -0.011425895179684 0.01168145641272419 0.012171409013244741 0.00017344304871481499 -0.0022894599979763806 -0.0061770050216762651 0.00011560435180754832 0.03184511772972113 -0.00086424183840747709 0.0064891383468376222 -0.0012822455727043065 0.0084892655243327102 0.0019144067501531538 0.034257686396659867 -0.0035548901844372266 0.015906947958233737 -0.0073556699165217955 0.0080051253648298678 0.024856278461905437 -0.0080288673262426096 0.022933643479311049 0.012918789430675977 -0.0017885144259894696 -0.0019259312315125109 -0.011490439514318607 -0.013687586910332988 0.021398470288193791 0.017544382060991574 -0.01354712503853415 0.02885443893474534 0.0073124498551686403
leaf_count=2004 12476 1172 21021 4459 3461 3822 11812 20022 929 4412 4961 3527 2125 5635 2638 1796 20927 1754 6017 2432 4927 2989 4428 7213 3726 4670 6295 50377 4277 3554 6037 993 9112
internal_value=0 0.378785 -0.38416 0.0258452 0.881971 0.673516 -0.118329 -0.179653 0.0456044 1.12466 0.463713 0.584632 -0.529614 0.241887 0.702318 1.53183 -0.396135 1.38175 -0.0105815 0.882896 1.06738 0.0696201 0.719643 0.839287 0.0715344 0.196937 -0.267703 -0.658528 1.27776 0.69766 -0.393901 1.97296 0.234633
internal_count=246000 115002 130998 72354 42648 33578 61185 56726 30253 9627 23951 18990 100745 17777 11169 9070 48243 6166 30667 8531 6099 13294 15168 11641 24650 10305 27222 52502 6073 4483 26059 2997 12838
shrinkage=0.02


Tree=12
num_leaves=34
num_cat=0
split_feature=2 1 1 2 2 1 0 1 1 0 4 28 7 1 2 4 0 4 0 28 6 7 4 0 2 2 19 0 0 5 0 2 4
split_gain=2534.27 1521.81 551.065 538.897 426.203 231.436 188.325 171.872 153.034 142.091 141.937 96.2058 93.6032 89.8232 74.5698 73.3263 72.4259 63.7709 61.5859 58.4225 56.8665 90.6532 48.0533 48.0272 44.8078 43.699 42.6424 42.5908 42.3558 41.888 41.6799 40.5489 39.9102
threshold=0.43384745792380691 0.45171882966308313 0.48742247725538562 0.2232060410727453 0.24385143621834365 0.12825601737575185 0.26976025860597846 0.18281896792288557 0.64060720043079156 0.3864477727533509 -4579.4999999999991 1.0000000180025095e-35 675191.25000000012 0.20724682471478231 0.55583709744822496 -1916.4999999999998 0.42730830448973461 -2339.4999999999995 0.40280977124356265 1.0000000180025095e-35 251640.00000000003 450117.00000000006 -3958.4999999999995 0.45096354202939315 0.61867692739220159 0.6220741691655115 0.052450000000000004 0.408142285297872 0.56581124368930846 16134.750000000002 0.47290644763488815 0.57179952324457861 -4382.4999999999991
decision_type=10 8 10 8 8 10 8 8 10 10 10 2 8 10 10 10 10 10 10 2 2 10 10 8 10 10 10 10 10 10 10 10 10
left_child=1 4 7 12 13 19 -5 15 16 10 -7 24 18 -1 30 31 17 -8 22 -6 -12 -22 -3 -16 -9 -13 -21 -17 -10 -19 -4 -2 -15
right_child=2 3 14 6 5 9 8 11 28 -11 20 25 -14 32 23 27 -18 29 -20 26 21 -23 -24 -25 -26 -27 -28 -29 -30 -31 -32 -33 -34
leaf_value=0.037551821996109819 0.010933520814310949 0.0095568422788015542 -0.0057984537783981726 0.01145231945484837 0.033718878583740813 0.0028269599072511327 -0.0023677998077376214 0.0068195357672078266 -0.0060857275645515288 0.00049674868680515656 0.0091610037210764182 -0.0029818260679441316 0.002780136629033331 0.012840430028532579 -0.0071789636196273278 0.018601178131946863 -0.00580810652303166 -0.0016863188935285316 0.0082377207167546682 0.02399257084483352 0.024218921495245779 0.01231133708753252 0.024005258379547704 -0.013575216100638388 -0.0024357667360999469 -0.0095150602828754528 0.0061151877306867075 -0.00098815427656329872 -0.013432127604772423 0.0076747563133600415 -0.012657977532908558 -0.0028824157925765948 0.026993306684865336
leaf_count=2997 1640 1387 18199 4685 1988 5134 10323 5574 20022 5681 3849 11846 2721 1035 8168 2952 9005 3353 2518 2457 6166 5603 4968 54105 5808 11389 740 681 6037 9796 7477 3159 4537
internal_value=0 0.368931 -0.379021 0.0400534 0.87416 0.677962 -0.105184 -0.0430349 -0.166152 0.536283 0.662405 -0.165255 0.708837 1.47595 -0.56202 0.401949 -0.00164881 0.102678 0.874903 1.27811 0.816587 0.933101 1.04876 -0.636085 0.110659 -0.305881 1.00144 0.760693 -0.388654 0.266026 -0.38832 0.101552 1.22314
internal_count=246000 115002 130998 74815 40187 31618 63221 43049 58536 26433 20752 34617 11594 8569 87949 8432 32477 23472 8873 5185 15618 11769 6355 62273 11382 23235 3197 3633 26059 13149 25676 4799 5572
shrinkage=0.02


Tree=13
num_leaves=34
num_cat=0
split_feature=1 1 4 0 0 1 4 4 1 0 0 0 4 0 0 0 7 5 6 7 5 7 12 6 12 0 0 6 3 28 5 38 0
split_gain=2292.66 646.121 453.753 375.368 298.489 272.48 160.719 133.088 120.973 118.453 99.5943 73.2674 76.1089 69.9321 69.4463 67.6898 65.2718 114.655 63.9463 56.3215 54.9338 97.1319 55.9199 50.1457 49.8862 44.0291 43.2529 42.2442 35.1851 36.3745 34.3566 33.1657 32.2181
threshold=0.48742247725538562 0.12825601737575185 -2461.4999999999995 0.27584856938043467 0.339191568704098 0.64060720043079156 -2339.4999999999995 -1757.4999999999998 0.26955727278833347 0.24651107315306567 0.42460222128724473 0.57372115948627744 -1652.4999999999998 0.143654761103467 0.15462880435587137 0.18703070970621752 450117.00000000006 17511.750000000004 279173.25000000006 450117.00000000006 16715.250000000004 450117.00000000006 1.0000000180025095e-35 518922.00000000006 11.500000000000002 0.70643513774117028 0.30420676774931321 161865.00000000003 -15331.499999999998 1.0000000180025095e-35 13502.250000000002 0.019450000000000005 0.49635327079924191
decision_type=8 10 10 8 10 10 10 10 10 8 10 10 10 8 10 10 10 10 2 8 10 8 10 2 8 10 8 2 2 2 10 10 10
left_child=1 7 9 14 8 6 25 26 20 -3 24 12 -7 -10 30 -9 17 -15 -11 23 -4 22 -22 -20 -8 -5 -1 -28 29 -26 -2 -30 -29
right_child=3 2 4 5 -6 11 10 15 13 18 -12 -13 -14 16 -16 -17 -18 -19 19 -21 21 -23 -24 -25 28 -27 27 32 31 -31 -32 -33 -34
leaf_value=0.0348079161895005 0.0012946060325930552 0.024176503412942564 0.012430399387869693 -0.006358296686880054 0.0007949907630518773 -0.011059250284289302 -0.0038962222612390373 0.033058896146056643 0.027509542007919777 -0.0062631054962767217 -0.0061951559609479331 -0.014686547900222755 -0.0050819812402498879 0.0063873752999317754 0.0041860899105045117 0.018828536878736115 0.0050343013810822002 0.019604086186946083 0.0034003890352068589 -0.0016131147469919832 0.036652625168684054 0.015164338192348352 0.018697034276849506 0.019334175755413956 0.0066916805336639353 -0.014624278438145911 -0.0059707375322638192 0.017502272730842327 0.0095006005062123165 -0.0037197821469936881 0.022194047172243051 0.0016942624602282747 0.0026494855943743107
leaf_count=399 488 938 2940 32801 11829 35895 5655 4060 1102 9436 11473 17564 19937 6273 7313 1972 7916 6362 6379 15890 2327 3410 1089 1227 2831 4349 469 3893 7177 5035 1941 4819 811
internal_value=0 0.4343 0.305393 -0.291739 0.534187 -0.342285 -0.184967 1.12544 0.702609 -0.0190186 -0.0156895 -0.513548 -0.444934 0.552447 0.391892 1.4335 0.504755 0.657753 -0.0571959 0.0446999 1.00419 1.16617 1.54839 0.300918 0.108918 -0.36508 0.745973 0.66046 0.19498 0.00271062 0.901051 0.318103 0.754004
internal_count=246000 88722 77118 157278 43248 147536 74140 11604 31419 33870 36990 73396 55832 21653 9742 6032 20551 12635 32932 23496 9766 6826 3416 7606 25517 37150 5572 5173 19862 7866 2429 11996 4704
shrinkage=0.02


Tree=14
num_leaves=34
num_cat=0
split_feature=1 1 4 0 0 1 4 4 1 0 0 0 0 4 0 0 7 5 28 5 7 12 12 15 0 0 3 28 38 10 1 3 7
split_gain=2197.1 602.969 429.974 362.017 280.771 266.458 155.855 122.584 112.11 111.781 96.0025 79.5223 72.4704 74.7039 65.0716 64.5747 61.2422 106.637 51.9163 50.4528 88.3083 50.1369 47.8208 44.1261 43.3371 36.8732 33.6434 36.1027 34.6569 32.3883 32.2922 31.7799 30.7863
threshold=0.48742247725538562 0.12825601737575185 -2461.4999999999995 0.27584856938043467 0.339191568704098 0.64060720043079156 -2339.4999999999995 -3492.4999999999995 0.26955727278833347 0.24007190108263246 0.42460222128724473 0.3946129687892303 0.57372115948627744 -1652.4999999999998 0.14929298473688443 0.143654761103467 450117.00000000006 17511.750000000004 1.0000000180025095e-35 16715.250000000004 450117.00000000006 1.0000000180025095e-35 11.500000000000002 3.5000000000000004 0.70643513774117028 0.36449228021660657 -17087.499999999996 1.0000000180025095e-35 0.026150000000000003 -1012.4999999999999 0.71927560208472741 -9515.4999999999982 675191.25000000012
decision_type=8 10 10 8 10 10 10 10 10 8 10 10 10 10 10 8 10 10 2 10 8 10 8 8 10 8 2 2 10 10 10 2 8
left_child=1 7 9 14 8 6 24 -1 19 -3 22 23 13 -7 -2 -10 17 -17 29 -4 21 -21 -8 -9 -5 -20 27 -24 -28 -11 -15 -25 -16
right_child=3 2 4 5 -6 12 10 11 15 18 -12 -13 -14 30 32 16 -18 -19 25 20 -22 -23 26 31 -26 -27 28 -29 -30 -31 -32 -33 -34
leaf_value=0.010806472371880361 0.018023674756008287 0.024038370434848688 0.01206089046553426 -0.006265240758527477 0.00077857426367856605 -0.010942536202242422 -0.0038308942310738515 0.024515539512001527 0.026369894209651159 -0.0020064321505235084 -0.0061035030250193023 0.010826252160742454 -0.014577612959988445 -0.0029302155341943258 0.0066964678120752718 0.0062267517569071342 0.0049130845340593253 0.018907180983774009 0.011678261253498294 0.034897116953684588 0.014680595152677047 0.018054254673290141 0.0069855779507012787 0.038487982668247843 -0.014514171960226849 -0.0034127993435374882 0.0083681504453964033 -0.0058636226542187553 0.0011015689530684161 0.0071946269487687909 -0.0096968501726572252 0.020682619374081619 -0.0047142197611273699
leaf_count=3457 2210 877 2940 32801 11829 35895 5655 4504 1102 3241 11473 1346 17564 13780 5909 6273 7916 6362 862 2327 3410 1089 1815 1841 4349 23594 9011 3376 5660 5296 6157 456 1623
internal_value=0 0.422634 0.297768 -0.287374 0.518955 -0.337445 -0.18186 1.08396 0.680744 -0.0186616 -0.0153953 1.27861 -0.507784 -0.439414 0.381539 0.5365 0.49056 0.637674 -0.054916 0.968456 1.12181 1.48077 0.106531 1.40517 -0.360035 -0.142449 0.190443 -0.0653919 0.278575 0.186807 -0.250113 1.74503 0.21497
internal_count=246000 88722 77118 157278 43248 147536 74140 11604 31419 33870 36990 8147 73396 55832 9742 21653 20551 12635 32993 9766 6826 3416 25517 6801 37150 24456 19862 5191 14671 8537 19937 2297 7532
shrinkage=0.02


Tree=15
num_leaves=34
num_cat=0
split_feature=2 1 1 2 2 1 0 0 28 1 1 28 4 7 4 1 4 2 0 12 5 0 4 2 0 0 3 0 0 12 3 37 3
split_gain=2382.79 1293.54 500.678 469.474 417.605 213.566 153.685 125.512 122.71 108.441 103.957 94.5579 88.0789 84.5553 83.291 77.6052 69.4149 64.9623 63.4158 57.275 56.7342 54.8535 53.2895 51.1169 49.0821 48.9235 57.4635 48.4431 44.168 39.0304 39.0036 38.1619 38.0802
threshold=0.43384745792380691 0.47906771488330946 0.401473968871706 0.2232060410727453 0.24385143621834365 0.20108964067933763 0.56581124368930846 0.19137115999016732 1.0000000180025095e-35 0.62033948844263709 0.70561370066849227 1.0000000180025095e-35 -2487.4999999999995 675191.25000000012 -2339.4999999999995 0.20724682471478231 -3092.4999999999995 0.57179952324457861 0.26032845561026186 26.500000000000004 21039.750000000004 0.20420716073909792 -864.49999999999989 0.12412739650253161 0.29804017299502494 0.3946129687892303 -19322.499999999996 0.49904152377538674 0.55784804113564634 11.500000000000002 -9882.4999999999982 0.98185000000000011 -18926.499999999996
decision_type=10 8 10 8 8 10 10 8 2 10 10 2 10 8 10 10 10 10 8 8 10 10 10 10 8 10 2 10 10 8 2 10 2
left_child=1 4 8 13 15 12 7 -5 22 16 14 19 -6 25 -9 -1 -4 28 30 -7 -16 31 -2 -17 -11 26 -3 -18 -10 -28 -13 -14 -20
right_child=2 3 9 6 5 11 -8 10 17 24 -12 18 21 -15 20 23 27 -19 32 -21 -22 -23 -24 -25 -26 -27 29 -29 -30 -31 -32 -33 -34
leaf_value=0.034135997629208902 0.0037107261709131618 0.0058395496184482599 -0.011094752053317725 0.015918378220764626 0.010919502784005377 0.0077061630561684373 -0.010594146830100071 -0.0039696463739691832 0.0048807238908130891 -0.0023923963108586931 -0.00907046094105682 0.030402974742010969 0.03029758794230308 0.0021881355186376982 -0.0017755046090264482 0.030696457878125229 -0.0034580959714440606 -0.0059980858866442964 -0.0017924878483246598 0.018519443511643769 0.0060330239094629244 0.014735296855189359 0.015247094057057327 0.018624288948341023 -0.013368607470976237 0.0082085283167813959 0.011986672969378359 -0.011153772902513593 -0.010440592599513637 0.026424134943065909 0.0050802185434769467 0.015205571810203799 0.00600126734273153
leaf_count=2997 7224 1139 21021 2044 3461 4161 11209 16197 6199 2574 8823 674 3451 2587 7988 1903 20927 12927 4615 5125 13365 1939 2671 4553 49928 2425 1106 6295 1232 3582 457 776 10425
internal_value=0 0.354423 -0.37124 0.0223567 0.776224 0.592661 -0.118462 -0.0303335 0.0290184 -0.512237 -0.0738343 0.414565 0.984332 0.667499 0.00866829 1.33567 -0.382619 -0.137569 0.249371 0.686581 0.156188 1.19455 0.347774 1.12683 -0.639854 0.831258 0.994035 -0.258607 0.126134 1.15294 1.00921 1.38039 0.185597
internal_count=246000 115002 130998 70465 44537 35084 59626 48417 30253 100745 46373 25457 9627 10839 37550 9453 48243 20358 16171 9286 21353 6166 9895 6456 52502 8252 5827 27222 7431 4688 1131 4227 15040
shrinkage=0.02


Tree=16
num_leaves=34
num_cat=0
split_feature=2 1 2 1 2 0 1 0 4 3 1 1 0 0 1 4 2 1 0 3 0 4 4 0 1 5 2 0 8 31 2 0 5
split_gain=2291.2 1273.82 467.872 452.176 394.953 205.182 169.855 156.298 115.3 110.712 107.689 101.069 91.3294 83.9452 80.2361 70.3951 69.7593 64.3776 63.918 58.2694 61.9808 55.6789 55.235 53.702 52.5166 48.956 48.2463 45.6642 40.9395 39.7937 39.4547 36.5892 35.2545
threshold=0.44985477748110575 0.46776191649581145 0.26294789218207787 0.39319022306156598 0.24385143621834365 0.38361380918258742 0.20108964067933763 0.26976025860597846 -3901.4999999999995 -19681.499999999996 0.70561370066849227 0.5786809302701853 0.65113002854011437 0.52826792061279526 0.057349307488876851 -2339.4999999999995 0.13135864273369982 0.12825601737575185 0.30420676774931321 -9882.4999999999982 0.21538403902292461 -2339.4999999999995 -3575.4999999999995 0.30113122811204468 0.66026757027431171 17075.250000000004 0.63720984947910253 0.200265415666942 -540.49999999999989 0.97545000000000004 0.096005708497401934 0.41337432619004449 12795.750000000002
decision_type=10 8 8 10 8 10 10 8 10 2 10 10 10 10 8 10 10 10 10 2 8 10 10 8 10 10 10 8 2 10 10 10 10
left_child=1 4 12 8 17 6 22 -4 -2 -8 13 21 16 15 -10 -9 -3 -1 26 20 -11 -5 -6 -13 28 -17 32 -19 -18 -24 -29 -23 -16
right_child=3 2 7 11 5 -7 9 10 14 19 -12 23 -14 -15 18 25 24 27 -20 -21 -22 31 29 -25 -26 -27 -28 30 -30 -31 -32 -33 -34
leaf_value=0.035564035748646985 -0.005818518735540892 0.020441879757443587 0.010078925747191046 -0.010014287125798257 0.012251342104490921 0.00095264417287525306 -1.7320036939720896e-06 -0.004519984411326828 0.0206826592426709 0.029966292591092829 -0.010819933842276253 -0.0027769003667727516 -0.0045395181005581349 -0.0087536313098004765 -0.0029900866883341222 -0.0038320337722670601 0.011409419103890601 0.038793221909886377 -0.0045561202960089173 0.0043703610615464161 0.013431651519721501 -0.0015406419776287652 0.027344458631440874 -0.0127589309692803 0.0017593330876008149 0.004494818308069453 -0.00022090025054497125 0.031313698600413227 0.031906642703109646 0.016447117726177338 0.019396283411161629 -0.0095435134952338557 0.011430254016011948
leaf_count=1735 10921 3674 4240 17870 2294 7464 4212 15698 1111 1083 11272 3406 1787 9704 968 5292 6140 616 5031 2878 11193 11504 4187 60789 3180 13965 4738 1219 492 1814 5500 4705 5318
internal_value=0 0.332766 0.0196975 -0.380235 0.755588 0.580206 0.704329 -0.140017 0.0172278 0.517596 -0.197155 -0.514438 0.549476 -0.11686 0.192121 -0.0341172 0.641297 1.30586 0.122251 0.646382 0.748925 -0.346873 1.06587 -0.609686 0.481102 0.111764 0.267121 1.16747 0.646906 1.20838 1.0897 -0.189153 0.46162
internal_count=246000 119639 75444 126361 44195 35125 27661 60171 28087 19366 55931 98274 15273 44659 17166 34955 13486 9070 16055 15154 12276 34079 8295 64195 9812 19257 11024 7335 6632 6001 6719 16209 6286
shrinkage=0.02


Tree=17
num_leaves=34
num_cat=0
split_feature=2 2 0 4 0 0 4 23 7 5 2 2 4 7 2 0 7 5 23 3 3 37 6 7 38 23 12 28 12 19 5 7 28
split_gain=2202.97 892.032 417.669 279.504 202.006 191.842 186.484 166.85 131.25 146.231 115.564 92.6662 68.6977 68.5333 60.9094 59.4799 52.6479 64.4826 48.4413 45.8924 43.661 43.0189 42.6552 58.4981 41.8734 38.1659 38.0973 42.2185 36.7466 36.2425 34.3723 68.8513 33.5376
threshold=0.44985477748110575 0.26716287204475503 0.41337432619004449 -3455.4999999999995 0.48554982335738489 0.49904152377538674 -2316.4999999999995 2.5000000000000004 675191.25000000012 17075.250000000004 0.14599244001433329 0.60841648376416824 -1797.4999999999998 450117.00000000006 0.61697391881022823 0.2432957465422719 450117.00000000006 13502.250000000002 2.5000000000000004 -15443.499999999998 -21850.499999999996 0.98685000000000012 188194.50000000003 450117.00000000006 0.094350000000000003 2.5000000000000004 15.500000000000002 1.0000000180025095e-35 13.500000000000002 0.040450000000000007 16026.750000000002 450117.00000000006 1.0000000180025095e-35
decision_type=10 8 10 10 10 10 10 2 10 10 10 10 10 8 10 8 8 10 2 2 2 10 2 10 10 2 8 2 8 10 10 10 2
left_child=1 4 3 15 10 6 14 8 9 28 20 18 -12 -11 -2 -3 17 -14 26 -13 -1 22 -22 -24 -19 -4 -8 -28 -5 30 -9 -32 -17
right_child=5 2 25 7 -6 -7 11 29 -10 13 12 19 16 -15 -16 32 -18 24 -20 -21 21 -23 23 -25 -26 -27 27 -29 -30 -31 31 -33 -34
leaf_value=0.006083129616360693 -0.0059389567272923414 0.022439884483750342 -0.0071196115252982386 -0.0059745320491924759 0.0047768786036129105 -0.012973653144992596 -0.0054984501818562083 0.011138286446721764 -0.0011890668087990485 0.015282084034400444 0.010340372022118476 -0.0098056178968284179 0.012205280989714667 0.0068014811468430905 -0.011373285586929799 0.0025773537657553416 0.012481676496339938 0.031355910999642037 0.009749916876060671 -0.0028562417344858838 0.014354440328632086 0.013044430558283998 0.035808353969830377 0.022577605580898243 0.012153493474485251 0.0015189190155666141 0.0079494478383572188 -0.0012188125754369421 0.0042049519838131769 0.0092671003097139128 0.031208908340302464 0.013994736691195277 -0.0039699600525443576
leaf_count=426 21570 476 20598 2185 5414 30807 5388 1390 8869 12503 6073 9353 1476 7465 30418 5883 2832 2904 2983 13751 685 779 3057 2194 574 3268 4262 7829 9160 1835 2150 1999 15444
internal_value=0 0.324408 0.145526 0.277899 0.840042 -0.37514 -0.291829 0.421221 0.328617 0.432127 0.974988 -0.113387 0.791216 0.610536 -0.453757 -0.075497 0.987783 1.18303 0.0662379 -0.281371 1.2846 1.34354 1.431 1.52573 1.41642 -0.293889 -0.0112414 0.104048 0.114262 0.88037 1.01271 1.16415 -0.106721
internal_count=246000 119639 93225 69359 26414 126361 95554 47556 40182 31313 21000 43566 13859 19968 51988 21803 7786 4954 20462 23104 7141 6715 5936 5251 3478 23866 17479 12091 11345 7374 5539 4149 21327
shrinkage=0.02


Tree=18
num_leaves=34
num_cat=0
split_feature=2 1 1 2 2 0 1 0 28 1 3 1 0 1 2 2 1 5 7 0 1 0 1 2 0 6 0 28 12 7 37 0 1
split_gain=2118.07 1180.45 441.769 423.391 339.791 181.997 157.69 145.528 108.605 104.558 102.433 100.701 82.5069 75.1994 61.726 59.8747 56.2779 50.9348 54.5085 50.8606 49.2264 49.1175 47.4063 40.0489 39.4759 40.9129 38.137 34.3592 42.8056 32.8242 32.7374 32.4111 34.0565
threshold=0.44985477748110575 0.46776191649581145 0.39319022306156598 0.26294789218207787 0.28151900404279145 0.41904772096385173 0.12825601737575185 0.26976025860597846 1.0000000180025095e-35 0.63772744527007552 -20037.499999999996 0.64351197800400295 0.65113002854011437 0.26955727278833347 0.084195070592532603 0.61355931083430548 0.24666984219173782 13016.250000000002 450117.00000000006 0.53943666602513607 0.64788428883061611 0.30420676774931321 0.14591277366591909 0.12412739650253161 0.19137115999016732 199044.00000000003 0.50191324959518413 1.0000000180025095e-35 11.500000000000002 450117.00000000006 0.98385000000000011 0.616067502568864 0.71927560208472741
decision_type=10 8 10 8 8 10 10 8 2 10 2 10 10 10 10 10 8 10 10 10 8 8 8 10 10 2 10 2 8 10 10 10 10
left_child=1 4 8 12 13 6 -6 -5 22 19 -8 15 14 24 -3 26 21 -12 -19 27 -16 -10 -2 -15 25 -1 -4 28 -9 -27 -25 32 -11
right_child=2 3 11 7 5 -7 10 9 16 31 17 -13 -14 23 20 -17 -18 18 -20 -21 -22 -23 -24 30 -26 29 -28 -29 -30 -31 -32 -33 -34
leaf_value=0.015433073933859454 0.016021399097017896 0.023831104242514476 -0.0035188870248095776 0.0095410206511721916 0.02314800028282871 -0.00074616429892554979 0.00049736349838226646 -0.0036393672293326108 0.021610693065336608 -0.0041450933604554163 0.0045684675792831983 -0.013112355665991672 -0.0045433657257755392 0.026594816024448686 0.013359368142984227 -0.010304154325755318 -0.0065473797212978347 0.0175841958200844 0.0093925211903290104 -0.0075014425740050853 0.0041176433803755616 -9.2361209514003813e-07 0.0039192255861062991 0.017651135664018679 0.020607799153253482 0.038243373309722273 -0.010699261999168099 -0.0016546971235305834 0.0074786277624137414 0.025865495410986095 0.0040265164118627669 -0.013288294474740101 -0.010833427362904942
leaf_count=475 1838 1589 19066 4240 4253 6151 4444 2649 521 14598 3108 42450 1787 1433 7389 30743 10555 8094 6556 5782 4508 7854 7319 3944 1809 1879 6015 15037 5999 1138 911 5054 6812
internal_value=0 0.316269 -0.370056 0.0143116 0.718468 0.529615 0.640304 -0.139015 0.0232979 -0.194688 0.51452 -0.504279 0.511661 1.1503 0.597007 -0.39753 -0.140713 0.621746 0.702738 -0.0474091 0.508301 0.075636 0.334393 0.90616 1.39387 1.5661 -0.258311 0.0246626 0.205944 1.68641 0.75626 -0.377156 -0.312092
internal_count=246000 119639 126361 75444 44195 32606 26455 60171 28087 55931 22202 98274 15273 11589 13486 55824 18930 17758 14650 29467 11897 8375 9157 6288 5301 3492 25081 23685 8648 3017 4855 26464 21410
shrinkage=0.02


Tree=19
num_leaves=34
num_cat=0
split_feature=2 1 2 1 2 1 0 28 4 4 1 1 1 1 0 0 4 0 19 12 3 0 1 2 2 0 3 0 2 0 0 6 5
split_gain=2040.47 1180.74 418.582 380.632 342.273 191.437 131.887 114.965 104.506 96.7612 87.2768 82.6291 73.624 66.7208 61.872 59.1551 58.6439 58.5153 57.1558 48.8894 47.6855 46.8797 43.1734 43.0828 42.2514 40.6737 50.6135 39.0918 38.8986 38.2264 36.3275 38.6115 34.6516
threshold=0.47674953178598795 0.48742247725538562 0.26294789218207787 0.39319022306156598 0.28151900404279145 0.16296617917740483 0.5338900820427207 1.0000000180025095e-35 -2339.4999999999995 -3901.4999999999995 0.64207094424472821 0.26955727278833347 0.6334831984538799 0.057349307488876851 0.3946129687892303 0.26032845561026186 -3092.4999999999995 0.30420676774931321 0.029250000000000002 26.500000000000004 -19192.499999999996 0.41337432619004449 0.66446837693045258 0.12412739650253161 0.084195070592532603 0.52294290858524939 -16966.499999999996 0.57372115948627744 0.63720984947910253 0.16418256466800965 0.38910978378192285 199044.00000000003 16854.750000000004
decision_type=10 8 8 10 8 10 10 2 10 10 10 10 8 8 10 8 10 10 10 8 2 10 8 10 10 10 2 10 10 10 10 2 10
left_child=1 4 12 9 11 14 8 19 22 -2 16 30 24 -11 20 -9 -5 28 -10 32 -6 -18 -4 -13 -3 26 -17 -14 -15 -21 31 -1 -7
right_child=3 2 6 10 5 7 -8 15 18 13 -12 23 27 17 -16 25 21 -19 -20 29 -22 -23 -24 -25 -26 -27 -28 -29 -30 -31 -32 -33 -34
leaf_value=0.015297711711378384 -0.0060565697786779714 0.02666052676417487 -0.0029811832555256121 -0.011369957167428564 0.010040132940712357 -0.003122342789256331 -0.010284683703943497 0.017183720344857205 0.0042559408363356368 0.019227752187087589 -0.013289380656978041 0.025146779873599274 0.0068602207318868855 0.0086887612164116661 0.0041855678863110223 -0.00095313352885604793 -0.0039580327098481648 -0.005189575324506146 -0.0025215410775628225 0.019734578169183187 0.023176952096199469 -0.010805879721840288 -0.010027348257777379 0.013999326940066434 0.012165486513900958 -0.0044739933564038863 0.0074618369471761347 -0.0068659761871158673 -0.0001062342670492393 0.0076428767852682591 0.016514315295133888 0.031109917320894475 0.010488845672106324
leaf_count=599 10291 899 13361 22973 1465 1128 13475 1306 15652 1008 40456 1620 5452 5405 1217 5944 19673 4658 11926 4350 4795 8861 8537 5501 6789 3623 8614 1390 4738 1674 1027 3675 3918
internal_value=0 0.288711 -0.0200958 -0.390473 0.657744 0.485774 -0.165356 0.352715 -0.0792533 -0.00971253 -0.519997 1.07955 0.490793 0.158785 0.915035 0.186928 -0.415004 0.091895 0.0680524 0.623739 1.02569 -0.300334 -0.280659 0.846061 0.703736 0.13147 0.209533 0.213645 0.236933 0.825748 1.33905 1.44901 0.374146
internal_count=246000 127937 77481 118063 50456 38034 62951 30557 49476 26100 91963 12422 14530 15809 7477 19487 51507 14801 27578 11070 6260 28534 21898 7121 7688 18181 14558 6842 10143 6024 5301 4274 5046
shrinkage=0.02


Tree=20
num_leaves=34
num_cat=0
split_feature=2 1 2 1 2 0 1 3 1 0 4 1 7 0 1 1 4 4 0 2 5 3 0 0 5 0 0 2 4 37 1 1 1
split_gain=1963.78 1118.79 437.322 371.46 285.233 170.413 159.413 137.137 107.717 94.5961 93.1742 86.2408 73.7393 72.9173 62.8519 62.1528 58.5421 57.6119 56.1358 55.7792 54.869 54.4733 70.6704 52.9198 45.9844 45.8488 39.284 36.9488 35.5578 34.2669 33.5812 32.6179 31.8688
threshold=0.47674953178598795 0.45171882966308313 0.2232060410727453 0.39319022306156598 0.28151900404279145 0.41904772096385173 0.65623381256286561 -19681.499999999996 0.16296617917740483 0.42730830448973461 -3901.4999999999995 0.64207094424472821 675191.25000000012 0.17785244899496813 0.057349307488876851 0.046235291726202277 -2339.4999999999995 -3092.4999999999995 0.30420676774931321 0.084195070592532603 21039.750000000004 -9882.4999999999982 0.21538403902292461 0.2432957465422719 16134.750000000002 0.41337432619004449 0.20826167194977571 0.63720984947910253 -1668.4999999999998 0.98385000000000011 0.6334831984538799 0.010283549272529663 0.24666984219173782
decision_type=10 8 8 10 8 10 10 2 10 10 10 10 8 8 8 10 10 10 10 10 10 2 8 8 10 10 8 10 10 10 10 10 10
left_child=1 4 12 10 15 7 9 32 31 13 -2 17 24 -4 -12 -1 -15 -5 27 -17 -18 22 -10 -8 -3 -19 -21 -16 -25 -28 -26 -9 -6
right_child=3 2 6 11 5 -7 23 8 21 -11 14 -13 -14 16 18 19 20 25 -20 26 -22 -23 -24 28 30 -27 29 -29 -30 -31 -32 -33 -34
leaf_value=0.035618426354438765 -0.0059663773157227328 0.0072043932828213097 0.016196067206183284 -0.011254150747050785 0.008581052151300313 -0.00071064074370590243 0.0076988129592869695 0.038885980984951538 0.029037241569379261 -0.0056516082834162972 0.018558566066053543 -0.013177070406977114 0.0019372943356426239 -0.0023736060520755994 0.00845429519232869 0.031281173889700753 -0.00096136489369652535 -0.0038921280962850198 -0.0051083306183242819 0.030464872955612676 0.0071354689281004817 0.003660334028544588 0.011964200781088908 -0.010279791702545995 0.021461288704159309 -0.010689894887871632 0.018828577933428594 -0.00010411947539987737 -0.0043746759624019166 0.008363347406915727 0.01156783439432405 0.020495747951693916 -0.0017705940055827713
leaf_count=820 10291 2515 1589 22973 2347 6254 1097 347 1098 11820 1008 40456 2721 13638 5405 1201 7045 19673 4658 800 10981 3010 11928 15590 3713 8861 6692 4738 10436 1428 2645 4701 3521
internal_value=0 0.281678 0.0089592 -0.385319 0.675961 0.509109 -0.111968 0.613172 0.726828 0.0175995 -0.00954203 -0.514272 0.596909 0.112584 0.155192 1.07797 0.0710652 -0.409663 0.0899084 1.0068 0.20076 0.581702 0.675474 -0.35315 0.737558 -0.295868 0.918102 0.23128 -0.393371 0.851348 0.886688 1.09121 0.134977
internal_count=246000 127937 83790 118063 44147 33206 72196 26952 21084 45073 26100 91963 11594 33253 15809 10941 31664 51507 14801 10121 18026 16036 13026 27123 8873 28534 8920 10143 26026 8120 6358 5048 5868
shrinkage=0.02


Tree=21
num_leaves=34
num_cat=0
split_feature=2 1 2 1 2 1 0 4 4 28 0 28 1 1 0 1 19 2 0 12 1 19 1 4 2 0 0 3 9 0 4 0 6
split_gain=1890.07 1061.63 384.901 362.446 296.807 170.021 126.349 98.2248 89.7192 86.1625 85.8469 78.2459 74.326 72.5802 68.3274 60.0249 55.9403 51.4481 50.8408 47.4808 41.4908 40.8648 40.6888 39.4995 37.8784 34.8262 33.8107 45.1801 33.7674 34.1044 33.5513 39.3935 33.3687
threshold=0.47674953178598795 0.48742247725538562 0.26294789218207787 0.39319022306156598 0.28151900404279145 0.20108964067933763 0.53661010726981273 -2339.4999999999995 -3901.4999999999995 1.0000000180025095e-35 0.29804017299502494 1.0000000180025095e-35 0.64207094424472821 0.26955727278833347 0.65113002854011437 0.18281896792288557 0.029250000000000002 0.084195070592532603 0.26032845561026186 16.500000000000004 0.64788428883061611 0.023550000000000005 0.66446837693045258 -3061.4999999999995 0.12412739650253161 0.28251996777580157 0.52294290858524939 -17403.499999999996 -8634.4999999999982 0.18703070970621752 -2049.4999999999995 0.19137115999016732 306153.00000000006
decision_type=10 8 8 10 8 10 10 10 10 2 8 2 10 10 10 8 10 10 8 8 8 10 8 10 10 10 10 2 2 10 10 10 2
left_child=1 4 14 8 13 11 7 22 -2 19 -5 32 23 30 17 -10 -9 -3 -11 -7 -19 -13 -4 -12 -15 -17 27 -20 -21 -30 -1 -32 -6
right_child=3 2 6 10 5 9 -8 16 15 18 12 21 -14 24 -16 25 -18 20 26 28 -22 -23 -24 -25 -26 -27 -28 -29 29 -31 31 -33 -34
leaf_value=0.01854904584209394 -0.0058771025440186378 0.021876027286509385 -0.0029161984878754454 -0.00071631659952122947 0.01509707409427904 0.004893706863318705 -0.010133282667664991 0.0041533057663390317 0.0093936198968832194 0.016162708722704592 -0.011295638526370081 0.014925262525931238 -0.013568448418112387 0.023359801883805417 -0.0043330504128252902 0.0027755556247337594 -0.0025400325240974788 0.012329129363722912 -0.0017466413467379803 0.0014982483834978819 0.0037873899760357439 0.0039564722219325313 -0.0097921907739250049 -0.0067115895040422702 0.013070109341634391 -0.0059384940418721948 -0.0045766634063976585 0.0066843547358775611 0.019371129110385764 0.0075019561627468678 0.032130302110030068 0.019316623671142143 0.026821697696487068
leaf_count=1855 10291 1497 13386 5404 1364 3696 13359 15687 4575 1190 22512 4138 38630 1620 1732 7403 11962 6793 5104 820 4508 2094 8557 25417 5501 3831 3393 8215 4084 1538 2270 1176 2398
internal_value=0 0.274857 -0.0196525 -0.380203 0.619878 0.459999 -0.16036 -0.0768343 -0.00937394 0.310932 -0.508566 0.795392 -0.540684 1.00587 0.465694 0.151693 0.0651853 0.544742 0.160898 0.554882 0.462011 0.570371 -0.273296 -0.438688 0.789437 0.00061902 0.106983 0.181786 0.725806 0.815704 1.24445 1.40343 1.12817
internal_count=246000 127937 77481 118063 50456 38034 62951 49592 26100 28040 91963 9994 86559 12422 14530 15809 27649 12798 17902 10138 11301 6232 21943 47929 7121 11234 16712 13319 6442 5622 5301 3446 3762
shrinkage=0.02


Tree=22
num_leaves=34
num_cat=0
split_feature=2 1 2 1 2 1 0 28 0 28 1 1 4 0 0 3 4 0 1 1 1 19 3 4 0 0 0 6 19 2 0 1 6
split_gain=1819.18 1006.14 367.987 353.602 277.129 169.164 122.933 104.389 95.8618 86.4674 84.9732 84.2276 65.6942 64.7944 61.6568 70.0118 55.6763 54.4546 49.0501 48.6476 47.8923 47.4251 46.5827 45.8018 44.9009 44.1031 40.77 38.3486 35.8578 35.0012 32.9359 31.2554 30.412
threshold=0.47674953178598795 0.48742247725538562 0.26294789218207787 0.39319022306156598 0.24385143621834365 0.26162633907556315 0.53661010726981273 1.0000000180025095e-35 0.19137115999016732 1.0000000180025095e-35 0.70561370066849227 0.64207094424472821 -2339.4999999999995 0.65113002854011437 0.41904772096385173 -19922.499999999996 -3092.4999999999995 0.48554982335738489 0.24666984219173782 0.26955727278833347 0.6334831984538799 0.047750000000000008 -9706.4999999999982 -710.49999999999989 0.41337432619004449 0.21538403902292461 0.30420676774931321 199044.00000000003 0.029250000000000002 0.084195070592532603 0.56308284404566156 0.023383414463711592 312779.25000000006
decision_type=10 8 8 10 8 10 10 2 8 2 10 10 10 10 10 2 10 10 8 10 8 10 2 10 10 8 8 2 10 10 10 10 2
left_child=1 4 13 9 17 7 8 31 -4 23 12 16 -10 20 15 -7 -5 19 26 27 29 30 25 -2 -18 -17 -11 -1 -14 -3 -9 -6 -33
right_child=3 2 6 11 5 14 -8 21 10 18 -12 -13 28 -15 -16 22 24 -19 -20 -21 -22 -23 -24 -25 -26 -27 -28 -29 -30 -31 -32 32 -34
leaf_value=0.012211565269570257 0.0026804525031752804 0.025731327280605273 0.012887317541076937 -0.011024724412089603 0.036234923708799854 -0.0012467426813069526 -0.010018847894831293 0.014232605680485677 -0.0044443982638474591 0.020340475033484656 -0.0091008852263205105 -0.012953402841205629 0.004318408002303706 -0.0042619242781202805 -0.0013000985276620763 0.022872754186064208 -0.0037297579347632991 0.0096478744995546831 -0.0068980184643089981 0.017974484169764746 0.0057736221482698859 0.0026470362401232756 0.0010147744503570875 0.014887944562370491 -0.010500892242461868 0.0095990029739202436 -0.00045961292743995651 0.02898999575681125 -0.0017726392022736829 0.012251769967818751 -0.0007352295545280731 0.013243405005081522 0.022861715656315309
leaf_count=488 6552 817 2014 22973 380 4016 13359 6240 16824 459 9302 40456 12573 1732 5508 1127 19673 1470 9833 4602 5900 2636 2546 1905 8861 12209 7351 3157 8879 6081 779 1904 3394
internal_value=0 0.268234 -0.019294 -0.375124 0.601826 0.468472 -0.157606 0.717999 -0.0754089 -0.00920401 -0.113301 -0.50288 -0.0388277 0.452993 0.285302 0.367729 -0.399028 1.02997 -0.162032 1.11641 0.529223 0.508276 0.461894 0.279858 -0.286874 0.541852 0.0474154 1.34177 0.0917998 0.703374 0.641997 1.03595 0.970708
internal_count=246000 127937 77481 118063 50456 40739 62951 15333 49592 26100 47578 91963 38276 14530 25406 19898 51507 9717 17643 8247 12798 9655 15882 8457 28534 13336 7810 3645 21452 6898 7019 5678 5298
shrinkage=0.02


Tree=23
num_leaves=34
num_cat=0
split_feature=2 1 1 2 2 1 1 0 28 4 0 1 0 3 28 0 2 0 1 32 12 3 12 2 8 1 7 5 12 4 7 5 0
split_gain=1751.02 956.895 346.523 310.086 297.668 189.535 105.649 99.8297 96.9791 80.2576 79.757 78.0075 73.2922 77.0263 59.5866 58.7428 58.3291 56.3654 55.155 51.8609 48.6583 44.5808 42.0394 41.0963 40.9763 40.1859 38.4601 53.8561 38.306 37.586 34.5687 60.1904 32.9623
threshold=0.47674953178598795 0.51757344476676559 0.49011629051082145 0.2963346268992561 0.24385143621834365 0.26162633907556315 0.14591277366591909 0.27584856938043467 1.0000000180025095e-35 -2649.4999999999995 0.6485232005040088 0.70561370066849227 0.41904772096385173 -19505.499999999996 1.0000000180025095e-35 0.44076258857241091 0.13135864273369982 0.34722133245474956 0.20724682471478231 1.0000000180025095e-35 21.500000000000004 -9800.4999999999982 11.500000000000002 0.62376832935934801 -488.49999999999994 0.64060720043079156 450117.00000000006 15018.750000000002 11.500000000000002 -1388.4999999999998 450117.00000000006 24752.250000000004 0.62626370388489161
decision_type=10 8 10 8 8 10 8 8 2 10 10 10 10 2 2 8 10 10 10 2 8 2 8 10 2 10 10 10 8 10 8 10 10
left_child=1 4 6 10 18 8 -2 -5 28 -8 16 14 13 -7 22 -4 -3 23 -1 29 -15 -22 -9 -11 30 -17 27 -20 -6 -10 31 -18 -16
right_child=2 3 15 7 5 12 9 11 19 17 -12 -13 -14 20 32 25 24 -19 26 -21 21 -23 -24 -25 -26 -27 -28 -29 -30 -31 -32 -33 -34
leaf_value=0.025505658438148643 0.0073859136789538229 0.016235433728567637 -0.0051435041860512535 0.0069012671254906482 0.010402041827866613 -0.00098112625277597433 -0.0073767254540908853 -0.0053576864303843908 0.0047179765357430216 0.0068294745669742534 -0.0064279668213930545 -0.010771532090505844 -0.0018277367424693433 0.0034282803731390948 -0.0042817246660971208 -0.009576218421821674 0.0044776812378052467 -0.0068318593514404983 0.011284319555006216 0.02340394648254808 0.0128666763280866 0.0025774061328883886 0.0037850479427139812 -0.0016828540952662267 0.021785695140875552 -0.013556562596111257 0.011191809877840471 0.024560875445164786 0.022529126172009747 0.013256342077875275 0.00081514631534458973 0.020440555721076847 -0.011544257189732827
leaf_count=2997 4895 3125 10404 3763 1209 5320 16918 4336 5360 5841 2163 11654 6797 5548 21339 32431 4214 5165 1747 946 10501 2291 8609 6123 753 36286 3042 3072 4469 3349 5012 1486 4835
internal_value=0 0.261806 -0.37008 -0.0467839 0.556279 0.424921 -0.0906553 -0.198361 0.696027 -0.172981 0.351105 -0.247707 0.254608 0.338602 -0.169085 -0.535115 0.434727 0.000138549 0.976984 0.494209 0.436502 0.549906 0.0387727 0.131471 0.311922 -0.579899 0.832265 0.99615 0.999712 0.41343 0.25641 0.437038 -0.275773
internal_count=246000 127937 118063 71289 56648 45790 38942 54536 15333 34047 16753 50773 30457 23660 39119 79121 14590 17129 10858 9655 18340 12792 12945 11964 11465 68717 7861 4819 5678 8709 10712 5700 26174
shrinkage=0.02


Tree=24
num_leaves=34
num_cat=0
split_feature=2 1 1 2 2 1 4 0 28 1 0 0 3 1 1 0 28 2 32 12 1 0 12 1 28 8 31 5 7 5 5 7 0
split_gain=1685.46 908.362 338.674 297.326 280.14 167.434 101.314 96.0532 77.9168 76.1856 76.0324 73.1452 83.8404 70.7331 65.0971 57.8092 57.6282 54.6863 49.6926 48.0829 45.2679 44.8059 40.4033 39.8275 38.7444 38.362 36.5796 35.6058 33.9069 55.044 33.7044 47.2442 33.0868
threshold=0.47674953178598795 0.51757344476676559 0.49011629051082145 0.2963346268992561 0.28151900404279145 0.24666984219173782 -2316.4999999999995 0.27584856938043467 1.0000000180025095e-35 0.70561370066849227 0.6485232005040088 0.41904772096385173 -19505.499999999996 0.16937225018891802 0.26955727278833347 0.44076258857241091 1.0000000180025095e-35 0.13135864273369982 1.0000000180025095e-35 21.500000000000004 0.23394130568291682 0.34722133245474956 11.500000000000002 0.64060720043079156 1.0000000180025095e-35 -567.49999999999989 0.98385000000000011 14604.750000000002 450117.00000000006 24752.250000000004 15018.750000000002 450117.00000000006 0.38361380918258742
decision_type=10 8 10 8 8 10 10 8 2 10 10 10 2 8 10 8 2 10 2 8 10 10 8 10 2 2 10 10 8 10 10 10 10
left_child=1 4 6 10 14 8 20 -5 -6 16 17 12 -7 27 -1 -4 22 -3 32 -14 -2 -15 -9 -17 -21 28 30 -8 29 -19 -16 -32 -10
right_child=2 3 15 7 5 11 13 9 18 -11 -12 -13 19 21 26 23 -18 25 -20 24 -22 -23 -24 -25 -26 -27 -28 -29 -30 -31 31 -33 -34
leaf_value=0.022397321971226299 -0.00019350193229122518 0.015710740724803572 -0.0050633304585336516 0.0067248760804986497 0.01933880793793499 -0.0016555760155291946 -0.0028519341660525194 -0.0052747484762820157 0.0099614170815862917 -0.010656168007274522 -0.0063339174248137351 -0.0023111738663292251 0.0031378582650449537 0.0022433010354222342 0.0083136207214291897 -0.009463818837629168 -0.0054310535105902193 0.004371103235401453 0.023847764937478418 0.015655349767930024 -0.0079612828509046749 -0.0068220443951127934 0.003697406469005864 -0.013446412623223237 0.0079283886566331539 0.019725344266872877 0.0057775767416206247 0.014468826308898793 0.00059913517402288431 0.019637088834037999 0.024074393423453046 0.012516376521080846 -0.00080229263204367133
leaf_count=5301 5937 3125 10404 3763 4823 5316 665 4336 5695 11654 2163 6579 5360 10425 1628 32431 26174 4161 797 4411 14938 4498 8609 36286 8108 890 1607 2479 4947 1467 2660 2676 1687
internal_value=0 0.255558 -0.365077 -0.04592 0.540618 0.393518 -0.0890058 -0.195084 0.675309 -0.243811 0.342138 0.238215 0.322009 0.103459 0.891278 -0.529394 -0.166198 0.423061 0.478538 0.425818 -0.277958 -0.0129298 0.0379634 -0.574157 0.538533 0.304113 0.713464 0.543766 0.24519 0.424275 0.809062 0.925654 0.39262
internal_count=246000 127937 118063 71289 56648 42776 38942 54536 13002 50773 16753 29774 23195 18067 13872 79121 39119 14590 8179 17879 20875 14923 12945 68717 12519 11465 8571 3144 10575 5628 6964 5336 7382
shrinkage=0.02


Tree=25
num_leaves=34
num_cat=0
split_feature=2 1 1 2 2 1 1 1 28 4 1 28 2 28 1 12 3 12 5 7 6 2 2 19 37 4 12 7 4 6 7 12 3
split_gain=1622.41 862.613 330.936 285.116 262.295 157.862 97.8589 90.6912 78.4159 75.7784 60.4872 58.0998 57.1409 53.0034 51.1964 50.9488 47.8908 42.8813 39.1506 37.5212 49.987 37.4991 36.0956 35.2213 34.3888 32.8637 31.3813 31.0269 29.015 27.8982 28.6933 30.7274 27.1972
threshold=0.47674953178598795 0.51757344476676559 0.49011629051082145 0.2963346268992561 0.28151900404279145 0.20108964067933763 0.14591277366591909 0.67311432871682808 1.0000000180025095e-35 -2649.4999999999995 0.26955727278833347 1.0000000180025095e-35 0.13135864273369982 1.0000000180025095e-35 0.64351197800400295 24.500000000000004 -16966.499999999996 12.500000000000002 16715.250000000004 450117.00000000006 500868.00000000006 0.62376832935934801 0.12412739650253161 0.023550000000000005 0.98385000000000011 -3092.4999999999995 11.500000000000002 450117.00000000006 -2049.4999999999995 306153.00000000006 825300.00000000012 22.500000000000004 -11997.499999999998
decision_type=10 8 10 8 8 10 8 10 2 10 10 2 10 2 10 8 2 8 10 8 2 10 10 10 10 10 8 10 10 2 8 8 2
left_child=1 4 6 12 10 11 -2 13 15 -8 28 29 -3 17 25 18 -10 -5 -7 20 -14 -11 -12 -13 -24 -4 -18 -20 -1 -6 31 -31 -30
right_child=2 3 14 7 5 8 9 -9 16 21 22 23 19 -15 -16 -17 26 -19 27 -21 -22 -23 24 -25 -26 -27 -28 -29 32 30 -32 -33 -34
leaf_value=0.01588527116279673 0.0070489349108377184 0.013698709091915917 -0.011143224935691937 -0.0038851930317910046 0.012963014670207492 -0.0067052350950676486 -0.0071870688292348193 -0.0081970665070825507 -0.0018892060062824785 0.0034410254395097163 0.02045661165519819 0.013437294284972425 0.0055202197752181091 -0.003819155706520938 -0.012652940467312964 0.013332674671752906 -0.0035356335468137512 0.0054241306329547156 0.014006913106638763 0.00044786612484892059 0.022530274060094259 -0.0034720859844879675 0.013582653017629691 0.0033793888312152087 0.001860964217696538 -0.0064116687753803282 0.0064047731144971755 0.0022387564478114587 0.029664823169580901 0.017456560078145212 0.0099709836275417157 0.032304980183200722 0.020028423951336347
leaf_count=1855 4895 3504 17683 4170 1364 1170 16918 19973 8325 8347 1955 4138 5874 22457 39950 6401 1796 7936 1788 6452 923 8782 5371 2094 1245 21488 10908 2394 1595 782 458 1158 1851
internal_value=0 0.249491 -0.360114 -0.0450694 0.525546 0.383301 -0.0873855 -0.191848 0.255816 -0.167388 0.862393 0.705038 0.333457 -0.0793058 -0.523689 0.471035 0.123622 0.115369 0.222456 0.219942 0.395332 0.000337025 0.691684 0.512425 0.57186 -0.422202 0.252172 0.374353 1.08088 0.981684 1.16929 1.31923 1.22376
internal_count=246000 127937 118063 71289 56648 42776 38942 54536 32782 34047 13872 9994 16753 34563 79121 11753 21029 12106 5352 13249 6797 17129 8571 6232 6616 39171 12704 4182 5301 3762 2398 1940 3446
shrinkage=0.02


Tree=26
num_leaves=34
num_cat=0
split_feature=2 1 1 2 2 1 4 0 4 0 4 0 1 0 1 0 4 3 0 4 2 28 12 0 1 1 19 0 33 5 12 12 6
split_gain=1561.76 820.607 323.328 285.398 240.726 205.265 95.0898 86.4143 83.3266 80.3965 76.278 71.6903 65.5407 57.17 57.102 56.9717 55.8292 52.5686 51.8625 44.9818 48.4331 44.2042 43.1924 43.1874 43.0496 39.0747 36.3736 35.2909 34.8551 33.4449 32.9319 31.8083 31.6274
threshold=0.47674953178598795 0.55237056661871475 0.49011629051082145 0.22824816588153382 0.2963346268992561 0.26324748678228233 -2316.4999999999995 0.27584856938043467 -2487.4999999999995 0.339191568704098 -1652.4999999999998 0.42460222128724473 0.16937225018891802 0.44076258857241091 0.70561370066849227 0.15946314912339765 -4873.4999999999991 -9800.4999999999982 0.26350941521028848 -2025.4999999999998 0.057054755673713535 1.0000000180025095e-35 21.500000000000004 0.34722133245474956 0.24666984219173782 0.64060720043079156 0.13295000000000004 0.38361380918258742 0.54070000000000007 14604.750000000002 14.500000000000002 9.5000000000000018 337360.50000000006
decision_type=10 8 10 8 8 10 10 8 10 10 10 10 8 8 10 8 10 2 10 10 10 2 8 10 10 10 10 10 8 10 8 8 2
left_child=1 3 6 15 11 8 24 -6 27 10 -7 16 29 -4 21 -1 -3 22 28 -17 -21 30 -12 -14 -2 -15 -22 32 -10 -8 -9 -18 -5
right_child=2 4 13 5 7 9 12 14 18 -11 17 -13 23 25 -16 19 31 -19 -20 20 26 -23 -24 -25 -26 -27 -28 -29 -30 -31 -32 -33 -34
leaf_value=0.033385710723493729 -0.00040830613553260217 -0.0014631405369271984 -0.004833818018148953 0.0025651960453420492 0.0063911554484097355 0.002351148722957796 -0.0028999308977864864 -0.0050145672786827012 0.012533996693030696 -0.0011504893887955715 0.0053715842068968534 -0.0018965119289374474 0.0021926549347324651 -0.009249183302207406 -0.01045200269023574 0.011757683960716556 0.0032768975239237303 0.0021406033622942068 0.0082812522211592222 0.035280437893596688 0.019489079244969888 -0.005951533944746356 0.014775680162267204 -0.0067242413840256487 -0.0078791851491807879 -0.013232202080852707 0.00342075937810628 -0.0037869103518794744 0.021047307958767313 0.013845757833064123 0.0033907706957768875 0.013399823124903605 0.013234393073809435
leaf_count=644 6338 2080 10404 1938 3222 13531 665 4644 2458 10859 3123 4499 10425 32431 11654 3969 1804 3151 2714 526 5213 22477 7058 4498 14537 36286 530 1236 4945 2479 6434 6341 2887
internal_value=0 0.243595 -0.355187 0.480609 -0.0816266 0.368181 -0.0857859 -0.225638 0.644679 0.214718 0.309622 0.290872 0.0999154 -0.518001 -0.274618 0.892969 0.439433 0.481828 0.799152 0.837114 0.984175 -0.197006 0.597232 -0.0127188 -0.270176 -0.563079 0.903505 0.332007 0.91591 0.520442 -0.00256442 0.559994 0.450509
internal_count=246000 127937 118063 64782 63155 53900 38942 48431 16178 37722 26863 14724 18067 79121 45209 10882 10225 13332 10117 10238 6269 33555 10181 14923 20875 68717 5743 6061 7403 3144 11078 8145 4825
shrinkage=0.02


Tree=27
num_leaves=34
num_cat=0
split_feature=1 4 4 0 0 1 0 1 1 0 1 12 6 3 7 6 6 7 6 0 1 19 0 6 1 0 1 6 17 34 9 17 1
split_gain=1336.56 351.273 267.31 211.184 191.617 135.228 127.435 110.063 108.968 89.0371 82.278 63.7135 62.3369 58.9571 58.6744 118.169 54.446 49.2566 80.3427 48.3128 46.8247 40.8915 35.2322 34.7107 34.5454 33.3912 32.677 31.344 29.4278 27.8171 26.5996 26.0781 24.4356
threshold=0.48742247725538562 -1854.4999999999998 -2411.4999999999995 0.29481214424333363 0.44076258857241091 0.18281896792288557 0.24651107315306567 0.71927560208472741 0.12825601737575185 0.21538403902292461 0.64788428883061611 12.500000000000002 263765.25000000006 -13453.499999999998 450117.00000000006 273672.00000000006 539165.25000000012 450117.00000000006 518922.00000000006 0.70643513774117028 0.068498444274341333 0.032850000000000011 0.19137115999016732 234162.00000000003 0.078100629753101961 0.2729191980620907 0.60783030159056917 161865.00000000003 1.0000000180025095e-35 0.064150000000000013 -7094.4999999999991 1.5000000000000002 0.010283549272529663
decision_type=8 10 10 10 10 10 8 10 10 8 8 8 2 2 8 2 2 8 2 10 10 10 8 2 10 8 8 2 10 8 2 10 10
left_child=1 6 10 5 7 24 13 9 27 -4 19 -11 -10 -1 15 -7 30 18 -14 25 -5 23 -16 -13 29 -2 -6 -8 -22 -3 -17 -27 -29
right_child=2 3 4 20 26 14 8 -9 12 11 -12 21 17 -15 22 16 -18 -19 -20 -21 28 -23 -24 -25 -26 31 -28 32 -30 -31 -32 -33 -34
leaf_value=0.03846503854567114 0.0064896692656141019 0.012368056502286444 0.011339481551206334 0.017392150554090824 -0.0040782849691665037 0.0063571169834734835 -0.0067853909114062453 -0.0085332271501928642 -0.0058833928202206842 -0.0043151685927603715 -0.01107826520566179 -0.0019523872427436475 0.0021322797177960031 0.011559664905659189 0.019401468210062819 0.0067344528148086539 0.030733207346958617 -0.0013535387531238155 0.019077617783005728 -0.013784134306610282 7.894419133393739e-05 -0.00094616583549947235 0.0041936543988758497 0.0058904106080177659 0.015981064077291184 -0.0057146834368576619 -0.010310514569756526 0.025863395765627472 0.010543789970993049 0.026350230460593309 0.017620354457656775 0.0085587728962016069 0.0094205923188351338
leaf_count=461 1300 546 4042 693 8052 7077 461 7724 9263 11144 37780 3873 9334 1249 674 1135 1120 18520 1579 4564 10651 13447 7681 16174 4707 33222 15151 363 1459 2342 5092 805 4315
internal_value=0 0.310663 -0.239232 0.509409 -0.0880734 0.642584 0.0836965 0.0244681 0.0425534 0.085332 -0.412283 0.0329821 -0.031879 0.935944 0.503539 0.625214 0.902135 0.0487314 0.236384 -0.290268 0.127394 0.113385 0.277776 0.219071 0.958746 -0.242893 -0.400168 0.464597 0.0685438 1.18998 0.784277 -0.268622 0.539561
internal_count=246000 88722 157278 43177 79607 30374 45545 56404 43835 48680 77671 44638 38696 1710 22779 14424 7347 29433 10913 39891 12803 33494 8355 20047 7595 35327 23203 5139 12110 2888 6227 34027 4678
shrinkage=0.02


Tree=28
num_leaves=34
num_cat=0
split_feature=2 1 1 2 2 1 28 1 28 4 1 2 4 4 2 28 32 3 35 4 12 38 12 5 6 12 4 4 6 12 3 12 1
split_gain=1487.93 746.682 306.296 266.431 232.745 165.265 78.9931 76.7881 71.7522 65.8359 59.443 57.0774 55.5544 52.6866 52.6105 45.9773 43.5798 42.4189 42.3847 39.5448 38.3589 37.6377 37.2393 37.2216 46.8644 34.5284 33.5786 32.1058 30.5785 27.6863 27.37 27.342 26.5651
threshold=0.47674953178598795 0.55237056661871475 0.39319022306156598 0.26716287204475503 0.33365234483727518 0.26162633907556315 1.0000000180025095e-35 0.64351197800400295 1.0000000180025095e-35 -1854.4999999999998 0.70561370066849227 0.13135864273369982 -1797.4999999999998 -3092.4999999999995 0.057054755673713535 1.0000000180025095e-35 1.0000000180025095e-35 -15176.499999999998 0.079950000000000007 -565.49999999999989 16.500000000000004 0.027950000000000003 8.5000000000000018 17075.250000000004 674921.25000000012 11.500000000000002 -1388.4999999999998 -3492.4999999999995 199044.00000000003 10.500000000000002 -11081.499999999998 21.500000000000004 0.023383414463711592
decision_type=10 8 10 8 8 10 2 10 2 10 10 10 10 10 10 2 2 2 10 10 8 10 8 10 2 8 10 10 2 8 2 8 10
left_child=1 3 6 12 11 8 19 13 25 -7 15 -3 -1 -4 -14 20 26 -8 22 -2 -6 27 -16 31 -25 -5 -10 -13 -24 -29 -18 -11 -27
right_child=2 4 7 5 10 9 17 -9 16 23 -12 21 14 -15 18 -17 30 -19 -20 -21 -22 -23 28 24 -26 32 -28 29 -30 -31 -32 -33 -34
leaf_value=0.01144169426635862 0.0028828218284999837 0.012512360460431565 -0.010501976348900145 0.0078486001111934198 -0.0043949286523832475 0.00045768379064992397 -0.0060627838217129758 -0.012356294224595263 0.0034372736012368982 -0.0066841496174301707 -0.010009731666042248 -0.0012261046014898664 0.034495176113369344 -0.0052852712909691969 0.0091996012993217323 -0.0054149890413396811 0.031059930811506226 0.0014244079707768829 0.0078951739103633352 0.014968629718960087 0.0043358359250218938 -0.00094115416586387193 0.010720690425642452 0.011678223779526448 0.0033766991939591547 0.034748664247212048 0.011575453684281168 6.9722002173203533e-05 0.022889397433169031 0.011364219025400468 0.0102490268636723 0.0044935468113362596 0.018000691832458435
leaf_count=6020 6910 3082 23219 1151 5164 16862 11192 39950 5167 1375 11244 2373 555 28794 1034 21606 459 6451 1301 1547 6366 7322 816 7815 5294 299 3178 1430 4711 4568 436 4299 4010
internal_value=0 0.236375 -0.349003 0.460146 -0.0757975 0.332335 -0.0105699 -0.472777 0.592966 0.191578 -0.240954 0.23999 0.795065 -0.373799 0.940276 -0.162724 0.416451 -0.157739 0.875569 0.26357 0.0263191 0.143308 0.967431 0.325011 0.423243 0.850566 0.341136 0.304683 1.0586 0.436939 1.03487 0.0928078 0.968256
internal_count=246000 127937 118063 64782 63155 50345 26100 91963 14700 35645 44380 18775 14437 52013 8417 33136 9240 17643 7862 8457 11530 15693 6561 18783 13109 5460 8345 8371 5527 5998 895 5674 4309
shrinkage=0.02


Tree=29
num_leaves=34
num_cat=0
split_feature=2 1 1 2 2 0 1 0 3 0 28 0 4 1 1 6 7 3 1 7 5 7 5 0 0 11 2 4 1 1 19 5 7
split_gain=1432.65 718.202 294.132 257.204 221.896 143.703 112.025 81.1809 79.5469 77.8435 72.2306 71.8805 69.3854 63.9617 50.8541 49.5481 49.8723 44.5011 41.2916 41.181 52.1887 37.8762 82.306 36.8149 35.1245 34.8538 34.583 34.5787 33.1677 31.3758 31.3367 28.3654 60.1082
threshold=0.48395083181648063 0.51757344476676559 0.39319022306156598 0.31469441606860521 0.28151900404279145 0.41904772096385173 0.15968216777734864 0.53661010726981273 -19505.499999999996 0.29804017299502494 1.0000000180025095e-35 0.52565353013748295 -2316.4999999999995 0.62033948844263709 0.26955727278833347 180290.25000000003 675191.25000000012 -19681.499999999996 0.24666984219173782 675191.25000000012 19050.750000000004 675191.25000000012 25395.750000000004 0.63491485065912856 0.31025816803918232 202686.75000000003 0.60669678243265945 -565.49999999999989 0.64788428883061611 0.010283549272529663 0.084050000000000014 15018.750000000002 450117.00000000006
decision_type=10 8 10 8 8 10 10 10 2 8 2 10 10 10 10 2 10 2 8 8 10 10 10 10 8 2 10 10 8 10 10 10 10
left_child=1 4 10 11 14 6 29 12 -8 -4 27 17 28 23 -1 -10 -17 -3 24 20 -19 22 -14 26 -12 -22 -11 -2 -5 -6 31 -16 -33
right_child=2 3 9 7 5 -7 8 -9 15 13 18 -13 21 -15 30 16 -18 19 -20 -21 25 -23 -24 -25 -26 -27 -28 -29 -30 -31 -32 32 -34
leaf_value=0.019435596549916861 0.0027393074804839472 -0.00049345795076282729 -0.00023612904209953646 -0.0028408054724110301 0.029783802721454138 -0.0016046414242454293 -0.00039417600321153069 -0.0099874235445556753 0.00064454595931751524 -0.0035040741973141527 0.018219701076935307 -0.0028228977726866889 -0.0018886176972619398 -0.012428596029462413 0.0070824455331428438 0.011305088728400659 0.0030119789463597252 0.0052531068632838398 -0.0066102479387767851 0.0022087203127414286 0.019235912442715383 -0.0049914145116723195 0.0087487005183990649 -0.013716345282173994 -0.00066938201590623319 0.0083003291745306577 -0.0088234335928770672 0.014155864588251908 -0.0094273139288754276 0.014189695001449367 0.004297435659667218 0.022151961947395774 0.0095369467108153399
leaf_count=5301 6745 2583 5280 9544 425 8834 6621 11568 3164 12570 465 4217 10912 44734 1670 14852 4099 3547 9632 2886 3708 5803 6292 6273 7197 1950 21389 1504 9619 5715 1479 2712 2710
internal_value=0 0.22678 -0.350336 -0.0425412 0.471934 0.343726 0.428346 -0.191844 0.329343 -0.473589 -0.0148873 0.28984 -0.117994 -0.506005 0.775989 0.417511 0.479881 0.393663 -0.157433 0.475826 0.580099 0.0155987 0.101917 -0.39188 0.034453 0.775671 -0.340542 0.250219 -0.298083 0.767457 0.621788 0.703461 0.806971
internal_count=246000 130211 115789 72629 57582 43710 34876 53738 28736 90246 25543 18891 42170 84966 13872 22115 18951 14674 17294 12091 9205 23007 17204 40232 7662 5658 33959 8249 19163 6140 8571 7092 5422
shrinkage=0.02


Tree=30
num_leaves=34
num_cat=0
split_feature=2 1 1 2 2 1 0 0 0 0 0 28 1 3 4 4 1 0 12 31 1 31 0 3 0 7 5 6 7 3 2 4 3
split_gain=1379.44 686.156 286.705 242.325 218.348 167.727 78.8536 76.0915 73.9734 72.5257 70.7563 69.2864 63.1485 63.1272 59.3648 52.0737 50.3461 48.4139 47.9268 40.8848 40.7374 39.6579 37.0004 36.3802 36.2617 35.7914 40.6093 35.6561 56.9908 35.3396 33.7785 32.6234 31.4067
threshold=0.48395083181648063 0.55237056661871475 0.39319022306156598 0.22824816588153382 0.33365234483727518 0.26324748678228233 0.44328721658742948 0.29804017299502494 0.339191568704098 0.38361380918258742 0.17785244899496813 1.0000000180025095e-35 0.62033948844263709 -18735.499999999996 -4318.4999999999991 -3122.4999999999995 0.70561370066849227 0.15946314912339765 21.500000000000004 0.98185000000000011 0.068498444274341333 0.98385000000000011 0.5338900820427207 -9800.4999999999982 0.63491485065912856 675191.25000000012 16134.750000000002 279173.25000000006 450117.00000000006 -10188.499999999998 0.60669678243265945 -565.49999999999989 -14304.499999999998
decision_type=10 8 10 8 8 10 10 8 10 10 8 2 10 2 10 10 10 8 8 10 8 10 10 2 10 8 10 2 10 2 10 10 2
left_child=1 3 11 17 6 9 14 -4 13 15 -6 31 24 -7 -3 -5 22 -1 -15 29 -13 27 -12 -20 30 26 -16 -19 -29 -17 -9 -2 -22
right_child=2 4 7 5 10 8 -8 12 -10 -11 16 20 -14 18 25 19 -18 21 23 -21 32 -23 -24 -25 -26 -27 -28 28 -30 -31 -32 -33 -34
leaf_value=0.030033763055289795 0.0026784333320574601 -0.0015245194394653981 -0.00023145484481642409 0.0069877123969848565 0.012405054980785013 -1.7627775294921174e-05 -0.0030032571355222276 -0.0034445270810633368 -0.0012954467842059465 0.001929698829553613 -0.0025350548845595412 0.0085396205126938626 -0.012316251600445647 0.0025855417239536915 0.0038239931965054663 0.019691417566591613 -0.010040005782239804 0.010836782476929352 0.011341390362947734 0.0072627937886418229 -0.0065006204577494099 0.0074266963819622092 -0.0091250012032351533 0.0026244169967062549 -0.013606395781855254 0.0021215758588863215 0.014696319940092637 0.024484660752330977 0.013482153972223949 0.011159489019457233 -0.0087143211317833209 0.01371524008330414 0.00065893906606524408
leaf_count=644 6745 3070 5280 4181 1066 7612 5515 12570 11143 3009 26060 1233 44734 6171 2143 5299 11399 2395 11065 1747 11272 1857 7033 2542 6273 2424 5623 2871 3115 2227 21389 1504 4789
internal_value=0 0.221511 -0.345495 0.432474 -0.0765594 0.330712 0.228603 -0.468047 0.193434 0.574201 -0.234792 -0.0146083 -0.500371 0.282692 0.363442 0.658162 -0.262587 0.80529 0.376014 0.767926 -0.154716 0.754335 -0.189601 0.48434 -0.386706 0.482006 0.588305 0.835629 0.951273 0.857104 -0.335736 0.244207 -0.211219
internal_count=246000 130211 115789 65878 64333 54996 18775 90246 38533 16463 45558 25543 84966 27390 13260 13454 44492 10882 19778 9273 17294 10238 33093 13607 40232 10190 7766 8381 5986 7526 33959 8249 16061
shrinkage=0.02


Tree=31
num_leaves=34
num_cat=0
split_feature=2 1 1 2 2 1 1 4 4 4 1 2 4 2 7 5 5 3 4 17 5 7 35 31 4 12 1 2 27 5 7 9 5
split_gain=1328.22 653.415 280.557 229.021 210.021 142.07 99.0633 70.9293 60.1405 58.5521 56.4048 52.8969 49.7633 47.1203 40.2739 51.3753 38.6806 40.0925 38.6092 37.6999 37.7449 60.7106 37.2036 36.7187 35.943 33.4748 31.1708 30.2711 29.0974 27.9782 50.9938 26.5893 26.431
threshold=0.48395083181648063 0.55237056661871475 0.53801895116092868 0.26716287204475503 0.33365234483727518 0.26162633907556315 0.24666984219173782 -3061.4999999999995 -2908.4999999999995 -1959.4999999999998 0.70561370066849227 0.13135864273369982 -1797.4999999999998 0.057054755673713535 450117.00000000006 24752.250000000004 12377.250000000002 -17987.499999999996 -2339.4999999999995 1.0000000180025095e-35 13502.250000000002 450117.00000000006 0.079950000000000007 0.98185000000000011 -964.49999999999989 8.5000000000000018 0.057349307488876851 0.62376832935934801 1.0000000180025095e-35 21170.250000000004 675191.25000000012 -9074.4999999999982 16715.250000000004
decision_type=10 8 10 8 8 10 10 10 10 10 10 10 10 10 8 10 10 2 10 10 10 8 10 10 10 8 8 10 10 10 8 2 10
left_child=1 3 6 12 11 8 16 -8 -5 31 18 -3 -1 -14 15 -13 -2 -18 -6 20 -11 -22 25 28 -4 -15 -19 -9 -10 -20 -31 -7 -27
right_child=2 4 24 5 10 9 7 27 23 19 -12 14 13 22 -16 -17 17 26 29 -21 21 -23 -24 -25 -26 32 -28 -29 -30 30 -32 -33 -34
leaf_value=0.010372561218066003 -0.0067117638653595721 0.011815542598599918 -0.011499061404583578 0.0048253430584103193 -0.0061145515928147914 -0.0059864287583638251 -0.008834400952956508 0.0013594444869779163 0.013731480456037273 -0.0015823095710124839 -0.0096783748073563242 0.0026383943364439006 0.031775063120186187 0.0082092480686970209 -0.0011171644229422391 0.015414179415280164 -0.0011444160117413857 0.019207460149042479 -0.0047744931650731135 0.013757387774408625 0.010579136079156131 0.0016339995080464035 0.0071071455480569371 0.0057834486853791502 -0.0066769091428254225 0.013245427604789268 0.0059219169491302737 -0.0046433659072982166 0.025023417787346285 0.0052305121604743826 -0.0049251131598642191 0.0015976784571919626 0.021838075718627201
leaf_count=6020 1783 3082 55124 5045 15502 3035 16021 9157 7163 3493 11545 5777 555 1034 7881 2035 3984 836 6672 2403 7025 6789 1301 1921 13621 1622 4960 10303 849 7146 4693 13718 3905
internal_value=0 0.216386 -0.340695 0.421155 -0.0751602 0.304658 -0.124463 -0.23508 0.541167 0.175598 -0.231057 0.223198 0.727025 0.861994 0.130236 0.305225 0.152205 0.238012 -0.155779 0.295539 0.239936 0.317954 0.801461 0.663314 -0.525339 0.885626 0.410718 -0.0865742 0.747535 -0.0430283 0.066578 0.013461 0.970205
internal_count=246000 130211 115789 65878 64333 51441 47044 35481 14978 36463 45558 18775 14437 8417 15693 7812 11563 9780 34013 19710 17307 13814 7862 9933 68745 6561 5796 19460 8012 18511 11839 16753 5527
shrinkage=0.02


Tree=32
num_leaves=34
num_cat=0
split_feature=2 1 1 2 2 0 0 28 1 3 0 1 1 12 7 5 7 0 37 6 7 2 5 3 0 2 0 28 12 3 0 2 0
split_gain=1278.92 619.055 282.459 277.788 144.519 123.809 106.042 98.9742 88.5718 82.968 64.2538 63.9256 62.0795 56.5097 54.6882 51.3599 123.602 51.3476 46.8474 45.441 50.7706 44.4707 35.5827 34.7687 34.5363 35.4083 33.021 32.1235 38.0029 31.3197 29.4158 28.1948 27.9859
threshold=0.47674953178598795 0.45171882966308313 0.53801895116092868 0.2232060410727453 0.34496990492100627 0.5338900820427207 0.41904772096385173 1.0000000180025095e-35 0.70561370066849227 -19623.499999999996 0.19137115999016732 0.24666984219173782 0.1177252624791892 15.500000000000002 675191.25000000012 21039.750000000004 450117.00000000006 0.29804017299502494 0.98385000000000011 279173.25000000006 450117.00000000006 0.62037702305691089 16134.750000000002 -17149.499999999996 0.48845052765968072 0.61867692739220159 0.30420676774931321 1.0000000180025095e-35 22.500000000000004 -12110.499999999998 0.41337432619004449 0.4373939367044648 0.168283589899729
decision_type=10 8 10 8 8 10 10 2 10 2 8 8 10 8 8 10 8 8 10 2 10 10 10 2 10 10 8 2 8 2 10 8 8
left_child=1 4 7 14 18 8 9 13 10 -6 29 26 -11 -2 22 -12 -17 -4 19 -1 -21 -15 -3 -13 25 -19 -9 28 -14 -5 -25 -10 -24
right_child=2 3 17 5 6 -7 -8 11 31 12 15 23 27 21 -16 16 -18 24 -20 20 -22 -23 32 30 -26 -27 -28 -29 -30 -31 -32 -33 -34
