tree
version=v2
num_class=1
num_tree_per_iteration=1
label_index=0
max_feature_idx=39
objective=binary sigmoid:1
feature_names=EXT_SOURCE_1 EXT_SOURCE_2 EXT_SOURCE_3 DAYS_BIRTH DAYS_EMPLOYED AMT_ANNUITY AMT_CREDIT AMT_GOODS_PRICE DAYS_ID_PUBLISH DAYS_REGISTRATION DAYS_LAST_PHONE_CHANGE AMT_INCOME_TOTAL OWN_CAR_AGE REGION_POPULATION_RELATIVE HOUR_APPR_PROCESS_START AMT_REQ_CREDIT_BUREAU_YEAR AMT_REQ_CREDIT_BUREAU_QRT DEF_30_CNT_SOCIAL_CIRCLE YEARS_BEGINEXPLUATATION_MODE TOTALAREA_MODE OBS_60_CNT_SOCIAL_CIRCLE OBS_30_CNT_SOCIAL_CIRCLE BASEMENTAREA_MODE REGION_RATING_CLIENT_W_CITY APARTMENTS_MODE LANDAREA_AVG BASEMENTAREA_AVG DEF_60_CNT_SOCIAL_CIRCLE CODE_GENDER LANDAREA_MODE AMT_REQ_CREDIT_BUREAU_MON YEARS_BEGINEXPLUATATION_MEDI REG_CITY_NOT_LIVE_CITY NONLIVINGAREA_MEDI LANDAREA_MEDI BASEMENTAREA_MEDI COMMONAREA_MEDI YEARS_BEGINEXPLUATATION_AVG LIVINGAREA_MEDI CNT_FAM_MEMBERS
feature_infos=[0.01469148240341735:0.96269277056130598] [8.1736165188843972e-08:0.85499966640470115] [0.00052726523870988168:0.88766420184138684] [-25229:-7489] [-17912:0] [1615.5:230161.5] [45000:4050000] [40500:4050000] [-6337:0] [-24672:0] [-4292:0] [25650:117000000] [0:91] [0.00053300000000000005:0.072508000000000003] [0:23] [0:25] [0:261] [0:8] [0:1] [0:1] [0:29] [0:30] [0:1] [1:3] [0:1] [0:1] [0:1] [0:6] [0:1] [0:1] [0:27] [0:1] [0:1] [0:1] [0:1] [0:1] [0:1] [0:1] [0:1] [1:20]
tree_sizes=2784 2850 2846 2866 2848 2860 2851 2856 2860 2870 2854 2866 2855 2854 2851 2865 2867 2863 2882 2876 2870 2872 2865 2872 2873 2882 2883 2870 2894 2885 2883 2867 2884 2886 2882 2879 2885 2883 2896 2895 2890 2889 2864 2895 2881 2900 2881 2892 2893 2893 2868 2893 2881 2901 2888 2897 2897 2886 2892 2888 2882 2897 2904 2892 2906 2892 2896 2897 2896 2910 2899 2885 2908 2916 2891 2903 2905 2893 2903 2903 2889 2902 2923 2888 2913 2885 2905 2902 2910 2870 2892 2909 2913 2904 2894 2900 2897 2936 2891 2907 2916 2921 2908 2898 2901 2893 2900 2914 2896 2907 2915 2924 2893 2915 2892 2934 2920 2910 2923 2901 2918 2905 2920 2924 2942 2921 2907 2909 2890 2903 2895 2912 2897 2912 2889 2911 2899 2920 2915 2918 2901 2891 2907 2911 2898 2920 2922 2926 2911 2912 2916 2935 2905 2908 2919 2900 2909 2922 2925 2892 2925 2905 2912 2900 2917 2902 2893 2927 2924 2893 2921 2897 2926 2906 2901 2901 2929 2919 2905 2901 2917 2901 2925 2884 2912 2914 2902 2901 2932 2927 2895 2878 2930 2893 2897 2904 2926 2925 2903 2922 2929 2911 2941 2916 2905 2889 2930 2924 2920 2927 2900 2931 2889 2920 2930 2932 2913 2916 2942 2922 2915 2915 2902 2923 2949 2906 2935 2940 2922 2919 2920 2920 2894 2923 2927 2915 2910 2911 2919 2939 2929 2916 2909 2921 2898 2903 2902 2929 2912 2917 2893 2414 2922 2902 2928 2927 2927 2911 2911 2899 2905 2892 2913 2929 2907 2924 2905 2914 2908 2933 2909 2909 2888 2901 2931 2942 2922 2923 2932 2902 2911 2915 2906 2907 2913 2904 2930 2102 2915 2902 2929 2903 2904 2884 2898 2906 2917 2169 2941 2898 2935 2898 2895 2910 2900 2919 2938 2925 2922 2913 2943 2931 2904 2943 2913 2918 2914 2895 2893 2909 2907 2945 2931 2897 2911 2933 2901 2843 2901 2932 2896 2013 2926 2917 2925 2915 2934 2909 2907 2927 2893 2865 2908 2901 2931 1684 1999 2900 2926 2887 2942 2906 2101 2816 2922 2922 2906 2761 2942 2905 2080 2933 1432 2905 2938 2913 2248 1425 2914 2915 2895 2915 2249 2939 2929 1594 2891 1607 2139 2907 2929 2886 2950 2911 2940 2910 2909 2886 2949 2946 2006 2906 2886 2879 2944 2911 2919 2885 2908 2930 2925 2915 2914 2922 2887 2901 2904 2908 2913 2946 2893 2893 2929 2901 2912 2912 2917 1435 2879 2405 2936 2912 2908 2609 2863 2908 2498 2908 2911 2912 2907 2917 2932 2890 2919 2902 2942 1353 2935 2934 2011 2859 2893 2891 2906 2902 1758 2865 2412 2910 2904 2886 1758 2915 2889 2859 2889 2891 2912 2894 2892 2334 2917 2904 2900 2905 2885 1348 2902 2861 2911 2880 2881 2904 2932 2897 2902 2427 1820 2897 2896 2892 2908 2920 2862 2898 1348 2912 2901 2918 2883 2908 2896 2886 2594 2915 2868 2901 2888 2874 2900 2922 1435 2896 2911 2895 2905 2916 2902 2876 2899 2905 2917 2929 2914 2589 2890 2906 2904 2395 2923 2002 2903 2906 2864 2908 2921 2898 2089 2896 2915 1692 2914 2894 2926 2899 2892 2876 2916 2903 2913 1611 2917 2909 2886 2898 2901 2901 2906 2867 1675 2899 2907 1592 2489 2884 2868 2402 2925 2928 2894 2888 1678 2097 2887 2899 2913 2886 2923 2934 2896 2904 2078 2918 1934 2879 2892 2893 2917 2882 1586 2892 2916 2909 2880 2902 2850 2902 2893 1601 2906 2901 2863 2918 2899 2903 2907 2914 2913 2903 2891 2878 1430 2922 2857 2899 1598 2884 2891 2938 2817 2907 2912 2893 2899 2908 2250 2424 2914 2929 2923 2403 2913 1585 2912 2913 2899 2895 2887 2892 2927 2892 1748 2916 2899 2659 2906 2887 2902 2909 2881 1665 2901 2907 2918 2873 2899 2901 2918 2906 1591 1754 2888 2875 2907 2898 2897 2949 2882 2904 2888 2921 2907 1849 2911 2409 2892 2890 2901 2899 2877 2899 2898 2892 2892 2507 2395 2869 1687 2894 2878 2913 2937 2910 2944 2907 1355 2914 1604 2886 2881 2879 2875 1653 2885 2246 2905 1763 2913 2895 2890 1827 2929 2087 2910 1680 2917 2864 2888 2896 2909 2920 2913 2894 2881 2890 2910 2905 2905 2417 2895 2656 2879 1696 2870 2164 2934 2866 2641 2872 2898 2889 2876 1588 2927 2904 2891 2929 2880 2898 2895 1907 2903 2007 1523 2887 2901 2886 2912 1594 2922 2875 2899 2879 2900 2893 2864 2889 2921 2898 1582 1778 2884 2870 2871 2889 1598 2894 2903 2875 2894 2892 1514 2875 2602 2902 2884 2914 2904 1677 2903 2904 1486 2894 1769 2906 2919 2893 2580 2871 2888 2921 2896 2897 2939 2911 1579 2924 1445 2897 2896 2913 2886 2936 2892 1679 2906 2878 1920 2917 1556 2891 2893 2894 2916 1606 2922 1766 2903 2905 2906 2905 2888 2884 2580 2910 2910 2886 2890 1288 2902 2906 2896 2917 2906 2908 2929 1767 2893 1274 2908 2884 1428 1701 1908

Tree=0
num_leaves=34
num_cat=0
split_feature=2 1 1 2 1 2 2 1 1 2 4 0 0 4 1 4 0 0 28 1 1 0 0 0 28 0 38 2 0 1 15 0 3
split_gain=4534.93 2551.5 1650.53 1003.28 602.61 568.567 443.249 347.541 294.538 238.877 231.385 201.15 198.58 200.316 191.334 153.141 140.716 125.995 113.884 108.837 104.489 96.7371 89.6174 86.2629 86.103 78.1089 72.9569 70.0184 63.7839 62.8908 60.3419 58.0437 62.2368
threshold=0.31469441606860521 0.39225669582477246 0.35777171745202657 0.50558277949122454 0.15968216777734864 0.50197671872363325 0.13135864273369982 0.067116934322793712 0.61267765503399096 0.14599244001433329 -3080.4999999999995 0.30334865448472054 0.39443665535039601 -4958.4999999999991 0.65630287307471191 -2447.4999999999995 0.26940257270706275 0.480883439239991 1.0000000180025095e-35 0.65357493229727426 0.077406759416462037 0.41334967561215763 0.24353098013199251 0.16962277210986146 1.0000000180025095e-35 0.33602677239458684 0.047750000000000008 0.18142354377667624 0.28204449029860285 0.57760892570205524 8.5000000000000018 0.42714174870912863 -18121.499999999996
decision_type=8 8 8 10 10 10 10 10 10 10 10 10 10 10 10 10 8 10 2 10 10 8 8 8 2 10 10 10 10 10 8 10 2
left_child=2 3 7 4 10 8 19 27 16 -9 -2 26 13 -6 17 -5 -3 23 -18 28 -17 -7 -10 -8 -11 -22 -12 -1 -4 -23 -15 32 -26
right_child=1 5 6 15 12 21 14 9 22 24 11 -13 -14 30 -16 20 18 -19 -20 -21 25 29 -24 -25 31 -27 -28 -29 -30 -31 -32 -33 -34
leaf_value=-2.3312760372010044 -2.4152936041445048 -2.4184635489824013 -2.3856003270535702 -2.4400791371186519 -2.430869952609791 -2.439785991194281 -2.3910350898431543 -2.3681857554650931 -2.42506891373321 -2.3851532694959228 -2.3731714191285986 -2.4149117862530503 -2.4349037362092307 -2.4158606983420787 -2.4344036775450588 -2.4061006380716563 -2.4283193131205874 -2.4316316480956539 -2.4374590475590487 -2.4166488065720775 -2.4264593458109998 -2.4443979955420647 -2.4431106361756139 -2.4172269868656056 -2.4156817953359293 -2.4407991333725487 -2.3968299145466023 -2.3646404190015939 -2.4059464120843734 -2.448896182597788 -2.4048816066900915 -2.4198495142604197 -2.3915361809559483
leaf_count=631 2206 3254 2353 12532 3973 10206 723 2140 1550 2154 2938 1069 4045 7238 6326 1042 10941 3422 22457 1450 7223 25117 35211 11118 812 2861 937 771 1300 50743 4331 907 2019
internal_value=0 -0.206894 1.20193 0.513495 1.00096 -0.434541 0.735124 2.52239 -0.197075 2.2272 1.91358 2.355 0.667706 0.856371 0.50493 -0.0374031 0.0359035 0.72753 -0.0351291 1.7086 0.276193 -0.637084 -0.429374 0.906929 1.84467 0.161637 2.74418 4.21038 2.04668 -0.682261 1.10072 1.50641 1.76565
internal_count=246000 209874 36126 50395 26737 159479 26692 9434 73413 8032 7150 4944 19587 15542 21589 23658 36652 15263 33398 5103 11126 86066 36761 11841 5892 10084 3875 1402 3653 75860 11569 3738 2831
shrinkage=1


Tree=1
num_leaves=34
num_cat=0
split_feature=2 1 1 2 2 1 2 1 1 2 4 0 0 4 0 28 0 1 4 0 1 0 0 4 1 4 1 1 5 7 0 0 15
split_gain=4280.77 2455.12 1475.09 939.402 557.916 544.555 400.17 307.832 285.717 197.498 195.809 186.27 183.351 197.431 168.343 150.73 133.861 118.721 113.535 95.4968 94.3859 86.7455 83.088 110.707 74.3576 63.4842 62.4548 59.3921 58.4434 117.388 57.7322 57.6894 57.4523
threshold=0.31469441606860521 0.39225669582477246 0.37955076177026376 0.50558277949122454 0.50197671872363325 0.15357341543492894 0.13135864273369982 0.067116934322793712 0.61267765503399096 0.14599244001433329 -3080.4999999999995 0.30334865448472054 0.39443665535039601 -4958.4999999999991 0.480883439239991 1.0000000180025095e-35 0.50756444445474036 0.5844386476718838 -2635.4999999999995 0.41334967561215763 0.65357493229727426 0.24353098013199251 0.25674886276343528 -3017.4999999999995 0.11591585833890143 -720.49999999999989 0.57760892570205524 0.067116934322793712 16580.250000000004 450117.00000000006 0.23349631595547041 0.13225816406496946 8.5000000000000018
decision_type=8 8 8 10 10 10 10 10 10 10 10 10 10 10 10 2 10 10 10 8 10 8 10 10 10 10 10 10 10 10 8 8 8
left_child=2 3 7 5 8 10 20 -1 16 -9 -2 -12 13 -7 17 24 18 -8 -3 -6 -4 -10 23 -11 -5 -26 -21 -17 -25 -30 -19 -20 -15
right_child=1 4 6 15 19 12 14 9 21 22 11 -13 -14 32 -16 27 -18 30 31 26 -22 -23 -24 28 25 -27 -28 -29 29 -31 -32 -33 -34
leaf_value=0.076883914251475796 0.018065901534766903 -0.0030551121474025073 0.038657621151385053 0.025202997055282554 -0.0059338137650127923 0.0028424781043415405 0.019735437684571516 0.058700078815997668 0.0084568347070866218 0.02182181365735748 0.052590684281774228 0.017183501908427587 -0.00060614614809112682 0.017532452585423103 -0.0022561275289617573 0.011383879625444213 -0.0082707211337275707 0.026600082680319881 0.029424269942858593 -0.010517790200917714 0.016530184594654079 -0.0092346504366422159 0.022602114306317277 0.031811077455745781 0.00082399707513239426 0.018205458786417352 -0.015023227694174468 -0.0060168147862794032 0.068114743831614297 0.034547340481729791 0.0051352744688482714 0.0056612496733298356 0.028009736986706328
leaf_count=1402 2019 10897 3469 1116 10206 4100 7345 2360 1550 1254 3658 1001 4124 7397 5184 1130 7218 731 561 25117 1450 35211 2124 908 5036 1458 50743 14918 1264 961 7674 17976 4438
internal_value=0 -0.203532 1.15383 0.498702 -0.429014 0.964266 0.684093 2.30306 -0.193797 2.05045 1.85584 2.25845 0.661151 0.837386 0.461632 -0.0367084 0.0351484 0.648888 0.144904 -0.63113 1.61164 -0.423865 1.72182 2.00541 0.388533 0.237305 -0.676401 -0.238957 2.36707 2.68267 0.350935 0.319519 1.07433
internal_count=246000 209874 36126 50395 159479 26737 25853 10273 73413 8871 6678 4659 20059 15935 20934 23658 36652 15750 29434 86066 4919 36761 6511 4387 7610 6494 75860 16048 3133 2225 8405 18537 11835
shrinkage=0.02


Tree=2
num_leaves=34
num_cat=0
split_feature=2 1 1 2 2 1 2 1 1 0 3 0 4 2 0 28 0 1 0 4 4 0 0 0 1 4 1 28 12 1 4 4 1
split_gain=4044.67 2362.77 1320.74 881.55 547.352 490.144 367.76 277.339 264.599 172.891 187.334 171.578 154.612 151.776 149.028 143.743 131.366 114.005 111.188 118.31 109.498 94.2541 86.7816 84.4885 77.1094 70.1978 65.0113 63.0357 62.5989 62.0112 60.8792 57.8038 56.9633
threshold=0.31469441606860521 0.39225669582477246 0.37955076177026376 0.51099066457943965 0.50197671872363325 0.15357341543492894 0.14599244001433329 0.61586675938028768 0.12647936417158992 0.39443665535039601 -19862.499999999996 0.38641528686602122 -3080.4999999999995 0.18904239676560367 0.480883439239991 1.0000000180025095e-35 0.50473402660672073 0.64213627332628886 0.25674886276343528 -3110.4999999999995 -2058.4999999999995 0.41334967561215763 0.16962277210986146 0.24353098013199251 0.65630287307471191 -1315.4999999999998 0.20735283078720596 1.0000000180025095e-35 15.500000000000002 0.57760892570205524 -1677.4999999999998 -1710.4999999999998 0.067116934322793712
decision_type=8 8 8 10 10 10 10 10 10 10 2 10 10 10 10 2 10 8 10 10 10 8 8 8 10 10 10 2 8 10 10 10 10
left_child=2 3 8 5 7 11 17 16 13 10 -7 12 -2 -1 22 25 20 -4 19 -10 -3 -6 -8 -9 31 -5 -21 -14 -12 -23 -30 -24 -17
right_child=1 4 6 15 21 9 14 23 18 -11 28 -13 27 -15 -16 32 -18 -19 -20 26 -22 29 24 -25 -26 -27 -28 -29 30 -31 -32 -33 -34
leaf_value=0.080738738558649645 0.021115152910472418 -0.0022181092209076713 0.03561611987994992 0.001809276175951791 -0.0058445017583597996 0.001734797661264486 0.035027768804279984 0.0084393355503493677 0.025120837192650847 -0.0005545627251572618 0.010818854718334405 0.0090650401328938677 0.056752870648245989 0.046820300041683034 -0.002702918092059707 0.011071587174444767 -0.0081694626427207036 0.014643665432268343 0.024150114574873389 0.063973375525104917 0.0067092339690519301 -0.010399961602440179 0.0083394100844652458 -0.009224741374205727 0.0021160855045670988 0.01638606024033426 0.043247186824569815 0.038943109803101172 0.015786506120192501 -0.01491211245527827 0.027624612517040355 0.019369841082699672 -0.0061436272271711148
leaf_count=1184 1652 13323 4000 4616 10206 3745 795 1504 1451 4219 2806 1127 1861 1404 4934 1097 7463 2036 2465 1054 16629 25117 4838 34494 4071 2854 2715 2137 3705 50743 5921 5179 14655
internal_value=0 -0.200217 1.10878 0.4845 -0.423525 0.922311 0.662635 -0.190565 2.1715 0.63678 0.805045 1.7476 1.99574 3.13058 0.419753 -0.0453337 0.0298956 1.43449 1.83576 2.12663 0.13786 -0.625183 0.599648 -0.423236 0.532675 0.37174 2.45358 2.36313 1.01651 -0.670544 1.15492 0.702321 -0.245803
internal_count=246000 209874 36126 50395 159479 27173 25853 73413 10273 20396 16177 6777 5650 2588 19817 23222 37415 6036 7685 5220 29952 86066 14883 35998 14088 7470 3769 3998 12432 75860 9626 10017 15752
shrinkage=0.02


Tree=3
num_leaves=34
num_cat=0
split_feature=2 1 1 2 2 1 2 1 1 4 4 2 1 4 4 1 1 28 1 28 4 4 28 4 1 1 37 28 15 3 12 5 23
split_gain=3824.91 2274.19 1187.48 829.147 536.883 440.091 339.874 269.011 226.661 174.743 165.956 160.475 150.129 125.155 116 109.071 90.432 77.902 75.8322 74.2136 68.6815 63.8946 62.612 59.4443 51.0687 49.366 48.7936 48.5113 48.4799 44.9504 42.8334 41.7956 39.8268
threshold=0.31469441606860521 0.39225669582477246 0.37955076177026376 0.47674953178598795 0.50197671872363325 0.16303032205268178 0.13135864273369982 0.61586675938028768 0.067116934322793712 -2501.4999999999995 -2447.4999999999995 0.16000423555253143 0.65630287307471191 -2553.4999999999995 -1786.4999999999998 0.055922247415995309 0.57760892570205524 1.0000000180025095e-35 0.65357493229727426 1.0000000180025095e-35 -2923.4999999999995 -1710.4999999999998 1.0000000180025095e-35 -1786.4999999999998 0.20735283078720596 0.12647936417158992 0.97935000000000005 1.0000000180025095e-35 9.5000000000000018 -16488.499999999996 7.5000000000000009 21741.750000000004 1.5000000000000002
decision_type=8 8 8 10 10 10 10 10 10 10 10 10 10 10 10 10 10 2 10 2 10 10 2 10 10 10 10 2 8 2 8 10 2
left_child=2 3 8 5 7 9 18 14 -1 -2 25 24 21 -7 -3 -12 20 -17 -4 -11 -6 -8 -13 -9 -10 -5 30 -16 -15 -24 -23 -32 -25
right_child=1 4 6 10 16 13 12 23 11 19 15 22 -14 28 27 17 -18 -19 -20 -21 -22 26 29 32 -26 -27 -28 -29 -30 -31 31 -33 -34
leaf_value=0.065958323418367187 0.018283947874802125 -0.0034877500679782463 0.034975852924040381 0.0049095769475380495 -0.012923595162539948 0.0046787557194653221 0.0077775830678915763 -0.011009138191466608 0.062586651431830551 0.051719950409094918 0.031219332933980597 0.039633966549548184 -0.0007518756557412142 0.013288670237529237 0.0092227262983084358 0.011656205304370814 -0.014135307395981201 -0.00063446897490906386 0.015491281554168542 0.033607866445790315 -0.005703196561893227 0.0064434503329762654 0.014552323298505173 -0.01145711354712153 0.043142933467402014 -0.0074989667726611245 0.0085890067499217199 0.0015930688319993939 0.023083708897513561 0.030466365834006512 0.015916217670811958 0.030271655889781132 -0.002777880224148275
leaf_count=1402 2531 18894 3469 2027 13563 6763 7132 20321 1020 1951 825 2217 6326 6547 7459 4535 56715 6940 1450 2527 15788 854 1392 3873 1745 11414 2300 11062 4335 2497 1845 2477 11804
internal_value=0 -0.196947 1.06647 0.470847 -0.418075 0.935163 0.642114 -0.187378 2.05275 1.67513 0.00469284 1.83886 0.435822 0.625146 0.0292675 0.309704 -0.619245 0.215156 1.47279 2.08109 -0.451883 0.635306 1.51584 -0.417773 2.52264 -0.279922 0.867489 0.234358 0.861797 1.24292 1.06144 1.20706 -0.246064
internal_count=246000 209874 36126 50395 159479 24654 25853 73413 10273 7009 25741 8871 20934 17645 37415 12300 86066 11475 4919 4478 29351 14608 6106 35998 2765 13441 7476 18521 10882 3889 5176 4322 15677
shrinkage=0.02


Tree=4
num_leaves=34
num_cat=0
split_feature=2 1 1 2 2 1 2 1 1 4 0 4 4 0 0 2 1 0 1 0 4 4 0 0 1 28 3 0 5 7 1 1 0
split_gain=3620.07 2192.92 1071.81 829.934 486.625 432.909 314.8 227.931 198.435 171.901 165.918 158.567 155.353 139.124 117.392 113.105 110.12 107.226 94.7728 94.4836 97.0936 85.6093 85.5745 81.9632 78.7827 65.0717 62.869 66.5558 60.0864 108.424 53.4945 52.2929 49.7103
threshold=0.31469441606860521 0.41581199446021766 0.37955076177026376 0.47674953178598795 0.50197671872363325 0.16303032205268178 0.14599244001433329 0.61586675938028768 0.12647936417158992 -2447.4999999999995 0.41891107834101543 -4958.4999999999991 -2501.4999999999995 0.480883439239991 0.50756444445474036 0.18904239676560367 0.16949226532941183 0.30334865448472054 0.62921303595798539 0.25674886276343528 -3110.4999999999995 -2014.4999999999998 0.41334967561215763 0.24353098013199251 0.56501844608009744 1.0000000180025095e-35 -9878.4999999999982 0.21558278392976585 16152.750000000002 450117.00000000006 0.57760892570205524 0.12647936417158992 0.58923951445832945
decision_type=8 8 8 10 10 10 10 10 10 10 10 10 10 10 10 10 10 10 8 10 10 10 8 8 10 2 2 8 10 10 10 10 10
left_child=2 3 8 5 7 12 18 14 15 31 11 -7 -2 24 21 -1 -11 -14 -4 20 -10 -3 -6 -9 -8 -18 27 -13 -22 -30 -24 -5 -25
right_child=1 4 6 9 22 10 13 23 19 16 -12 26 17 -15 -16 -17 25 -19 -20 -21 28 -23 30 32 -26 -27 -28 -29 29 -31 -32 -33 -34
leaf_value=0.069325817180767052 0.01764651775731774 -0.002262521342454945 0.03305871138874842 0.0047915116147994683 -0.0059120503882798096 0.001990456847524085 0.017657199457341264 0.0083817782657493144 0.022880456527101276 0.016919888134911118 -0.0019934354594927672 0.040880047648128429 0.044711389361956969 -0.0027849119943087952 -0.0084776805886015421 0.041431644778047227 0.0086754768414310322 0.018160145461942827 0.014811246671702647 0.021848417052796405 0.029435228033726744 0.0058798194661198316 -0.01034094853504865 -0.0075593892199769166 0.0069945860054895642 -0.0031334018048915563 0.0083372133194940211 0.019552242570962362 0.060459101851667453 0.033158720649597309 -0.014694622149730264 -0.007865077833227133 -0.014554192836924057
leaf_count=1184 2531 12697 3743 2027 9807 3917 5996 1504 1451 3243 3868 811 3523 4934 6978 1404 4128 955 2293 2465 990 15309 23093 27355 8887 6268 2338 8943 1608 1171 50743 12697 7139
internal_value=0 -0.19372 1.02667 0.420519 -0.426311 0.862677 0.62248 -0.20263 1.94506 -0.0246942 0.583755 0.742113 1.59674 0.396755 0.00671583 2.73337 0.26849 1.9708 1.31817 1.65906 1.91728 0.111674 -0.621739 -0.412347 0.568153 0.0822626 0.940461 1.06695 2.20055 2.45577 -0.665937 -0.303824 -0.450358
internal_count=246000 209874 36126 55249 154625 26886 25853 70982 10273 28363 19877 16009 7009 19817 34984 2588 13639 4478 6036 7685 5220 28006 83643 35998 14883 10396 12092 9754 3769 2779 73836 14724 34494
shrinkage=0.02


Tree=5
num_leaves=34
num_cat=0
split_feature=2 1 1 2 2 1 2 1 2 4 0 4 4 0 1 0 0 1 1 0 4 0 0 1 4 24 28 5 7 3 0 1 1
split_gain=3428.75 2113.03 970.698 780.422 477.456 395.454 290.813 221.188 178.287 165.256 156.097 147.8 139.905 131.773 118.299 113.334 111.019 103.646 86.1606 84.4496 81.813 79.316 77.3144 77.086 68.0826 62.6627 62.116 58.1742 64.7621 57.9621 59.667 53.1009 50.6145
threshold=0.31469441606860521 0.41581199446021766 0.37955076177026376 0.47674953178598795 0.50197671872363325 0.16303032205268178 0.14599244001433329 0.61586675938028768 0.18142354377667624 -2447.4999999999995 0.41891107834101543 -4958.4999999999991 -3080.4999999999995 0.480883439239991 0.14427444638909184 0.50756444445474036 0.30334865448472054 0.16949226532941183 0.65221211347216157 0.41334967561215763 -2014.4999999999998 0.24353098013199251 0.19642074167536139 0.067116934322793712 -1495.4999999999998 0.032050000000000002 1.0000000180025095e-35 16580.250000000004 450117.00000000006 -9878.4999999999982 0.21558278392976585 0.57760892570205524 0.12647936417158992
decision_type=8 8 8 10 10 10 10 10 10 10 10 10 10 10 10 10 10 10 10 8 10 8 8 10 10 10 2 10 10 2 8 10 10
left_child=2 3 8 5 7 12 18 15 14 32 11 -7 -2 22 -1 20 -14 -11 -4 -6 -3 -9 -8 -10 -24 -26 -19 -25 -29 30 -13 -21 -5
right_child=1 4 6 9 19 10 13 21 23 17 -12 29 16 -15 -16 -17 -18 26 -20 31 -22 -23 24 27 25 -27 -28 28 -30 -31 -32 -33 -34
leaf_value=0.063445744311740992 0.015409076389532445 -0.0022215356990028913 0.030497162694806783 0.0046767682535253036 -0.0058230777875982907 0.0019473795809436391 0.029190171558646574 0.0081564009969054205 0.048657087338733654 0.016348018659383644 -0.0019568744140343675 0.038724383850934296 0.041828444922252669 -0.0027356688810481499 0.039532272190295779 -0.0083682787453470703 0.016155595729299931 0.0084401355097966473 0.012092736351542762 -0.010224030222597043 0.0057337100920686526 -0.0088951807133575613 0.0049511417377313535 0.015234328352633185 0.020993407106627355 0.0063639491093878866 -0.0030789201450611365 0.039895883005690899 0.022214288788225591 0.0081139249686821343 0.018850933260715977 -0.014583218591370253 -0.0077595509225723636
leaf_count=1272 2193 12697 4226 2027 9807 3917 1072 1504 771 3243 3868 811 3773 4934 2794 6978 1043 4128 1810 23093 15309 34494 7581 1556 3695 2535 6268 1886 1994 2338 8943 50743 12697
internal_value=0 -0.190543 0.989156 0.409148 -0.420857 0.833325 0.603681 -0.199283 1.84684 -0.0242411 0.566467 0.718262 1.52434 0.386216 2.37844 0.00656687 1.83539 0.261907 1.26396 -0.615826 0.109227 -0.406961 0.551502 1.47759 0.47785 0.754042 0.0804912 1.32667 1.54917 0.907268 1.02714 -0.660104 -0.299299
internal_count=246000 209874 36126 55249 154625 26886 25853 70982 10273 28363 19877 16009 7009 19817 4066 34984 4816 13639 6036 83643 28006 35998 14883 6207 13811 6230 10396 5436 3880 12092 9754 73836 14724
shrinkage=0.02


Tree=6
num_leaves=34
num_cat=0
split_feature=2 1 1 2 2 1 2 1 2 0 4 4 1 0 0 0 1 28 0 1 0 1 0 1 4 4 0 5 3 0 38 7 1
split_gain=3249.81 2036.2 895.232 736.437 468.366 385.455 235.086 214.613 201.213 192.78 189.948 138.896 135.104 111.083 109.413 89.554 89.451 84.5888 83.3225 82.538 80.0646 77.0746 76.7549 66.7262 60.4232 59.8918 58.3608 57.6867 55.9356 55.1889 54.6843 52.9873 52.7004
threshold=0.31469441606860521 0.41581199446021766 0.46364841092929931 0.50558277949122454 0.50197671872363325 0.10569257417126003 0.16000423555253143 0.61586675938028768 0.13135864273369982 0.38641528686602122 -2553.4999999999995 -2447.4999999999995 0.25698123022958369 0.480883439239991 0.50756444445474036 0.40524578806427486 0.14427444638909184 1.0000000180025095e-35 0.41334967561215763 0.17458000079909905 0.26940257270706275 0.27008935040086168 0.24353098013199251 0.6603509539019784 -2447.4999999999995 -3110.4999999999995 0.20453559219452891 16152.750000000002 -18739.499999999996 0.39697523633061388 0.068750000000000019 464791.50000000006 0.57760892570205524
decision_type=8 8 8 10 10 10 10 10 10 10 10 10 10 10 10 10 10 2 8 10 8 10 8 10 10 10 10 10 2 10 10 10 10
left_child=2 3 6 5 7 17 16 14 29 10 28 -5 25 23 20 19 -1 -2 -6 27 -3 -12 -9 -10 -22 -8 -27 -13 -7 -4 -19 -29 -20
right_child=1 4 8 11 18 9 12 22 13 -11 21 15 -14 -15 -16 -17 -18 30 32 -21 24 -23 -24 -25 -26 26 -28 31 -30 -31 -32 -33 -34
leaf_value=0.060098866981186369 0.045245347227826554 0.013171933752979882 0.028317504527660371 -0.0064429529849842418 -0.0057350365891251131 0.00038605999792754768 0.021240712855702171 0.0079386733367500933 0.012987418083341723 -0.00072734533980039128 0.026211818527524314 0.00047307730510657176 0.018894369943942151 -0.0035057360283797228 -0.0082596062913549585 -0.0070768387175654621 0.03885348774501312 0.030474545300504394 -0.010107577058425155 0.0036039979765954966 -0.0035190820788765054 0.015045593904970893 -0.0087837961684759432 0.0020387010715375927 0.0037901379057660757 0.046612415000781553 0.026712041234458469 0.037066333488576818 0.013058740209468763 0.011009100070195182 0.005265069810926214 0.012500162704732053 -0.014471714350987911
leaf_count=1046 1675 3049 2947 13713 9807 4326 1052 1504 9145 5213 5487 640 5646 4592 6978 2872 3310 2336 23093 7026 10570 6601 34494 4239 14387 1912 997 946 3072 1240 491 851 50743
internal_value=0 -0.18741 0.953731 0.398185 -0.41544 0.77316 1.60455 -0.19598 0.492673 0.591362 0.748155 -0.0613591 1.29837 0.320609 0.00642152 0.216018 2.22611 1.67452 -0.609922 0.384923 0.106839 1.01171 -0.401611 0.481776 0.0375893 1.75997 1.99985 0.947099 0.288049 1.16251 1.30842 1.27364 -0.654274
internal_count=246000 209874 36126 55249 154625 29201 13963 70982 22163 24699 19486 26048 9607 17976 34984 12335 4356 4502 83643 9463 28006 12088 35998 13384 24957 3961 2909 2437 7398 4187 2827 1797 73836
shrinkage=0.02


Tree=7
num_leaves=34
num_cat=0
split_feature=1 1 1 4 4 4 4 1 28 28 12 1 3 1 7 5 7 6 5 7 12 3 28 19 23 24 1 12 15 28 6 7 12
split_gain=3061.82 750.382 569.32 437.599 392.048 225.235 148.42 129.481 104.393 85.8024 83.7931 81.7866 80.7044 61.1228 58.8141 61.226 57.8556 112.858 53.0047 63.5586 51.9658 56.1804 44.1001 43.5029 42.8506 40.7605 39.8563 39.0994 38.567 38.3027 37.7879 97.3454 37.2454
threshold=0.39225669582477246 0.12647936417158992 0.61586675938028768 -2422.4999999999995 -2326.4999999999995 -3017.4999999999995 -1677.4999999999998 0.26615016614222048 1.0000000180025095e-35 1.0000000180025095e-35 21.500000000000004 0.067116934322793712 -15443.499999999998 0.7056046157460566 459074.25000000006 14577.750000000002 450117.00000000006 381789.00000000006 15180.750000000002 675191.25000000012 12.500000000000002 -16970.499999999996 1.0000000180025095e-35 0.057450000000000008 2.5000000000000004 0.032050000000000002 0.6577171538435993 78.000000000000014 4.5000000000000009 1.0000000180025095e-35 276295.50000000006 450117.00000000006 78.000000000000014
decision_type=8 10 10 10 10 10 10 10 2 2 8 10 2 10 8 10 10 2 10 10 8 2 2 10 2 10 10 8 8 2 2 8 8
left_child=1 5 4 12 29 -1 26 9 10 18 -6 24 22 23 15 -13 17 -9 -5 27 -10 -22 -3 -8 -7 -12 -4 -20 -17 32 -23 -32 -2
right_child=2 3 6 7 8 11 13 16 20 -11 25 14 -14 -15 -16 28 -18 -19 19 -21 21 30 -24 -25 -26 -27 -28 -29 -30 -31 31 -33 -34
leaf_value=0.014542166966867293 -0.0060941375702108155 0.0059138268543051219 -0.0084690978647103728 0.013739909035941725 0.0028832698352326954 0.036431684557594192 -0.00080500370304600443 0.0091544476089185194 -0.0063789451134803081 0.015476396854021381 0.016195858285179342 0.017560125646279786 0.008840367412453953 -0.0097326434127480363 0.014943010733275738 0.033454792630639094 0.005261911083257095 0.026007790355468505 0.027345666499164333 0.014679530940841477 -0.0042108458007156608 -0.00074218499327359164 -0.0031118440588194613 -0.0077021691420681871 0.050819923354254622 0.0064422969465813187 -0.012824279118399774 0.042835412095607248 0.054733031669834759 -0.0075308037734957223 0.01379903045559387 0.00081321903253933983 0.0023469176459273359
leaf_count=3858 6898 3721 16931 1093 9685 2681 15367 6548 4637 7188 5949 795 5896 11973 1164 1270 5848 2767 1472 906 5885 5949 12482 7732 1335 3676 41430 1612 526 31093 5329 7351 4953
internal_value=0 0.670779 -0.250854 0.470885 -0.0461061 1.4297 -0.46022 0.759582 0.177232 1.02292 0.38429 1.74083 0.083767 -0.267758 1.38176 1.65763 0.54017 0.711009 1.36158 1.54419 0.0379542 0.105237 -0.0508897 -0.155481 2.06098 0.624102 -0.577708 1.7759 1.99343 -0.30752 0.20292 0.316075 -0.127939
internal_count=246000 61162 184838 49533 91405 11629 93433 27434 48461 12271 19310 7771 22099 35072 3755 2591 15163 9315 5083 3990 29151 24514 16203 23099 4016 9625 58361 3084 1796 42944 18629 12680 11851
shrinkage=0.02


Tree=8
num_leaves=34
num_cat=0
split_feature=2 1 1 2 2 1 2 1 2 0 28 3 1 4 0 0 0 0 0 3 0 1 1 0 0 4 1 12 1 0 28 1 0
split_gain=3055.82 1881.38 769.218 679.922 459.14 323.712 204.856 201.661 187.202 139.764 129.996 124.761 124.259 117.654 105.081 95.5667 91.1737 84.9934 81.71 81.203 64.6058 58.6797 58.5189 55.9791 54.9457 58.5862 53.8975 53.7057 53.0141 52.526 51.297 51.2018 50.0973
threshold=0.31469441606860521 0.41581199446021766 0.46364841092929931 0.51099066457943965 0.50197671872363325 0.16949226532941183 0.14599244001433329 0.6034221916719561 0.13135864273369982 0.41891107834101543 1.0000000180025095e-35 -19862.499999999996 0.20735283078720596 -2501.4999999999995 0.480883439239991 0.31267230011375657 0.2786640445526149 0.30334865448472054 0.41334967561215763 -16970.499999999996 0.23349631595547041 0.13570599373060946 0.65902053965580232 0.24034696687071114 0.50756444445474036 -1786.4999999999998 0.14427444638909184 15.500000000000002 0.24191230965953112 0.54156727653967807 1.0000000180025095e-35 0.57760892570205524 0.39697523633061388
decision_type=8 8 8 10 10 10 10 8 10 10 2 2 10 10 10 10 8 10 8 2 8 10 10 10 10 10 10 8 10 10 2 10 10
left_child=2 3 6 5 7 13 26 15 32 11 21 -7 23 -2 20 19 -9 -15 -6 -3 -10 -5 -22 -8 25 -18 -1 -13 -12 -14 -29 -20 -4
right_child=1 4 8 10 18 9 12 16 14 -11 28 27 29 17 -16 -17 24 -19 31 -21 22 -23 -24 -25 -26 -27 -28 30 -30 -31 -32 -33 -34
leaf_value=0.055048174515010519 0.014398568789518796 -0.0023275842829983931 0.027248028949297121 0.019313581150610073 -0.0055994108882092058 0.00065528920185741488 0.040641729416415424 0.0064640536286899516 0.024016575455309597 -0.0022565415742714797 -0.00026727281136420459 0.0073541896983596875 0.02198987997529794 0.035461773314012325 -0.0033422417904886911 -0.0052551719962524134 -0.0096833654941583629 0.014160532863350998 -0.0099631720785809692 0.0069431377072326304 0.01117230397853841 0.0030955940330082733 0.00046793122176377866 0.022102636200562503 -0.01322935688429947 -0.0025683424171195667 0.03789220264920673 0.024058613236373531 -0.0086238354909955166 0.0046590734769533246 0.013968020004355651 -0.014294056855788446 0.010833127064366564
leaf_count=921 3011 8414 2947 1325 9807 3786 2267 2354 1329 4293 6829 3113 5983 4015 4592 10607 15489 1096 23093 12744 8068 6946 3987 994 9924 11450 2796 3944 10456 1002 6435 50743 1240
internal_value=0 -0.183863 0.914933 0.372385 -0.406529 0.72077 1.5037 -0.188886 0.484662 0.483263 -0.0770595 0.619935 1.24998 1.27818 0.317902 0.0256893 -0.372467 1.56707 -0.60103 0.166083 0.473516 0.292545 0.389095 1.75875 -0.419971 -0.331755 2.13447 0.772254 -0.262575 0.9824 0.892282 -0.6455 1.12473
internal_count=246000 209874 36126 55249 154625 29693 13963 70982 22163 21571 25556 17278 10246 8122 17976 31765 39217 5111 83643 21158 13384 8271 12055 3261 36863 26939 3717 13492 17285 6985 10379 73836 4187
shrinkage=0.02


Tree=9
num_leaves=34
num_cat=0
split_feature=2 1 1 2 2 1 1 2 2 4 0 4 0 0 1 0 3 0 0 0 0 1 1 4 1 0 4 1 3 0 0 4 1
split_gain=2900.33 1813.62 705.633 643.105 450.137 287.353 196.049 184.423 174.215 142.808 129.291 116.844 105.498 102.097 101.66 99.8726 90.526 88.9903 80.7233 73.5886 72.3101 68.1606 61.4791 61.0177 59.999 59.9573 57.9442 55.2967 53.3558 50.4318 49.4216 50.4601 49.3821
threshold=0.31469441606860521 0.41581199446021766 0.46364841092929931 0.47674953178598795 0.50197671872363325 0.16303032205268178 0.61586675938028768 0.16000423555253143 0.13135864273369982 -2350.4999999999995 0.41891107834101543 -4958.4999999999991 0.38641528686602122 0.50756444445474036 0.25698123022958369 0.480883439239991 -19196.499999999996 0.40524578806427486 0.30036998985947166 0.13863499591963577 0.24353098013199251 0.17458000079909905 0.62777829712439703 -2474.4999999999995 0.12647936417158992 0.23349631595547041 -3080.4999999999995 0.65902053965580232 -9878.4999999999982 0.21558278392976585 0.58923951445832945 -1786.4999999999998 0.24729412234483938
decision_type=8 8 8 10 10 10 10 10 10 10 10 10 10 10 10 10 2 10 8 8 8 10 10 10 10 8 10 10 2 8 10 10 10
left_child=2 3 7 5 6 12 13 24 -4 32 11 -7 16 19 -9 25 -2 21 -6 -3 -8 -11 26 -21 -1 -10 -20 -27 29 -13 31 -22 -5
right_child=1 4 8 9 18 10 20 14 15 17 -12 28 -14 -15 -16 -17 -18 -19 22 23 30 -23 -24 -25 -26 27 -28 -29 -30 -31 -32 -33 -34
leaf_value=0.052262250765455452 0.013908427502403224 0.025095864564499252 0.021644768536564066 -0.00067252512244929754 -0.0025413417990382404 0.0017427674954910454 0.0077359595097477385 0.031123063810656559 0.02307516454135854 0.017291124489249857 -0.0019930220847038495 0.034370614765798446 0.0067348316293418184 -0.0080389789248052745 0.017359400954767071 -0.0032847130724593825 0.033543630573016223 -0.0063756287154692597 -0.01349425666160149 -0.002897716982389963 -0.0098654066197568398 0.0042195498954248302 -0.014633367674735494 0.0041907743873025663 0.035081285868618167 0.010847586770386634 -0.0075361210656029586 0.00045839449978782337 0.0066139846635641479 0.016722699179397057 -0.014122440300327865 -0.0032910368512302744 -0.0093040760157082191
leaf_count=933 1393 681 4187 6190 4891 3917 1504 3961 1329 2651 3868 811 1160 6978 5646 4592 4456 3035 18096 10892 15505 7569 40421 16433 3423 8068 20235 3987 2338 8943 7139 11850 8918
internal_value=0 -0.180825 0.883483 0.362677 -0.401214 0.734496 -0.185729 1.43895 0.471151 -0.0332648 0.506635 0.639786 1.29456 0.0067568 1.17221 0.309877 1.46386 0.234878 -0.59515 0.102948 -0.385321 0.391794 -0.625588 0.0725339 1.96652 0.46039 -0.516541 0.37884 0.800876 0.91269 -0.422704 -0.349613 -0.285038
internal_count=246000 209874 36126 55249 154625 26886 70982 13963 22163 28363 19877 16009 7009 34984 9607 17976 5849 13255 83643 28006 35998 10220 78752 27325 4356 13384 38331 12055 12092 9754 34494 27355 15108
shrinkage=0.02


Tree=10
num_leaves=34
num_cat=0
split_feature=2 1 2 1 2 0 1 1 4 1 0 4 0 0 2 1 28 1 1 0 4 1 4 3 38 4 0 5 0 4 0 7 0
split_gain=2784.43 1775.08 716.287 600.227 410.805 227.703 224.998 175.735 175.373 135.711 130.688 126.586 119.701 102.941 98.3192 89.0179 85.2515 80.4131 76.0558 65.9946 69.9308 65.5915 62.4891 61.8435 59.3837 58.5747 58.1527 56.741 54.4927 50.9743 50.7003 49.3084 47.3447
threshold=0.43384745792380691 0.37955076177026376 0.26294789218207787 0.44150996754524713 0.24385143621834365 0.2786640445526149 0.10569257417126003 0.6034221916719561 -2326.4999999999995 0.63351873857679208 0.38641528686602122 -4958.4999999999991 0.40524578806427486 0.30036998985947166 0.14599244001433329 0.17458000079909905 1.0000000180025095e-35 0.20735283078720596 0.62921303595798539 0.4622911707825319 -1495.4999999999998 0.12647936417158992 -3080.4999999999995 -9878.4999999999982 0.076150000000000009 -2635.4999999999995 0.53098092604590152 15180.750000000002 0.26940257270706275 -1661.4999999999998 0.19184421543527336 675191.25000000012 0.2600927818917434
decision_type=10 8 8 10 8 8 10 8 10 10 10 10 10 8 10 8 2 10 10 10 10 8 10 2 10 10 10 10 8 10 10 8 8
left_child=1 4 9 8 17 -4 16 19 21 14 11 -8 15 -5 -3 27 -6 30 22 20 -7 -2 -15 31 25 -18 29 -10 -11 -9 -1 -13 -19
right_child=3 2 5 13 6 7 10 26 12 28 -12 23 -14 18 -16 -17 24 32 -20 -21 -22 -23 -24 -25 -26 -27 -28 -29 -30 -31 -32 -33 -34
leaf_value=0.047070009435668969 0.006232768957743412 0.026834912926273154 0.012214836276911721 -0.0015531398464149263 0.040654793742377515 -0.00080678335569767221 0.0047241210366548818 -0.008214168002164431 0.0014446971277477095 0.02623900694978715 0.001843135711473273 0.024139096258457129 -0.006062564226925673 -0.012690920090858751 0.013596761270537452 0.0050665785747753649 0.012025000628106013 0.046419704408737446 -0.01399692407915118 -0.0054175453447613889 0.0074995628549310864 -0.0066775140721308723 -0.0068269976789165831 0.0099939763235435061 -0.00010820344389622668 0.033826735363712314 -0.012771456733381283 0.023532441339467972 0.0039216508501719628 -0.001219874982950526 0.030255956632871103 0.011525622613883261 0.024861030227156303
leaf_count=2055 2329 3829 5356 5841 1672 12281 3874 14211 712 582 4037 7687 3882 19730 7575 9903 839 476 46637 7009 9288 16255 23021 2501 425 1458 7928 2355 6303 10131 1009 1727 3082
internal_value=0 0.38969 0.0967246 -0.392214 1.0543 -0.0912999 0.837179 -0.158575 0.00795707 0.698743 0.671922 0.80597 0.267844 -0.55703 0.922601 0.427541 1.48192 1.73302 -0.590361 0.0461666 0.143159 -0.24625 -0.474952 0.968678 1.12153 1.32347 -0.353642 0.926064 0.295933 -0.262963 2.08426 1.09301 1.3927
internal_count=246000 115335 84493 130665 30842 66204 24220 60848 35436 18289 19826 15789 16852 95229 11404 12970 4394 6622 89388 28578 21569 18584 42751 11915 2722 2297 32270 3067 6885 24342 3064 9414 3558
shrinkage=0.02


Tree=11
num_leaves=34
num_cat=0
split_feature=2 1 2 1 2 1 4 0 1 0 4 1 0 1 0 1 4 2 1 28 0 3 38 1 4 5 0 24 7 0 4 0 12
split_gain=2674.81 1664.27 665.814 586.143 387.638 228.733 196.375 194.508 142.422 137.514 138.74 122.162 121.657 100.568 99.2702 95.8842 82.2883 80.2413 77.5603 76.2222 75.4979 65.1127 54.8935 53.4901 53.1877 52.596 50.7917 49.9217 49.0002 44.5413 44.2308 44.0641 41.7516
threshold=0.43384745792380691 0.41207467746962817 0.26294789218207787 0.49196897120705113 0.24385143621834365 0.10569257417126003 -2326.4999999999995 0.2786640445526149 0.68329807106807494 0.38641528686602122 -4958.4999999999991 0.63351873857679208 0.40524578806427486 0.17458000079909905 0.46503342567206846 0.20735283078720596 -1786.4999999999998 0.14599244001433329 0.24729412234483938 1.0000000180025095e-35 0.30036998985947166 -9878.4999999999982 0.076150000000000009 0.62921303595798539 -2635.4999999999995 15180.750000000002 0.26940257270706275 0.029950000000000001 450117.00000000006 0.19184421543527336 -2447.4999999999995 0.2600927818917434 18.500000000000004
decision_type=10 8 8 10 8 10 10 8 10 10 10 10 10 8 10 10 10 10 10 2 8 2 10 10 10 10 8 10 8 10 10 8 8
left_child=1 4 11 6 15 19 18 -4 14 10 -7 17 13 25 16 29 -9 -3 -2 32 -5 28 24 30 -21 -8 -13 -18 -12 -1 -22 -17 -6
right_child=3 2 7 20 5 9 12 8 -10 -11 21 26 -14 -15 -16 31 27 -19 -20 22 23 -23 -24 -25 -26 -27 -28 -29 -30 -31 -32 -33 -34
leaf_value=0.044532889007973697 0.00059199887416150625 0.025589348789146267 0.011092074561753054 -0.002747855103518616 0.02441609620405372 0.0037391420418417648 0.0014141656395861744 -0.0030416164765632954 -0.0099656575073421658 0.0015039729799211363 0.02402417932376542 0.025165775222940858 -0.0060595749968905153 0.0040546938440332867 -0.0076493536941801693 0.041202080458293412 0.0077159244750684298 0.013208159292462426 -0.0087644673453093364 0.011670879373132324 -0.012432082795357978 0.0090675799081543339 -0.00010605271819690267 -0.013884417455951354 0.032291300566523212 0.022625925328559008 0.0038306320578904208 -0.00085828315607440703 0.014807308922342242 0.028977600716827309 -0.0069692976100848222 0.022724807007618468 0.045366331192097924
leaf_count=2055 7006 3536 5005 5122 540 4362 712 16798 15227 4793 6651 582 5036 12711 11082 597 9309 6922 15946 839 18997 2830 425 46637 1458 2355 6303 5835 4247 1009 16143 3798 1132
internal_value=0 0.379475 0.0710681 -0.387015 0.967799 0.768777 -0.0455843 -0.115412 -0.178822 0.621275 0.750789 0.664337 0.203707 0.354011 -0.0722108 1.58554 0.0298045 0.890375 -0.289387 1.41914 -0.576942 0.907387 1.0799 -0.606536 1.27041 0.893962 0.288576 0.221511 1.02416 1.97961 -0.494235 1.26783 1.93061
internal_count=246000 115335 80599 130665 34736 27277 43766 63256 58251 22883 18090 17343 20814 15778 43024 7459 31942 10458 22952 4394 86899 13728 2722 81777 2297 3067 6885 15144 10898 3064 35140 4395 1672
shrinkage=0.02


Tree=12
num_leaves=34
num_cat=0
split_feature=2 1 1 2 2 1 4 0 0 0 1 4 1 0 1 0 0 4 2 0 1 4 0 2 5 7 1 2 5 2 24 0 7
split_gain=2569.81 1567.19 572.802 529.081 449.886 255.277 189.307 154.807 144.101 121.522 119.519 116.795 107.105 102.049 93.9768 92.6067 85.0091 77.6062 74.7538 74.1916 66.42 60.2395 58.3236 53.5776 52.5832 55.6031 51.1879 49.7673 46.8615 41.7734 40.9393 39.3755 38.6851
threshold=0.43384745792380691 0.4605121656504183 0.49196897120705113 0.26294789218207787 0.24385143621834365 0.15968216777734864 -3017.4999999999995 0.2786640445526149 0.41054559521161782 0.41891107834101543 0.68329807106807494 -4958.4999999999991 0.18304449445498996 0.44590541217199814 0.20735283078720596 0.30334865448472054 0.50756444445474036 -2447.4999999999995 0.13135864273369982 0.30036998985947166 0.24729412234483938 -1786.4999999999998 0.20067345677976142 0.55939547785893762 12795.750000000002 450117.00000000006 0.66599751363704895 0.63554085103118196 15180.750000000002 0.12334537001096685 0.029950000000000001 0.19184421543527336 459074.25000000006
decision_type=10 8 10 8 8 10 10 8 10 10 10 10 8 10 10 10 10 10 10 8 8 10 8 10 10 10 10 10 10 10 10 10 8
left_child=1 4 6 13 14 15 20 -5 12 11 16 -7 28 18 31 17 21 -6 -3 -4 -2 -9 -16 -21 -13 -26 -20 -14 -8 -24 -23 -1 -19
right_child=2 3 19 7 5 9 8 10 -10 -11 -12 24 27 -15 22 -17 -18 32 26 23 -22 30 29 -25 25 -27 -28 -29 -30 -31 -32 -33 -34
leaf_value=0.042232418534298252 -3.4687083775288527e-05 0.023410059184332525 -0.0026992295378699157 0.0097806606121757077 0.0162448509533605 0.0022714205582370075 0.002205389323651 -0.0032856177413757865 -0.0070238132852969625 -0.00023859385825280771 -0.0098504855460896986 0.006316690990538415 0.0067572843284181977 0.0021988051039471806 0.044932447345392 0.0093596028195085199 -0.0084658742281825492 0.036342386907731408 0.014688668321989198 -0.0089757107471979611 -0.0094959686885852899 0.0065180077549361146 0.030960149211313816 -0.013325820312401966 0.020558850709821486 0.011624516347981487 0.0023687678210517794 -0.0019237142722495293 0.02036388645565082 0.018568840458300689 -0.0015485631281552093 0.027785446348547335 0.022023486636897606
leaf_count=2055 5869 3138 5122 4440 1853 4823 876 15570 5840 5041 15227 2727 8716 4283 493 1528 8903 2614 5891 24139 13633 8486 1530 57638 7329 5735 2434 5945 2887 3760 5497 1009 969
internal_value=0 0.369609 -0.381855 0.0295692 0.869131 0.671723 -0.0447375 -0.144276 0.163953 0.499569 -0.202774 0.611264 0.314965 0.583928 1.47922 1.19716 -0.0949175 1.37973 0.748295 -0.571088 -0.325722 -0.0020318 1.22413 -0.60069 0.745757 0.834903 0.566004 0.165643 0.815952 1.12177 0.168829 1.8839 1.6259
internal_count=246000 115335 130665 73869 41466 32619 43766 58123 24264 25655 53683 20614 18424 15746 8847 6964 38456 5436 11463 86899 19502 29553 5783 81777 15791 13064 8325 14661 3763 5290 13983 3064 3583
shrinkage=0.02


Tree=13
num_leaves=34
num_cat=0
split_feature=1 4 1 0 1 0 4 0 0 1 0 0 0 12 7 6 5 4 5 7 6 5 7 6 0 0 3 5 1 3 5 28 7
split_gain=2367.23 621.318 465.746 393.301 288.911 257.294 194.175 138.936 135.002 118.515 96.3933 85.3213 85.2062 79.7381 73.4469 167.497 84.1346 71.2497 69.4496 116.335 71.2198 53.0626 159.908 51.2463 49.2382 45.5139 44.4426 37.3534 33.7684 33.4685 32.4592 31.6697 38.3289
threshold=0.4605121656504183 -3017.4999999999995 0.16949226532941183 0.27549291350726196 0.65501430339515176 0.38641528686602122 -2447.4999999999995 0.39443665535039601 0.4433286644778322 0.12647936417158992 0.19184421543527336 0.25014099012553276 0.15037451166211113 11.500000000000002 450117.00000000006 518922.00000000006 15018.750000000002 -1645.4999999999998 14793.750000000002 450117.00000000006 497634.75000000006 21026.250000000004 450117.00000000006 284323.50000000006 0.45683888757888474 0.70127521764369705 -10130.499999999998 13502.250000000002 0.077406759416462037 -10284.499999999998 26772.750000000004 1.0000000180025095e-35 607551.75000000012
decision_type=8 10 10 8 10 10 10 10 10 10 8 8 10 8 10 2 10 10 10 8 2 10 10 2 10 10 2 10 10 2 10 2 10
left_child=1 9 7 12 6 10 25 18 13 -1 26 -11 27 -8 15 16 -12 -6 -3 20 29 -15 -23 -13 -19 -5 -4 -2 -21 -20 -22 32 -25
right_child=3 2 5 4 17 -7 8 -9 -10 11 14 23 -14 21 -16 -17 -18 24 19 28 30 22 -24 31 -26 -27 -28 -29 -30 -31 -32 -33 -34
leaf_value=0.011987216329586211 0.0019190274738898234 0.01791587261814338 0.033389389341656577 -0.006592068145625617 -0.012462354855476752 -0.00081041399771236342 -0.0048663772951648412 0.0082392095142581369 -0.0069085650969276406 0.025497587237887642 0.0059764112910843338 -0.0065670447858483397 0.0041790469748968035 -0.00018819380345920037 0.0070613008958934796 0.033728751963615536 0.016488528378179049 -0.0045241548548065908 0.037161422495591519 0.028982716395474718 0.037964802962326474 0.016805927348685402 0.0010871410948832356 0.012230684684513313 -0.012203328569440232 -0.014084340026416606 0.016023920835124418 0.023557915650614842 0.015504430414632576 0.024015030681348512 0.061530764790821778 -0.0011862448770742237 -0.0011630133845320211
leaf_count=3858 493 2188 1374 39098 41839 9051 7318 1945 13807 588 6281 7552 8217 10464 10228 1831 8328 14883 2240 1199 370 5294 10086 2346 7505 5512 1256 1949 1845 1073 544 13285 2153
internal_value=0 0.475828 0.697795 -0.273806 -0.325142 0.500251 -0.19208 1.24096 -0.0279829 0.0530665 0.649674 -0.0420878 0.387907 0.0966162 0.585844 0.725781 0.601952 -0.527252 1.38585 1.53012 1.8526 0.192336 0.329862 -0.0754795 -0.352822 -0.374735 1.25594 0.959679 1.05504 1.64175 2.60314 0.0315529 0.2936
internal_count=246000 79535 49753 166465 155806 38349 91579 11404 46969 29782 29298 25924 10659 33162 26668 16440 14609 64227 9459 7271 4227 25844 15380 25336 22388 44610 2630 2442 3044 3313 914 17784 4499
shrinkage=0.02


Tree=14
num_leaves=34
num_cat=0
split_feature=1 4 1 0 1 0 4 0 0 1 0 0 0 12 4 7 5 1 12 5 7 0 0 5 7 28 5 32 3 12 3 19 5
split_gain=2266.39 585.166 431.19 379.108 282.535 242.663 188.387 130.266 127.451 112.704 90.5365 80.3901 79.7346 76.5173 70.2401 68.2398 159.2 65.3753 55.3892 50.5136 150.427 48.2753 44.7944 42.6577 84.87 42.2787 34.5681 32.9306 37.9347 30.1734 29.8108 28.8832 31.8184
threshold=0.4605121656504183 -3017.4999999999995 0.16949226532941183 0.27549291350726196 0.65501430339515176 0.38641528686602122 -2447.4999999999995 0.4433286644778322 0.39443665535039601 0.12647936417158992 0.13225816406496946 0.25014099012553276 0.15037451166211113 11.500000000000002 -1645.4999999999998 450117.00000000006 16877.250000000004 0.077406759416462037 15.500000000000002 21026.250000000004 450117.00000000006 0.45683888757888474 0.70127521764369705 15333.750000000002 459074.25000000006 1.0000000180025095e-35 13502.250000000002 1.0000000180025095e-35 -9929.4999999999982 10.500000000000002 -10181.499999999998 0.13105000000000003 25017.750000000004
decision_type=8 10 10 8 10 10 10 10 10 10 8 8 10 8 10 10 10 10 8 10 10 10 10 10 10 2 10 2 2 8 2 10 10
left_child=1 9 8 12 6 10 22 13 17 -1 30 -11 26 -8 -6 16 -12 27 -18 -15 -21 -16 -5 -19 29 -13 -2 28 -3 -25 -4 32 -14
right_child=3 2 5 4 14 -7 7 -9 -10 11 15 25 31 19 21 -17 18 23 -20 20 -22 -23 -24 24 -26 -27 -28 -29 -30 -31 -32 -33 -34
leaf_value=0.01163459442791019 0.0018777398840501866 0.033445054898798725 0.042546760847920646 -0.0064968913318926126 -0.012345841186725421 -0.00079474802879810958 -0.0047887482165243694 -0.0068106077836464756 0.0080212014785488086 0.024470696895587386 0.0074089072804027437 0.0036921703193549178 0.0010605119839332971 -0.00018445959184123205 -0.0044509793667571506 0.0074165481264738889 0.011204970416893197 0.012252631430346179 0.023296556031801141 0.016238880992481872 0.0010644196506179892 -0.012086298026648901 -0.013971764446608715 0.016110138661600267 0.014041895036596195 -0.0032106167778916039 0.022642572399722942 0.045306066970755843 0.018122175172926001 0.03518563397869548 0.020663207830739518 -0.0077002411531137569 0.010579719213424628
leaf_count=3858 493 2640 511 39098 41839 9051 7318 13807 1945 588 8281 6210 3775 10464 14883 10641 2279 1358 7021 5294 10086 7505 5512 370 1698 19126 1949 591 731 2071 565 956 3486
internal_value=0 0.46276 0.676293 -0.269628 -0.32045 0.48624 -0.188879 -0.0274575 1.19332 0.0519397 0.629969 -0.0412922 0.377682 0.0945092 -0.521453 0.591238 0.71932 1.32982 1.01766 0.187859 0.321449 -0.347884 -0.369617 1.10337 1.25814 -0.0740751 0.925672 1.61788 1.50148 1.61528 1.55903 0.204058 0.281055
internal_count=246000 79535 49753 166465 155806 38349 91579 46969 11404 29782 29298 25924 10659 33162 64227 28222 17581 9459 9300 25844 15380 22388 44610 5497 4139 25336 2442 3962 3371 2441 1076 8217 7261
shrinkage=0.02


Tree=15
num_leaves=34
num_cat=0
split_feature=2 1 2 1 2 1 4 4 0 1 0 0 0 3 1 1 2 2 0 2 0 4 1 5 7 0 6 5 1 2 4 19 7
split_gain=2417.89 1332.65 638.265 522.218 272.774 215.553 167.233 152.074 129.042 110.477 99.5943 90.9724 90.2853 85.5137 76.9887 75.9115 72.4449 71.5825 71.3993 70.2059 64.295 51.7634 48.6469 42.874 57.8254 42.8274 42.4452 41.6249 41.5716 38.244 38.183 37.7839 36.533
threshold=0.43384745792380691 0.35422723310092036 0.26294789218207787 0.49196897120705113 0.24385143621834365 0.55545586026016691 -2326.4999999999995 -2501.4999999999995 0.24353098013199251 0.63351873857679208 0.40524578806427486 0.31267230011375657 0.2786640445526149 -16970.499999999996 0.10569257417126003 0.17458000079909905 0.14599244001433329 0.57356456090783425 0.49933322687948156 0.61184778609404211 0.53649031252394108 -1661.4999999999998 0.077406759416462037 17066.250000000004 450117.00000000006 0.57066262562381875 306153.00000000006 15180.750000000002 0.21502958248111437 0.6220741691655115 -790.49999999999989 0.040350000000000004 450117.00000000006
decision_type=10 8 8 10 8 8 10 10 10 10 10 10 8 2 10 8 10 10 10 10 10 10 10 10 10 10 2 10 8 10 10 10 8
left_child=1 4 9 6 22 11 17 26 14 16 15 13 -7 30 -9 27 -3 28 19 -5 21 -14 -1 -16 -25 -11 -6 -8 -2 -17 -4 -23 -28
right_child=3 2 5 18 7 12 10 8 -10 25 -12 -13 20 -15 23 29 -18 -19 -20 -21 -22 31 -24 24 -26 -27 32 -29 -30 -31 -32 -33 -34
leaf_value=0.04018342648260368 0.0090858691835898637 0.02353270963522406 -0.0021581732773518201 -0.0069434592802974614 0.00063470112517076134 0.0070404948137671435 0.0005762080418891428 0.032306230824438592 0.009012412370490986 0.0084992105927494573 -0.0058624545799802232 -0.0027242166452979928 -0.0066592833803519004 0.010681125292002068 0.012519929415420438 0.0068025440431369209 0.012825839648047815 -0.0086782944099207202 -0.014930165815398435 -0.01217871579760006 -0.011149511402448218 0.0028844025674345584 0.027076760890579615 0.029315994942582191 0.015481219559650648 -0.0057819020393869124 0.019372122948383058 0.019051783801928651 -0.0031968433078890324 -0.0011582653004829561 0.014823004954228822 -0.0051215132133657108 0.0071764893676252821
leaf_count=1094 1933 4089 5439 28104 2790 3068 712 2184 4148 5486 5036 7644 18071 10439 2449 7124 8021 15353 23414 35381 9671 7677 4924 2615 2379 1399 1688 2355 5666 5587 748 5694 3618
internal_value=0 0.355228 0.112473 -0.374129 0.945388 -0.0653853 -0.0553973 0.761712 0.956537 0.656904 0.170223 0.201662 -0.227861 0.344947 1.14595 0.30166 0.841394 -0.282978 -0.558488 -0.490953 -0.278273 -0.197171 1.49355 0.978149 1.14721 0.287688 0.377113 0.753006 0.009488 0.169549 0.00214219 -0.0239827 0.55723
internal_count=246000 115335 87446 130665 27889 68451 43766 21871 13775 18995 20814 24270 44181 16626 9627 15778 12110 22952 86899 63485 41113 31442 6018 7443 4994 6885 8096 3067 7599 12711 6187 13371 5306
shrinkage=0.02


Tree=16
num_leaves=34
num_cat=0
split_feature=2 1 2 1 2 1 4 0 1 0 3 4 0 0 0 31 1 1 2 1 0 3 4 0 5 0 1 4 5 0 2 7 0
split_gain=2326.1 1300.44 495.336 468.062 381.857 205.052 158.865 149.71 116.198 102.949 119.739 92.4569 87.3469 86.904 85.1807 68.8627 67.2243 66.5011 65.6153 64.4771 63.5809 61.0436 58.7621 50.6934 46.1208 44.0679 43.7306 43.2744 39.6697 38.1504 35.8804 34.0201 33.3165
threshold=0.44985477748110575 0.4605121656504183 0.26294789218207787 0.49196897120705113 0.24385143621834365 0.19497768032564128 -2326.4999999999995 0.50756444445474036 0.68329807106807494 0.41891107834101543 -19323.499999999996 -2501.4999999999995 0.40524578806427486 0.44590541217199814 0.19184421543527336 0.97545000000000004 0.17458000079909905 0.20735283078720596 0.13135864273369982 0.24729412234483938 0.41334967561215763 -9878.4999999999982 -3048.4999999999995 0.21558278392976585 16152.750000000002 0.20067345677976142 0.66599751363704895 -2474.4999999999995 16580.250000000004 0.45127325108895272 0.12334537001096685 464791.50000000006 0.2600927818917434
decision_type=10 8 8 10 8 10 10 10 10 10 2 10 10 10 8 10 8 10 10 10 8 2 10 8 10 8 10 10 10 10 10 10 10
left_child=1 4 13 6 17 11 19 8 14 10 -7 -6 16 18 -4 -13 28 -1 -3 -2 -5 23 -16 -12 -24 -19 -20 -22 -8 -29 -27 -30 -17
right_child=3 2 7 20 5 9 12 -9 -10 -11 21 15 -14 -15 22 32 -18 25 26 -21 27 -23 24 -25 -26 30 -28 29 31 -31 -32 -33 -34
leaf_value=0.032826419275720033 -0.00011413337892089678 0.021933432701885854 0.016182863098401553 -0.0055164295233070346 0.010392905037756122 9.8865710003316973e-05 0.0014505191620594394 -0.0098892801919897456 -0.0073727240485768463 -0.0012544646075670245 0.028736600145846652 0.027697793293384756 -0.00587964298430172 0.0023770491106788636 -0.0040457994481072788 0.018704321337350352 0.0029985905938906218 0.039089191243024783 0.01380285214962098 -0.0088193566564638472 -0.013754836342741647 0.0044456036656496589 -0.0033307258901856857 0.013845124038807144 0.0044737535569549488 0.02798843288855982 0.0024382753080601882 -0.0078217714263733185 0.026289528019389628 -0.01348943547067926 0.016783859649255686 0.0098323099544674105 0.00045668557138486485
leaf_count=3064 6765 3138 1711 9861 3500 4511 812 14048 12219 4914 1047 4316 4814 4283 11530 1326 12120 493 5891 15451 42201 2918 5330 10997 16351 1530 2434 20175 1112 11803 3760 990 585
internal_value=0 0.33375 0.0250019 -0.383128 0.768532 0.594874 -0.0744721 -0.138636 -0.0415952 0.415037 0.519567 0.968494 0.151482 0.559316 0.0626722 1.17645 0.277503 1.31536 0.707958 -0.300328 -0.561651 0.65718 0.0184809 0.762487 0.127625 1.10407 0.537633 -0.603027 0.712282 -0.494132 1.01544 0.938056 0.687787
internal_count=246000 119896 76935 126104 42961 34114 42064 61189 47141 24387 19473 9727 19848 15746 34922 6227 15034 8847 11463 22216 84040 14962 33211 12044 21681 5783 8325 74179 2914 31978 5290 2102 1911
shrinkage=0.02


Tree=17
num_leaves=34
num_cat=0
split_feature=2 2 0 4 23 4 0 0 2 0 7 5 3 0 4 2 38 12 2 6 7 12 5 0 18 7 0 28 12 28 0 19 12
split_gain=2238.72 939.727 444.668 286.933 195.345 193.733 183.707 166.047 138.039 98.2176 97.2462 124.22 68.0293 64.9593 58.5475 58.13 56.5731 56.0551 51.8395 47.6166 98.0512 46.017 46.9822 45.4599 40.7087 38.9214 37.1326 37.0071 34.8241 43.8189 34.7141 33.5432 32.6272
threshold=0.46955788558464323 0.26716287204475503 0.41891107834101543 -2058.4999999999995 2.5000000000000004 -2447.4999999999995 0.48606983037978496 0.41334967561215763 0.14599244001433329 0.21558278392976585 675191.25000000012 17066.250000000004 -17404.499999999996 0.15037451166211113 -1861.4999999999998 0.63554085103118196 0.066550000000000012 11.500000000000002 0.61697391881022823 270022.50000000006 450117.00000000006 9.5000000000000018 12377.250000000002 0.68996509862179134 0.9769500000000001 675191.25000000012 0.58923951445832945 1.0000000180025095e-35 15.500000000000002 1.0000000180025095e-35 0.29719848702866536 0.092550000000000007 78.000000000000014
decision_type=10 8 10 10 2 10 10 10 10 8 10 10 2 8 10 10 10 8 10 2 10 8 10 10 10 8 10 2 8 2 10 10 8
left_child=1 6 3 9 10 18 8 13 19 -3 11 -5 27 -7 -10 28 21 -13 26 -1 31 -16 -23 -4 30 -14 -2 -11 -15 -30 -6 32 -21
right_child=5 2 23 4 24 7 -8 -9 14 12 -12 17 25 15 16 -17 -18 -19 -20 20 -22 22 -24 -25 -26 -27 -28 -29 29 -31 -32 -33 -34
leaf_value=0.017740304613249609 -0.0066605530224803245 0.02054562622886151 -0.0038537220995011109 0.0026690898279323129 0.02494896573786631 0.015611576132846208 0.0052895116887461237 -0.011320647119718297 0.010190722846059978 0.0020726891134389856 -0.0005177133499202018 0.0043551754667122767 0.0057064361838622046 -0.0047308770394454873 0.009629333810689868 -0.0058056344255971041 0.0095507709366531197 0.014395910460872912 -0.012752687197584272 0.029913239778676593 0.020585738203807484 0.010307775769958914 0.027450111280405309 -0.01069026214989572 0.010474302126913432 -0.0031930478195786585 -0.014142632789556178 -0.0053201061392399033 0.0076840536550671756 -0.00098064402524387397 0.0077788054658129149 0.020213625561927268 0.045316499265163977
leaf_count=1920 19949 1054 16735 9907 4054 1014 5449 16810 5997 5002 7030 3395 9834 5942 1060 17862 2124 13365 39193 775 2713 799 4034 8637 1605 3603 5255 14395 4885 9145 630 384 1444
internal_value=0 0.309942 0.135345 0.26709 0.457777 -0.397067 0.838874 -0.235485 0.965578 0.0116562 0.348489 0.441364 -0.0267339 -0.104977 0.765489 -0.131565 0.942625 0.621465 -0.547003 1.29946 1.44908 1.10209 1.23274 -0.305813 0.987928 0.169599 -0.408916 -0.169556 0.0051058 0.105251 1.14056 1.86106 1.9998
internal_count=246000 125945 99246 73874 39986 120055 26699 55658 21250 33888 33697 26667 32834 38848 14014 37834 8017 16760 64397 7236 5316 5893 4833 25372 6289 13437 25204 19397 19972 14030 4684 2603 2219
shrinkage=0.02


Tree=18
num_leaves=34
num_cat=0
split_feature=2 1 2 1 2 1 1 28 0 0 3 28 1 0 0 2 3 1 2 38 3 12 12 1 0 1 3 0 0 0 0 12 9
split_gain=2153.78 1267.95 467.622 408.577 339.454 209.192 142.217 114.716 110.239 99.8455 111.364 95.4223 87.0957 82.9827 73.5948 62.4993 61.4062 59.9682 58.882 53.2633 52.353 49.9464 48.0425 46.2326 42.3471 42.2061 41.6269 55.5548 40.7356 40.469 37.1092 36.806 36.6553
threshold=0.46955788558464323 0.4605121656504183 0.26716287204475503 0.40452015244434369 0.24385143621834365 0.19497768032564128 0.68329807106807494 1.0000000180025095e-35 0.50756444445474036 0.41891107834101543 -19323.499999999996 1.0000000180025095e-35 0.57760892570205524 0.48606983037978496 0.19184421543527336 0.13135864273369982 -9878.4999999999982 0.27008935040086168 0.57356456090783425 0.074550000000000019 -19982.499999999996 10.500000000000002 22.500000000000004 0.022648115673590059 0.30036998985947166 0.66599751363704895 -16842.499999999996 0.40243133348212107 0.20453559219452891 0.28204449029860285 0.60220249588156993 15.500000000000002 -7036.4999999999991
decision_type=10 8 8 10 8 10 10 2 10 10 2 2 10 10 8 10 2 10 10 10 2 8 8 10 8 10 2 10 8 10 10 8 2
left_child=1 4 13 7 17 11 8 29 14 10 -7 23 26 15 -4 -3 22 -1 -9 30 -16 -22 -12 -6 -14 -17 -5 -28 -19 31 32 -2 -13
right_child=3 2 6 12 5 9 -8 18 -10 -11 16 19 24 -15 20 25 -18 28 -20 -21 21 -23 -24 -25 -26 -27 27 -29 -30 -31 -32 -33 -34
leaf_value=0.029244064310616699 0.0019241290472352094 0.020106836430331624 0.014328638584746931 -0.010426591774443652 0.045500889044275947 3.6773956177585238e-05 -0.0089808720431379351 0.0024350865099012583 -0.0082377694504944983 -0.0014180440860680217 0.0080430568707413712 0.0072776529649837282 -0.0039545101192964135 0.00095195493794843667 -0.0056323921200759517 0.012481803791730228 0.0037265650191516866 0.037438619503476558 -0.0064590965958940625 0.0004965827030584285 -0.0047624911324861277 0.0030381142114830218 0.016959508632445108 0.023641080181094724 -0.01286364344069307 0.0018606132903968245 -0.0017358441778119065 -0.011357053206011663 0.017521688514000162 -0.0029291983190471416 -0.0019330163890434494 0.012528977365677093 0.020637343896752834
leaf_count=4231 2581 3284 1785 13838 358 4773 17861 5747 10048 5251 3857 1089 3257 3897 7390 6450 3027 395 13071 1094 5590 22132 8897 3532 58312 2648 11489 5303 4221 2010 478 4447 3657
internal_value=0 0.302238 0.00496894 -0.391834 0.719398 0.562586 -0.1498 -0.0128721 -0.0458242 0.386489 0.485936 0.927976 -0.527554 0.511019 0.0429246 0.639147 0.613569 1.22842 -0.182086 0.680501 0.00288827 0.0743028 0.714412 1.29317 -0.616653 0.48305 -0.360297 -0.232983 0.971412 0.310764 0.809446 0.433833 0.887127
internal_count=246000 125945 81085 120055 44860 36013 64806 27856 46945 25805 20554 10208 92199 16279 36897 12382 15781 8847 18818 6318 35112 27722 12754 3890 61569 9098 30630 16792 4616 9038 5224 7028 4746
shrinkage=0.02


Tree=19
num_leaves=34
num_cat=0
split_feature=2 1 2 1 2 1 1 4 0 0 3 28 0 0 0 1 0 3 1 4 2 1 38 12 1 0 1 12 19 0 4 0 2
split_gain=2072.37 1198.72 446.479 399.503 314.564 195.387 138.114 138.005 106.639 94.654 105.069 87.8138 78.4728 72.887 69.7996 59.9679 59.523 57.5495 56.2578 55.4658 53.5151 51.8223 49.975 44.7003 42.916 42.4261 41.5216 38.0559 37.2649 36.9124 36.9746 34.7766 34.7384
threshold=0.46955788558464323 0.4605121656504183 0.26716287204475503 0.49196897120705113 0.24385143621834365 0.19497768032564128 0.68329807106807494 -2326.4999999999995 0.50756444445474036 0.41891107834101543 -19323.499999999996 1.0000000180025095e-35 0.44590541217199814 0.36136936604896358 0.19184421543527336 0.24729412234483938 0.41334967561215763 -9878.4999999999982 0.077406759416462037 -1786.4999999999998 0.13135864273369982 0.25698123022958369 0.074550000000000019 22.500000000000004 0.66599751363704895 0.19184421543527336 0.022648115673590059 12.500000000000002 0.095150000000000026 0.59446027731592854 -2447.4999999999995 0.60220249588156993 0.14599244001433329
decision_type=10 8 8 10 8 10 10 10 10 10 2 2 10 10 8 10 8 2 10 10 10 8 10 8 10 8 10 8 10 10 10 10 10
left_child=1 4 12 7 18 11 8 15 14 10 -7 26 20 21 -4 -2 -5 23 -1 -16 -3 -9 31 -12 -22 -20 -6 -21 32 30 -18 -13 -27
right_child=3 2 6 16 5 9 -8 13 -10 -11 17 22 -14 -15 19 -17 29 -19 25 27 24 -23 -24 -25 -26 28 -28 -29 -30 -31 -32 -33 -34
leaf_value=0.034675376318502066 -0.00032833189801292488 0.01950688085191472 0.013878875288058605 -0.0054109004422740947 0.043165055617728168 3.6037444822778344e-05 -0.0088700311247047591 0.010809234983645397 -0.0081309072717220873 -0.0013913550154212436 0.0078313122732120797 0.017153127177262074 0.0017225445505204768 -0.0051964711464550515 -0.0029198823328355078 -0.008998272564966223 -0.012843217063857095 0.0036411002099544731 0.035801839135509834 -0.0034565984485086573 0.012586709768849303 0.0017618723859545715 0.00048646718628825156 0.01639585382664727 0.0016722732970749089 0.026941439513013279 0.022761480068103027 0.004766801597764098 0.0086528847443636033 -0.015399416049703222 -0.0086098822757575307 -0.0018973993604509049 0.017865802064647055
leaf_count=1094 6454 3138 1785 9255 358 4773 17861 4549 10048 5251 3857 4746 4449 5168 18091 14787 31273 3027 625 3833 6151 8933 1094 8897 2541 2543 3532 13188 907 16407 23229 478 3678
internal_value=0 0.29481 0.00484072 -0.386659 0.697323 0.5465 -0.147204 -0.0920493 -0.0449591 0.376392 0.472493 0.896753 0.496704 0.126372 0.042026 -0.309374 -0.558527 0.595389 1.18249 0.00282286 0.632371 0.256556 0.659948 0.692134 0.484787 1.08193 1.24317 0.147438 1.01204 -0.60005 -0.550027 0.783473 1.09419
internal_count=246000 125945 81085 120055 44860 36013 64806 39891 46945 25805 20554 10208 16279 18650 36897 21241 80164 15781 8847 35112 11830 13482 6318 12754 8692 7753 3890 17021 7128 70909 54502 5224 6221
shrinkage=0.02


Tree=20
num_leaves=34
num_cat=0
split_feature=2 1 2 1 2 1 0 4 1 0 3 0 0 0 0 4 0 1 3 1 37 4 1 2 0 5 3 0 4 1 4 0 6
split_gain=1994.18 1133.93 426.482 390.692 292.035 182.686 139.057 133.172 110.285 89.7685 99.1865 81.0697 74.1143 69.8643 67.7567 64.2526 58.6326 58.3722 53.9792 52.8377 52.6017 50.5554 49.0612 48.746 43.8701 40.5324 38.4522 36.6765 36.5472 35.8808 33.6038 33.0085 29.995
threshold=0.46955788558464323 0.4605121656504183 0.26294789218207787 0.49196897120705113 0.24385143621834365 0.19497768032564128 0.50756444445474036 -2326.4999999999995 0.68329807106807494 0.41891107834101543 -19323.499999999996 0.39443665535039601 0.19184421543527336 0.36136936604896358 0.44590541217199814 -3110.4999999999995 0.41334967561215763 0.24729412234483938 -9878.4999999999982 0.20735283078720596 0.97545000000000004 -3048.4999999999995 0.25698123022958369 0.13135864273369982 0.21558278392976585 16152.750000000002 -10284.499999999998 0.59446027731592854 -2447.4999999999995 0.69498509448474388 -2035.4999999999998 0.2600927818917434 215932.50000000003
decision_type=10 8 8 10 8 10 10 10 8 10 2 10 8 10 10 10 8 10 2 10 10 10 8 10 8 10 2 10 10 10 10 8 2
left_child=1 4 14 7 19 11 8 17 12 10 -7 15 -4 22 23 -6 -5 -2 24 32 26 -14 -9 -3 -12 -23 -17 28 -18 -25 -10 -21 -1
right_child=3 2 6 16 5 9 -8 13 30 -11 18 -13 21 -15 -16 20 27 -19 -20 31 -22 25 -24 29 -26 -27 -28 -29 -30 -31 -32 -33 -34
leaf_value=0.015173247914601893 -0.00032185566034652438 0.018830145341932492 0.014227839097394548 -0.0053274870877825422 0.010555764583203571 3.5315775578767486e-05 -0.0095564048786023724 0.010501095013735832 -0.011016530674816696 -0.0013651377633685621 0.025296771591964543 0.0039299865347007523 -0.0038709865543829574 -0.0051152284499620228 0.0020787065106009218 0.030032765861623886 -0.012729340477442211 -0.0088872594165219851 0.0035578490472885217 0.030123551905031246 0.014035873261836924 -0.0032938940749894221 0.0017240822296476432 0.011473924484229124 0.01216050774160897 0.003822234158847766 0.01804640937054856 -0.015297492979467524 -0.0085013991060123272 -0.00050905414341040605 -0.0031737901063329222 0.017194554278992798 0.03060115695167195
leaf_count=450 6454 3138 1800 9255 2586 4773 15127 4549 6998 5251 1109 1713 12274 5168 4283 2800 31273 14787 3027 780 1778 5617 8933 6774 11645 17283 1331 16407 23229 1551 6240 5003 2614
internal_value=0 0.287612 0.00471674 -0.381529 0.676213 0.53103 -0.141776 -0.0903774 -0.0516055 0.366627 0.459534 0.867061 0.0470498 0.123582 0.492403 0.978419 -0.552751 -0.30482 0.577936 1.13931 1.13173 0.00635473 0.25037 0.618989 0.670817 0.104231 1.30829 -0.594283 -0.544257 0.473323 -0.360468 0.956124 1.4186
internal_count=246000 125945 81085 120055 44860 36013 65339 39891 50212 25805 20554 10208 36974 18650 15746 8495 80164 21241 15781 8847 5909 35174 13482 11463 12754 22900 4131 70909 54502 8325 13238 5783 3064
shrinkage=0.02


Tree=21
num_leaves=34
num_cat=0
split_feature=2 1 2 1 2 1 0 4 1 0 3 28 0 0 0 0 1 4 5 2 1 1 7 38 12 1 12 0 4 0 6 7 0
split_gain=1919.04 1073.24 407.602 382.003 271.462 171.025 130.847 128.501 104.019 85.1698 93.6874 78.615 70.2503 66.9728 62.7103 57.7425 56.8098 51.8486 50.7284 50.6748 49.3739 46.4665 45.4096 45.4091 38.9912 36.9214 36.4526 36.4347 36.1209 32.5363 35.1594 33.6021 32.261
threshold=0.46955788558464323 0.4605121656504183 0.26716287204475503 0.49196897120705113 0.24385143621834365 0.19497768032564128 0.50756444445474036 -2326.4999999999995 0.68329807106807494 0.41891107834101543 -19323.499999999996 1.0000000180025095e-35 0.48606983037978496 0.36136936604896358 0.19184421543527336 0.41334967561215763 0.24729412234483938 -1786.4999999999998 13016.250000000002 0.13135864273369982 0.27008935040086168 0.25698123022958369 675191.25000000012 0.074550000000000019 7.5000000000000009 0.022648115673590059 12.500000000000002 0.59446027731592854 -2474.4999999999995 0.4915806657465645 188194.50000000003 450117.00000000006 0.20453559219452891
decision_type=10 8 8 10 8 10 10 10 10 10 2 2 10 10 8 8 10 10 10 10 10 8 10 10 8 10 8 10 10 10 2 8 8
left_child=1 4 12 7 20 11 8 16 14 10 -7 25 19 21 -4 -5 -2 -16 -12 -3 29 -9 -20 -13 -21 -6 -19 28 -17 30 -1 -32 -22
right_child=3 2 6 15 5 9 -8 13 -10 -11 18 23 -14 -15 17 27 -18 26 22 24 32 -23 -24 -25 -26 -27 -28 -29 -30 -31 31 -33 -34
leaf_value=0.013397921709759062 -0.00031550593529148087 0.018130108042857026 0.013016992137447071 -0.0052450030392896313 0.040092199576865266 3.4608880677441757e-05 -0.0094280171079014954 0.010204484221172106 -0.0072161591369272471 -0.0013393852348570468 0.0031245063183631123 0.014643238757159546 0.00086110443093562997 -0.0050349252585263479 -0.0028359793556203433 -0.012628131640787495 -0.0087768663814186496 -0.0034380021458464268 0.014917364452344775 -0.0010475828603326274 0.032828588719301555 0.0016871570114362078 0.005368676132243181 0.00025259527798580608 0.010893260867397668 0.021252762272112261 0.0046083711177031632 -0.01519531064053296 -0.0084094643327758036 0.01303560277205971 0.034008499468186827 0.022189147854942044 0.015712330734240044
leaf_count=458 6454 3284 1785 9255 358 4773 14990 4549 12919 5251 2813 5224 3897 5168 18091 31090 14787 3833 10161 1550 395 8933 2807 1094 7548 3532 13188 16407 23412 567 2051 1155 4221
internal_value=0 0.280632 0.0045947 -0.376437 0.656007 0.516165 -0.14218 -0.0887335 -0.0545585 0.357184 0.447041 0.838873 0.469847 0.120859 0.0402207 -0.546988 -0.300312 0.00266696 0.561179 0.584909 1.09849 0.244359 0.646627 0.616601 0.444855 1.16081 0.141916 -0.588523 -0.5385 1.30423 1.39466 1.49483 0.869885
internal_count=246000 125945 81085 120055 44860 36013 64806 39891 49816 25805 20554 10208 16279 18650 36897 80164 21241 35112 15781 12382 8847 13482 12968 6318 9098 3890 17021 70909 54502 4231 3664 3206 4616
shrinkage=0.02


Tree=22
num_leaves=34
num_cat=0
split_feature=2 1 1 2 2 1 4 28 0 0 3 0 1 0 6 7 3 0 0 0 1 2 0 1 0 3 31 0 4 6 3 3 7
split_gain=1846.82 1022.16 373.436 366.707 280.002 256.591 123.989 108.219 96.0426 90.221 75.6486 64.2063 63.7128 60.0391 61.3664 67.4697 59.8207 56.8528 55.793 55.7468 55.2803 46.1148 44.4344 44.0267 42.4076 42.5736 39.5672 36.1871 35.7273 35.6507 34.9836 32.1686 32.925
threshold=0.46955788558464323 0.54951943064305364 0.49196897120705113 0.22824816588153382 0.26294789218207787 0.26409022575545354 -2326.4999999999995 1.0000000180025095e-35 0.44071901184033319 0.50756444445474036 -19625.499999999996 0.36136936604896358 0.7056046157460566 0.2600927818917434 254556.00000000003 450117.00000000006 -18804.499999999996 0.41334967561215763 0.26940257270706275 0.48606983037978496 0.24729412234483938 0.13135864273369982 0.2786640445526149 0.25698123022958369 0.14462035955991262 -9878.4999999999982 0.97885000000000011 0.59446027731592854 -3080.4999999999995 518922.00000000006 -20299.499999999996 -19507.499999999996 450117.00000000006
decision_type=10 8 10 8 8 10 10 2 10 10 2 10 10 10 2 10 2 8 10 10 10 10 8 8 8 2 10 10 10 2 2 2 8
left_child=1 3 6 13 19 7 20 26 10 12 -7 23 22 14 -1 29 -9 -4 -18 21 -2 -3 -6 -8 -12 -26 -5 28 -19 -16 -24 -23 -33
right_child=2 4 17 5 9 8 11 16 -10 -11 24 -13 -14 -15 15 -17 18 27 -20 -21 -22 31 30 -25 25 -27 -28 -29 -30 -31 -32 32 -34
leaf_value=0.013505801789743746 -0.00030927964443835953 0.017091007916770859 -0.0051634480706809335 0.023751883933593575 0.0069259103930935026 -0.00071985556892448092 0.0099188116031989279 0.0023279498809051806 -0.0026294920983259361 -0.01041290681297269 0.021321573236418888 -0.0049555606464621021 -0.0085210485155629775 0.014077878601885738 0.028800970015355004 0.019048591576431444 0.017224340423800503 -0.012799381608918284 0.0052986289200279268 -0.001228553623877922 -0.008667104173714588 -0.003554269653585579 -0.0075486440512874181 0.0016510744999203412 0.0089870371985131467 0.00087347121978678817 0.012378601717785754 -0.01509286490614181 -0.0086126515843454217 0.044033072563215481 -0.00074023882450979187 0.013714353136577782 0.0028746047149597605
leaf_count=1610 6454 2413 9255 4468 2951 6034 4549 2983 7817 12332 969 5168 8971 3668 2481 2483 4532 27174 2476 2960 14787 1206 5601 8933 17937 3562 1508 16407 27328 613 21059 2963 2348
internal_value=0 0.273858 -0.371385 0.548862 -0.0835318 0.41913 -0.0871172 0.734972 0.24359 -0.219109 0.329651 0.118203 -0.133262 1.02994 1.17786 1.32049 0.525591 -0.541239 0.673265 0.373158 -0.295849 0.497072 -0.0530518 0.238518 0.415131 0.381838 1.04789 -0.58277 -0.532759 1.59566 -0.105295 0.336626 0.44908
internal_count=246000 125945 120055 63141 62804 52286 39891 15967 36319 50914 28502 18650 38582 10855 7187 5577 9991 80164 7008 11890 21241 8930 29611 13482 22468 21499 5976 70909 54502 3094 26660 6517 5311
shrinkage=0.02


Tree=23
num_leaves=34
num_cat=0
split_feature=2 1 1 2 2 1 4 28 0 0 0 4 1 5 7 0 3 0 1 3 0 1 2 12 3 12 2 1 0 4 0 4 0
split_gain=1777.36 970.709 364.991 342.349 268.815 241.387 119.67 100.466 91.6604 84.3919 81.9576 72.0895 61.752 60.0831 68.7266 58.6135 56.3242 55.9639 52.2629 52.2436 52.1722 48.4105 43.5813 42.9442 42.8909 43.0394 39.6873 38.2435 37.7067 36.3513 35.9337 35.3578 34.3435
threshold=0.46955788558464323 0.54951943064305364 0.49196897120705113 0.22824816588153382 0.26716287204475503 0.26409022575545354 -3017.4999999999995 1.0000000180025095e-35 0.45427266897534463 0.50756444445474036 0.41054559521161782 -1495.4999999999998 0.7056046157460566 14793.750000000002 450117.00000000006 0.48606983037978496 -18804.499999999996 0.41334967561215763 0.055922247415995309 -9984.4999999999982 0.26940257270706275 0.24729412234483938 0.13135864273369982 12.500000000000002 -19922.499999999996 10.500000000000002 0.63554085103118196 0.022648115673590059 0.2083090457807511 -1804.4999999999998 0.59446027731592854 -2447.4999999999995 0.21558278392976585
decision_type=10 8 10 8 8 10 10 2 10 10 10 10 10 10 10 10 2 8 8 2 10 10 10 8 2 8 10 10 10 10 10 10 8
left_child=1 3 6 13 15 7 21 27 11 12 18 32 24 -1 28 22 -9 -4 -8 23 -18 -2 -3 -13 -6 -26 -20 -5 29 -15 31 -19 -7
right_child=2 4 17 5 9 8 10 16 -10 -11 -12 19 -14 14 -16 -17 20 30 26 -21 -22 -23 -24 -25 25 -27 -28 -29 -30 -31 -32 -33 -34
leaf_value=0.011632996352302423 -0.00083746508420800777 0.016530396568286389 -0.0050828219495483544 0.037060606227252622 -0.0068225330268197873 0.016800103458344408 0.019553045617983059 0.0022771228056069678 -0.0027908109025055511 -0.010260601596632486 -0.0067314068113142802 0.0034616132695207556 -0.0085138664639582504 0.021740904923142745 0.016419440066432839 -0.00166594387262452 0.016664038004752534 -0.012390180130142422 0.0061857713800070645 0.0029236485207894832 0.0051708877775921069 -0.0093433550265123507 0.0065786353301269997 0.014443376121740268 -0.0059104038656505875 0.0019505362967251875 -0.0010220351625382753 0.018863471975778826 0.019422199091890947 0.035225545260522788 -0.01499015393108967 -0.0081754757246570893 0.0021490205728183364
leaf_count=2409 5540 2413 9255 368 6271 709 802 2983 7497 12217 5272 2022 8907 1008 4005 3082 4532 31273 8652 3663 2476 12550 6816 7974 4927 18171 7075 5608 1584 1849 16407 23229 14454
internal_value=0 0.267273 -0.366372 0.533443 -0.0820161 0.408084 -0.0855281 0.712384 0.23777 -0.218311 0.0869093 0.3191 -0.13506 0.994459 1.10963 0.354806 0.510982 -0.535504 0.202022 0.490536 0.65313 -0.325785 0.479407 0.614231 -0.0558372 0.0154554 0.150991 1.01114 1.35075 1.53605 -0.577024 -0.527032 0.147878
internal_count=246000 125945 120055 63141 62804 52286 39891 15967 36319 50493 21801 28822 38276 10855 8446 12311 9991 80164 16529 13659 7008 18090 9229 9996 29369 23098 15727 5976 4441 2857 70909 54502 15163
shrinkage=0.02


Tree=24
num_leaves=34
num_cat=0
split_feature=2 1 1 2 2 1 1 28 4 0 0 3 4 0 28 1 5 0 3 0 0 12 12 7 2 0 3 0 31 4 23 5 8
split_gain=1710.6 922.201 358.227 319.969 257.99 227.265 135.972 93.4175 88.9952 87.4438 82.2914 70.2115 60.7841 60.2588 57.7521 56.0814 56.9981 55.6243 53.233 51.4145 49.2817 48.9016 46.2748 45.2794 40.8329 40.401 37.0816 36.6748 35.8911 35.7393 33.6118 33.7843 31.0835
threshold=0.46955788558464323 0.54951943064305364 0.55149989288010193 0.22824816588153382 0.26716287204475503 0.26409022575545354 0.25279911415193834 1.0000000180025095e-35 -2988.4999999999995 0.44071901184033319 0.50756444445474036 -19625.499999999996 -3842.4999999999995 0.40524578806427486 1.0000000180025095e-35 0.20735283078720596 15018.750000000002 0.48606983037978496 -18186.499999999996 0.30036998985947166 0.26940257270706275 10.500000000000002 21.500000000000004 450117.00000000006 0.13135864273369982 0.30936318942070168 -9878.4999999999982 0.29719848702866536 0.97885000000000011 -1804.4999999999998 1.5000000000000002 16152.750000000002 -4224.4999999999991
decision_type=10 8 10 8 8 10 8 2 10 10 10 2 10 10 2 10 10 10 2 8 10 8 8 10 10 8 2 8 10 10 2 10 2
left_child=1 3 6 15 17 7 14 28 -8 11 12 -7 -6 -10 -2 -1 -17 24 -9 -4 -20 -14 -13 29 -3 -16 -24 -25 32 -18 -23 -32 -5
right_child=2 4 19 5 10 9 8 18 13 -11 -12 22 21 -15 25 16 23 -19 20 -21 -22 30 26 27 -26 -27 -28 -29 -30 -31 31 -33 -34
leaf_value=0.025513424013166031 0.010310751885612809 0.015996016183973307 -0.0025936473807257046 0.011882728807624379 -0.0074516125591209403 -0.00077677100045436755 -0.0092945412663636602 0.0027538812365710606 0.00043012360037009216 -0.0025402912040185968 -0.010146230480129151 0.0032881096155098649 -0.0068541951025697205 -0.0087663550279024026 0.018466757434786648 0.0068823891740498883 0.015593756876177364 -0.0016349161035229996 0.016454501543752817 -0.011939346124821865 0.0051304383791317002 -0.0059026713895384345 0.011471046786184706 0.030494108735113996 0.0064125347678382037 -0.0012346538410623301 0.0029727872278384601 0.011132372951997307 0.01144561879072914 0.028719272028351811 -0.0034524461901279881 0.0041076540272986075 0.02449938286504583
leaf_count=2733 3972 2413 3688 878 11569 6034 18061 3271 15644 7817 12217 6974 5903 5902 512 1818 1199 3082 4320 64459 2400 3514 12658 389 6816 7817 2836 2730 1508 1986 4326 12964 3590
internal_value=0 0.260882 -0.3614 0.518606 -0.0805235 0.397412 -0.133877 0.690786 -0.251996 0.232113 -0.214773 0.313323 -0.132679 -0.0937702 0.183219 0.960803 0.821697 0.345755 0.496907 -0.567623 0.644319 -0.037993 0.394849 0.955835 0.466265 0.00671151 0.496077 0.688979 0.976372 1.20058 0.0456012 0.111125 1.10693
internal_count=246000 125945 120055 63141 62804 52286 51908 15967 39607 36319 50493 28502 38276 21546 12301 10855 8122 12311 9991 68147 6720 26707 22468 6304 9229 8329 15494 3119 5976 3185 20804 17290 4468
shrinkage=0.02


Tree=25
num_leaves=34
num_cat=0
split_feature=2 1 1 2 2 1 4 4 1 1 4 28 1 38 1 5 28 1 7 2 7 1 4 24 5 28 12 19 2 4 7 4 12
split_gain=1646.75 835.621 389.603 286.781 237.03 196.988 124.508 82.2524 77.6755 76.4483 65.5879 65.0926 57.8361 54.802 52.0772 53.0481 51.5898 47.2176 46.843 44.8819 41.7315 41.1966 41.1786 41.1403 40.3211 37.6069 33.2093 33.1908 30.6222 30.5286 29.9999 29.8471 29.2839
threshold=0.44985477748110575 0.54951943064305364 0.49196897120705113 0.22824816588153382 0.26294789218207787 0.26409022575545354 -3017.4999999999995 -2501.4999999999995 0.055922247415995309 0.7056046157460566 -1786.4999999999998 1.0000000180025095e-35 0.64351197800400295 0.047750000000000008 0.20735283078720596 15018.750000000002 1.0000000180025095e-35 0.24729412234483938 675191.25000000012 0.13135864273369982 450117.00000000006 0.067116934322793712 -2447.4999999999995 0.029950000000000001 20931.750000000004 1.0000000180025095e-35 15.500000000000002 0.053550000000000007 0.6220741691655115 -1989.4999999999998 675191.25000000012 -3048.4999999999995 15.500000000000002
decision_type=10 8 10 8 8 10 10 10 8 10 10 2 10 10 10 10 2 8 8 10 10 10 10 10 10 2 8 10 10 10 8 10 8
left_child=1 3 6 14 19 7 17 -5 -8 16 -7 32 22 21 -1 -16 18 -2 24 -3 27 -9 -4 26 -6 -23 -12 29 -13 -17 -21 -18 -10
right_child=2 4 12 5 9 10 8 13 11 -11 23 28 -14 -15 15 20 31 -19 -20 30 -22 25 -24 -25 -26 -27 -28 -29 -30 -31 -32 -33 -34
leaf_value=0.024594333404881465 -0.00049529819453204935 0.013102481826502133 -0.010647891217205271 0.0068961831242043475 -0.0015639154293779246 0.0013810866680972168 0.019041464725394388 0.026977109458402426 0.00082543059782134651 -0.0096579515850366924 0.0034299259113764408 0.0010734688003526079 -0.012453710664905795 0.0088811127751914389 0.0067097815191513891 0.017115354018355611 -0.007970927888912847 -0.0087355918749263458 -0.0058706833703986586 0.006559556083865682 0.013364676415758555 0.021889551868603245 -0.0055474816312193909 0.0031041477301572157 0.0085459726195719656 0.012056235826520045 0.011906266368924875 0.013381489164432096 -0.0059581946436022331 0.031572239737102839 -0.0026881571225644478 -0.0023409737760138431 0.009145032233984279
leaf_count=2733 5674 3156 21966 5586 3752 16352 1016 1492 3586 11797 2822 7122 42241 2546 1818 793 9410 13231 3568 6400 3119 2439 19833 6464 5182 3158 8652 909 6287 1483 2334 13931 5148
internal_value=0 0.267826 -0.339198 0.515712 -0.0667341 0.395761 -0.0589082 0.672771 0.109141 -0.200863 0.237178 0.0581446 -0.51229 0.826523 0.928947 0.7955 -0.117028 -0.300551 0.074645 0.345406 0.923566 0.95568 -0.406621 0.374008 0.216306 0.828976 0.493723 1.15607 -0.106022 1.34168 0.207562 -0.224967 0.29067
internal_count=246000 119896 126104 60366 59530 49511 42064 15221 23159 47640 34290 22143 84040 9635 10855 8122 35843 18905 12502 11890 6304 7089 41799 17938 8934 5597 11474 3185 13409 2276 8734 23341 8734
shrinkage=0.02


Tree=26
num_leaves=34
num_cat=0
split_feature=2 1 2 1 2 1 4 0 0 1 0 0 1 0 1 28 4 5 7 1 2 7 3 0 19 1 4 15 27 12 12 2 0
split_gain=1587.28 853.188 391.589 327.751 163.409 145.049 122.079 112.514 103.86 101.947 93.8983 78.4205 68.4918 60.1173 59.5699 55.5445 54.4624 51.9361 59.7397 47.6873 47.4981 46.2383 45.9517 45.0796 38.2405 36.2018 35.2063 32.4131 31.9123 31.3709 31.0753 30.513 29.9836
threshold=0.47674953178598795 0.41207467746962817 0.26294789218207787 0.54951943064305364 0.3466015148349299 0.68329807106807494 -3017.4999999999995 0.38641528686602122 0.50756444445474036 0.15357341543492894 0.41334967561215763 0.19184421543527336 0.65630287307471191 0.50473402660672073 0.25698123022958369 1.0000000180025095e-35 -5440.4999999999991 16715.250000000004 450117.00000000006 0.24729412234483938 0.084195070592532603 675191.25000000012 -17152.499999999996 0.30036998985947166 0.08975000000000001 0.022648115673590059 -2035.4999999999998 6.5000000000000009 1.0000000180025095e-35 8.5000000000000018 8.5000000000000018 0.63554085103118196 0.26309533033673044
decision_type=10 8 8 10 8 10 10 10 10 10 10 8 10 10 10 2 10 10 10 10 10 8 2 8 10 10 10 8 8 8 8 10 8
left_child=1 4 12 6 13 8 19 9 11 25 14 -4 20 17 -8 21 -11 -1 30 -2 -3 -13 -17 -5 26 -6 -22 -18 -29 -28 -19 -16 -14
right_child=3 2 5 23 7 -7 10 -9 -10 16 -12 15 32 -15 31 22 27 18 -20 -21 24 -23 -24 -25 -26 -27 29 28 -30 -31 -32 -33 -34
leaf_value=0.012483826669123028 -0.0011747419636392209 0.021851908609255941 0.013413318822131299 -0.0028502933320161523 0.030069521556769147 -0.0084135835657376899 0.0085504514969760078 -0.00099058594329848424 -0.0072382527459037898 3.0162575517248899e-05 -0.0075581302242647783 0.0060617836564327877 0.019105468145663093 0.0066437897886046241 0.00321844943000991 -0.0057344218382449639 0.0066763911855628865 0.013225773926777882 0.015671527622237554 -0.0093118643567731835 0.0068430690300581723 -0.0031651171005398554 0.00071583570413438682 -0.011726364338991005 0.0018105650481394873 0.015786168309451506 0.0043407336118289463 0.011825932245100753 0.028157416302829436 0.017621462071188948 0.02724653819143711 -0.0034989362594748819 0.00084758908288746256
leaf_count=3484 5454 1392 2150 3630 644 18441 5438 4867 11388 3598 6960 11535 414 1888 8029 10270 6123 574 4048 17470 3560 3886 15131 63743 1971 4094 910 4558 527 4104 3684 7043 4992
internal_value=0 0.244415 0.0268498 -0.358187 0.610442 -0.108749 -0.136377 0.442644 -0.0176934 0.539231 0.0221479 0.0586171 0.456583 0.854406 0.137511 0.0190045 0.393059 0.925253 1.04596 -0.356261 0.584171 0.189684 -0.0880758 -0.558349 0.503805 0.892073 0.595849 0.492543 0.676037 0.764836 1.26926 0.0074021 0.123285
internal_count=246000 128233 90144 117767 38089 72801 50394 24411 54360 19544 27470 42972 17343 13678 20510 40822 14806 11790 8306 22924 11937 15421 25401 67373 10545 4738 8574 11208 5085 5014 4258 15072 5406
shrinkage=0.02


Tree=27
num_leaves=34
num_cat=0
split_feature=1 1 4 0 4 0 4 0 0 1 0 0 1 28 38 7 6 6 12 0 6 6 7 6 10 6 0 23 6 1 0 3 10
split_gain=1371.34 444.337 243.876 197.396 165.548 157.124 147.906 106.389 90.5072 65.1183 64.2387 62.2028 60.0525 57.4426 57.2418 55.6888 158.318 52.0052 41.7684 41.6011 39.9997 38.4256 68.3402 34.6731 34.5925 31.0265 30.9989 29.6713 29.6357 28.7 27.5106 33.4176 26.5546
threshold=0.54951943064305364 0.24729412234483938 -1786.4999999999998 0.27549291350726196 -3017.4999999999995 0.27549291350726196 -1645.4999999999998 0.26614079072162344 0.45683888757888474 0.6577171538435993 0.11806481731376661 0.35823780236188657 0.077406759416462037 1.0000000180025095e-35 0.065150000000000013 450117.00000000006 518922.00000000006 276295.50000000006 8.5000000000000018 0.11806481731376661 258738.75000000003 251640.00000000003 450117.00000000006 247387.50000000003 -1123.4999999999998 508497.75000000006 0.68696294280343395 2.5000000000000004 400527.00000000006 0.067116934322793712 0.66799446576555022 -10733.499999999998 -1159.4999999999998
decision_type=10 8 10 8 10 10 10 10 10 10 8 8 10 2 10 10 2 2 8 10 2 2 10 2 10 2 10 2 2 10 10 2 10
left_child=1 4 11 19 20 10 9 12 14 26 28 -3 27 32 18 16 17 -12 -8 -2 -1 -14 25 -15 -20 -23 -5 -6 -4 -9 31 -7 -13
right_child=3 2 5 6 7 30 8 29 -10 -11 15 13 21 23 -16 -17 -18 -19 24 -21 -22 22 -24 -25 -26 -27 -28 -29 -30 -31 -32 -33 -34
leaf_value=-0.0027710463115041294 0.018562371470725904 0.0065292073086464213 0.014135772565185251 -0.0058057497185575128 0.019490584088439632 0.0034688578210946962 -0.0062377231555980428 0.015450370389086967 -0.0088396613772236069 -0.011327274408665034 0.0046011492199356345 -0.0028538047033642533 0.0078387967454551094 -0.009385537473604634 -0.0059760191533659388 0.0041111571627076068 0.029523176839609731 0.012890850992742339 -0.0020964450914584725 0.0029889794477798983 0.0068327639950825645 0.018949489633723528 0.010095788825660527 -0.0030079327497296105 0.0050302179458210075 0.031386202823133508 -0.012789574758393912 0.030106487959017079 0.036988983463584868 0.0040069520037969803 -0.0077110516714025768 -0.0050534682859675849 0.0046643813605394303
leaf_count=2724 892 4007 441 32734 2291 8578 3817 990 14006 40694 7697 4047 2350 6093 9893 9405 1655 5910 6043 6744 8081 3321 3415 24665 11345 822 4972 1188 428 4223 2406 3097 7026
internal_value=0 0.254644 0.110815 -0.297501 0.573218 0.300383 -0.340463 0.730044 -0.166428 -0.449751 0.449495 -0.0817216 0.85761 -0.127711 -0.0569243 0.415132 0.536645 0.414915 0.0532856 0.250209 0.223128 0.730598 0.833038 -0.213071 0.13086 1.07775 -0.332754 1.15766 1.27088 0.329362 -0.0125729 0.0553272 0.0982099
internal_count=246000 114860 85455 131140 29405 39617 123504 18600 45104 78400 25536 45838 13387 41831 31098 24667 15262 13607 21205 7636 10805 9908 7558 30758 17388 4143 37706 3479 869 5213 14081 11675 11073
shrinkage=0.02


Tree=28
num_leaves=34
num_cat=0
split_feature=2 1 1 2 2 1 4 1 28 1 28 2 28 3 18 5 1 1 4 12 12 12 38 2 1 38 12 2 12 6 4 12 4
split_gain=1512.59 776.542 310.334 292.603 219.207 149.25 114.193 91.572 78.7352 73.7514 64.9366 61.487 54.9016 49.5451 47.5424 53.611 47.0809 45.352 42.694 41.1642 40.0465 39.9289 39.294 35.6729 33.653 32.2283 31.6014 30.8754 30.5809 28.6744 28.1767 26.5306 25.7102
threshold=0.47674953178598795 0.51694004036209174 0.54951943064305364 0.26294789218207787 0.31469441606860521 0.16303032205268178 -3017.4999999999995 0.7056046157460566 1.0000000180025095e-35 0.055922247415995309 1.0000000180025095e-35 0.14599244001433329 1.0000000180025095e-35 -16970.499999999996 0.97935000000000005 16715.250000000004 0.67609046229351744 0.24729412234483938 -1300.4999999999998 24.500000000000004 10.500000000000002 15.500000000000002 0.047750000000000008 0.16791230932765991 0.022648115673590059 0.061650000000000003 8.5000000000000018 0.64715337901823411 8.5000000000000018 161865.00000000003 -3048.4999999999995 13.500000000000002 -1172.4999999999998
decision_type=10 8 10 8 8 10 10 10 2 8 2 10 2 2 10 10 10 10 10 8 8 8 10 10 10 10 8 10 8 2 10 8 10
left_child=1 4 6 16 11 22 17 10 19 -8 20 -1 21 -10 15 -13 23 -2 -4 -7 -5 -11 24 -3 -6 -22 -15 -14 -17 -26 -12 -32 -30
right_child=2 3 18 7 5 8 9 -9 13 12 30 14 27 26 -16 28 -18 -19 -20 -21 25 -23 -24 -25 29 -27 -28 -29 32 -31 31 -33 -34
leaf_value=0.020556032340859204 -0.0012328851312281637 0.014493306592335919 -0.012281336486265851 -0.0039705589718131134 0.028501702408714368 0.004590942801038075 0.017402393740455296 -0.0095875750083090957 -0.0023520398438148741 -0.0018602561493108398 -0.0071621286149735532 0.0077340146806491273 -0.00054692827866998901 -0.0054727308535460822 0.0067254948259105997 0.0079573257981914829 0.0014324237373214478 -0.0091719284067083955 -0.0075335158092792063 0.012530939801347004 0.0068093107206651316 0.0072252583826984667 0.0068358621535076448 0.0063901721363679278 0.0011719878300850189 -0.0019740407209994531 0.0058366988446714677 -0.0071905347339042752 0.016090847596704892 0.016584122571521073 -0.0085514978934367412 -0.0009302987905015263 0.024316226265218177
leaf_count=4484 5454 3979 49650 4791 662 5313 930 12871 8219 4388 11879 2618 9233 1339 3402 955 4185 17470 17723 6439 7725 5981 1850 5298 458 3272 11198 6938 3238 4039 3280 14458 2281
internal_value=0 0.237204 -0.351998 -0.0423301 0.495452 0.34881 -0.137013 -0.17444 0.237619 0.0153705 -0.0983576 0.762902 -0.0267952 0.105313 0.645402 0.757711 0.386471 -0.350929 -0.549143 0.451782 0.0918685 0.174522 0.720657 0.509511 0.845724 0.212391 0.234657 -0.166717 0.901603 0.752227 -0.206386 -0.114123 0.985656
internal_count=246000 128233 117767 71738 56495 39517 50394 58276 32508 27470 45405 16978 26540 20756 12494 9092 13462 22924 67373 11752 15788 10369 7009 9277 5159 10997 12537 16171 6474 4497 29617 17738 5519
shrinkage=0.02


Tree=29
num_leaves=34
num_cat=0
split_feature=2 1 1 2 2 0 1 4 0 0 3 1 1 4 1 0 1 0 3 12 5 7 5 31 23 3 7 4 0 3 6 0 5
split_gain=1456.19 740.492 303.573 253.841 223.073 173.113 130.884 110.577 86.8658 78.2446 62.3812 60.4854 56.6108 54.1379 52.4467 47.6528 44.2298 43.4975 41.8602 40.8529 40.3213 38.7705 57.1463 36.9897 36.6257 34.4809 39.9184 34.0009 33.9657 31.9751 30.086 29.3688 28.8408
threshold=0.47674953178598795 0.55149989288010193 0.54951943064305364 0.26716287204475503 0.26716287204475503 0.31267230011375657 0.26409022575545354 -3017.4999999999995 0.41334967561215763 0.50756444445474036 -19982.499999999996 0.27008935040086168 0.7056046157460566 -2422.4999999999995 0.25698123022958369 0.48606983037978496 0.24729412234483938 0.30036998985947166 -19922.499999999996 21.500000000000004 15018.750000000002 675191.25000000012 16035.750000000002 0.98385000000000011 2.5000000000000004 -20039.499999999996 675191.25000000012 -1747.4999999999998 0.68996509862179134 -10032.499999999998 251640.00000000003 0.58400931241911846 16373.250000000002
decision_type=10 8 10 8 8 10 10 10 10 10 2 10 10 10 10 10 10 8 2 8 10 8 10 10 2 2 8 10 10 2 2 10 10
left_child=1 3 7 11 15 6 13 16 14 12 -8 -1 18 -5 32 25 -2 -4 -6 30 -13 22 -20 27 29 -3 -27 -22 -7 -15 -12 -19 -9
right_child=2 4 17 5 9 28 10 8 -10 -11 19 20 -14 24 -16 -17 -18 31 21 -21 23 -23 -24 -25 -26 26 -28 -29 -30 -31 -32 -33 -34
leaf_value=0.020122996221223374 -0.0012094994074776982 -0.0010038569366490034 -0.0026675703097469045 0.0078933368482527449 -0.0066667618522513721 0.0014509722297639876 -0.0014592002405263145 -0.0002148686888512259 -0.0074388275666503979 -0.0098230542203429777 -0.0073759025422696104 0.0050136858928029838 -0.0081026464895312365 0.016721995408271472 4.5571626389974843e-05 -0.0016111268769817375 -0.0090612577770337183 -0.010453008700412676 -0.0043775548966439592 0.0093807411117973454 0.011470438105457493 -0.0048503940679111932 0.0048994493253379113 0.0055963675801620249 0.022993757290958962 0.012761453819871399 0.001522275769766473 0.020593305424632582 -0.0073464755945306616 0.0067811994990452096 0.0049734877511069427 -0.014837053203340047 0.010729134349809162
leaf_count=4922 5454 1440 3630 4526 6356 11075 5305 1497 6960 12476 1121 2136 9123 3808 15072 3061 17470 48990 5218 13139 2771 5970 12225 1410 1932 5909 1804 3246 3069 1479 4712 14753 3941
internal_value=0 0.231654 -0.347142 0.453396 -0.0777645 0.329049 0.440067 -0.134621 0.0150445 -0.203463 0.284285 0.778199 -0.123787 0.684802 0.124778 0.316157 -0.34604 -0.543441 -0.0485137 0.36748 0.625399 0.0211313 0.107898 0.728833 0.824731 0.426383 0.511207 0.829936 -0.0139075 0.699107 0.130938 -0.571515 0.393513
internal_count=246000 128233 117767 64651 63582 50166 36022 50394 27470 51368 24277 14485 38892 11745 20510 12214 22924 67373 29769 18972 9563 23413 17443 7427 7219 9153 7713 6017 14144 5287 5833 63743 5438
shrinkage=0.02


Tree=30
num_leaves=34
num_cat=0
split_feature=2 1 1 2 2 1 0 28 0 4 1 0 4 0 1 23 5 7 0 1 5 28 12 2 0 38 2 0 1 4 12 6 12
split_gain=1403.72 734.136 276.505 252.673 222.158 160.637 99.183 95.8845 82.0367 76.3849 71.7722 62.8323 61.7339 55.4273 49.2399 49.1338 48.4381 51.9509 47.3878 46.4644 39.1955 38.0919 41.2305 35.748 35.6497 35.5496 33.5309 33.4975 32.8715 31.9591 31.5751 30.7984 27.1905
threshold=0.496567359222502 0.54951943064305364 0.40452015244434369 0.31004680515156863 0.26716287204475503 0.16303032205268178 0.33870434097465102 1.0000000180025095e-35 0.50756444445474036 -2135.4999999999995 0.6407078855390832 0.2600927818917434 -3080.4999999999995 0.2786640445526149 0.067116934322793712 2.5000000000000004 16715.250000000004 450117.00000000006 0.48606983037978496 0.72115274139141616 17066.250000000004 1.0000000180025095e-35 11.500000000000002 0.57356456090783425 0.41334967561215763 0.047750000000000008 0.13135864273369982 0.21558278392976585 0.022648115673590059 -732.49999999999989 11.500000000000002 518922.00000000006 10.500000000000002
decision_type=10 8 10 8 8 10 10 2 10 10 10 10 10 8 10 2 10 10 10 10 10 2 8 10 10 10 10 8 10 10 8 2 8
left_child=1 3 7 11 18 25 9 29 13 27 12 14 -4 -6 -1 20 -16 31 26 21 -11 22 -15 -9 30 28 -3 -7 -5 32 -14 -18 -2
right_child=2 4 10 5 8 6 -8 23 -10 15 -12 -13 24 19 16 -17 17 -19 -20 -21 -22 -23 -24 -25 -26 -27 -28 -29 -30 -31 -32 -33 -34
leaf_value=0.026761409302923114 -0.0052334639560206809 0.014247371577519097 -0.011037371223362479 0.026717725198634801 0.0055374462271730006 0.018546716551894521 -0.0021677183385179245 0.0016949557527509694 -0.0097843070472474324 0.0015786153504191798 -0.012473673751017742 0.009122076508313039 -0.0092935138417506967 -0.0053832177014737203 0.0090894747333277442 0.015574699227992648 0.019308210691000811 0.012697014151002717 -0.0017263850572161715 -0.0096727821142296774 0.009175091154786404 -0.0043573026156098742 0.0043223510008356097 -0.0060335904971208646 -0.0097121013380947665 0.0064970976909425795 0.0057158889155173734 0.00077059282392335495 0.013929028923865225 0.012928541118111474 -0.001340505067126094 0.031125746409915556 0.0055368013961508127
leaf_count=1007 1633 2413 21240 705 3740 459 11210 4388 13432 4288 38854 6351 4088 3834 3293 3292 3144 4086 3082 6701 9122 19649 7625 13071 8009 1995 6816 12393 4779 1883 13759 869 4790
internal_value=0 0.215833 -0.359146 0.433765 -0.0840076 0.293403 0.19479 -0.0360704 -0.203692 0.290372 -0.484552 0.710536 -0.37952 -0.12436 0.823529 0.428107 0.760156 0.877815 0.308565 -0.173086 0.339318 -0.113866 0.0586108 -0.200661 -0.251558 0.670887 0.417201 0.0771681 0.786074 0.269193 -0.156714 1.09786 0.142237
internal_count=246000 134285 111715 66993 67292 48243 40764 25765 54981 29554 85950 18750 47096 41549 12399 16702 11392 8099 12311 37809 13410 31108 11459 17459 25856 7479 9229 12852 5484 8306 17847 4013 6423
shrinkage=0.02


Tree=31
num_leaves=34
num_cat=0
split_feature=2 1 1 2 2 1 1 4 1 1 5 7 4 4 1 1 4 23 5 7 2 12 19 2 32 2 18 19 8 2 4 5 7
split_gain=1352.07 699.742 269.729 268.284 195.301 127.734 82.7937 82.2115 70.7999 64.3783 63.9545 70.9381 62.6431 60.5556 47.6883 43.0394 41.2007 37.8163 37.3574 38.0713 36.6836 33.8728 32.8345 32.0979 31.8945 31.2295 32.9365 29.3865 30.7955 26.2216 25.334 22.5014 26.1909
threshold=0.496567359222502 0.51694004036209174 0.40452015244434369 0.26294789218207787 0.3466015148349299 0.10569257417126003 0.68329807106807494 -2184.4999999999995 0.6407078855390832 0.26615016614222048 13016.250000000002 450117.00000000006 -4628.4999999999991 -3080.4999999999995 0.055922247415995309 0.67609046229351744 -1786.4999999999998 2.5000000000000004 14793.750000000002 450117.00000000006 0.63554085103118196 11.500000000000002 0.08815000000000002 0.16791230932765991 1.0000000180025095e-35 0.17508512251332128 0.97840000000000005 0.015650000000000001 -330.49999999999994 0.1150195781551531 -1944.4999999999998 17343.000000000004 675191.25000000012
decision_type=10 8 10 8 8 10 10 10 10 10 10 10 10 10 8 10 10 2 10 10 10 8 10 10 2 10 10 10 2 10 10 10 10
left_child=1 4 12 15 9 24 16 -7 13 25 -9 17 -2 -4 -14 23 -5 -12 -11 22 -16 -15 29 31 -6 -1 -27 28 -18 -20 -8 -3 -33
right_child=2 3 8 6 5 7 30 10 -10 18 11 -13 14 21 20 -17 27 -19 19 -21 -22 -23 -24 -25 -26 26 -28 -29 -30 -31 -32 32 -34
leaf_value=0.021839716587461616 -0.0059447485007341752 0.0058054884902808196 -0.01092337174775212 -0.0040329599456154584 0.013399971139335297 0.00037321081279331541 -0.010673879613071676 -0.00096185945695700513 -0.0123612334178784 0.0041884398650042683 0.010278141099724429 0.0038449413334797158 0.01514580187382949 -0.010301534900937184 0.004169415292759761 0.001164994713278698 0.0022809777965591806 0.020204415458120455 0.028465104088433685 0.008519229231929222 -0.0028532776783584276 -0.0033681605402160683 0.0040323527431318533 0.005900297894541464 0.028466198042323487 0.017309664226130238 0.0069606127618589645 -0.0024449005397049048 0.019152746340657556 0.015923153944054354 -0.0048063831850764975 0.019959910549361172 0.0069724135142617237
leaf_count=2429 9351 1064 21240 22304 3564 14989 10707 3509 38854 2861 6996 7262 981 6015 7632 4185 10249 1987 601 5207 7801 19841 714 5298 473 3626 1377 9099 610 3350 8909 2063 852
internal_value=0 0.210866 -0.354238 -0.0503142 0.448641 0.301099 -0.172645 0.223944 -0.47898 0.673153 0.355161 0.440312 -0.0353884 -0.374445 0.0900506 0.358159 -0.0828695 0.626417 0.528648 0.61671 0.0345652 -0.247627 0.808518 0.474257 0.766489 0.863974 0.72737 0.0348549 0.161308 0.912821 -0.395948 0.675502 0.815093
internal_count=246000 134285 111715 75340 58945 38780 61878 34743 85950 20165 19754 16245 25765 47096 16414 13462 42262 8983 12733 9872 15433 25856 4665 9277 4037 7432 5003 19958 10859 3951 19616 3979 2915
shrinkage=0.02


Tree=32
num_leaves=34
num_cat=0
split_feature=2 1 1 2 2 1 28 28 0 0 0 0 0 1 7 3 19 5 1 3 12 7 1 12 32 0 3 28 6 7 3 0 0
split_gain=1303.3 695.008 242.803 226.119 213.644 149.993 81.6157 79.7296 71.3929 68.0614 60.1454 58.8325 58.5628 52.1065 51.4603 53.0867 48.4395 55.2547 46.2525 46.1585 41.8986 41.1886 40.9736 39.4842 39.2687 40.423 36.7591 35.3389 35.033 42.1357 34.6369 32.4571 32.4201
threshold=0.50558277949122454 0.54951943064305364 0.39643489914890478 0.31004680515156863 0.33525782313775071 0.30737105572882761 1.0000000180025095e-35 1.0000000180025095e-35 0.48606983037978496 0.41334967561215763 0.50756444445474036 0.35823780236188657 0.54659181075211805 0.067116934322793712 675191.25000000012 -19196.499999999996 0.086350000000000024 16715.250000000004 0.71929326359835632 -16970.499999999996 26.500000000000004 450117.00000000006 0.57760892570205524 11.500000000000002 1.0000000180025095e-35 0.27232059676187265 -11993.499999999998 1.0000000180025095e-35 180290.25000000003 450117.00000000006 -14347.499999999998 0.14462035955991262 0.17878951609808016
decision_type=10 8 10 8 8 10 2 2 10 8 10 10 10 10 8 2 10 10 10 2 8 10 10 8 2 8 2 2 2 10 2 10 8
left_child=1 3 6 12 8 7 -2 20 14 31 18 19 13 -1 15 -3 17 -15 32 27 -5 -19 -11 -17 25 -9 -26 -7 -21 -30 -8 -4 -6
right_child=2 4 9 5 10 11 30 24 -10 22 -12 -13 -14 16 -16 23 -18 21 -20 28 -22 -23 -24 -25 26 -27 -28 -29 29 -31 -32 -33 -34
leaf_value=0.024034127206953408 0.0049093019565660872 -0.00088713541479906071 0.012895108416689203 0.0089522171811907709 0.009463491000790504 0.0064918439245586481 -0.006417473800801308 0.017687982315437768 -0.0037145395368344404 -0.007743951809981494 -0.010003080866684366 -0.003136445388453259 0.0041447136400627142 0.0086365415511588627 -0.0009048155446179754 0.0028121016621355899 0.005493462397749933 0.020845727985522231 -0.0095029920280232261 -0.0016259858833813567 0.018308302356265592 0.013065790022613757 -0.011922973795675553 0.013483137062800838 0.030505542323440521 0.0039660016509203188 0.0079314383868080273 -0.0036693765990502771 0.011239755899606184 0.0031262637144068147 0.00094736285547761994 -0.0046888020806428255 -0.002661944177745919
leaf_count=1248 7816 2267 641 2880 1049 2493 11431 809 5033 24339 11995 8546 2460 3690 3521 2063 2313 4499 6810 2157 4140 4540 50312 6515 467 10050 621 5628 6494 5209 5018 9379 29567
internal_value=0 0.20168 -0.357086 0.410337 -0.0884445 0.279995 -0.043665 0.484339 0.208326 -0.475213 -0.238347 0.114902 0.670199 0.726979 0.320754 0.43288 0.671564 0.740267 -0.166289 0.202933 0.728438 0.858604 -0.522491 0.548741 0.319819 0.258925 0.864063 -0.0185181 0.315114 0.386765 -0.200907 -0.172756 -0.106386
